SVM-light Version V6.02
0 # kernel type
3 # kernel parameter -d 
1 # kernel parameter -g 
1 # kernel parameter -s 
1 # kernel parameter -r 
empty# kernel parameter -u 
3000 # highest feature index 
3615 # number of training documents 
1143 # number of support vectors plus 1 
0.69326457 # threshold b, each following line is a SV (starting with alpha*y)
-0.1730489165294474 124:0.57735026 744:0.57735026 2907:0.57735026 #
-0.18447092342523264 10:0.70710677 170:0.70710677 #
-1.000000021624557 530:1 #
-1.000000021624557 308:1 #
-0.36347741009623719 85:0.57735026 519:0.57735026 1132:0.57735026 #
0.2517717548516038 9:0.57735026 746:0.57735026 1592:0.57735026 #
1.000000021624557 7:0.40824831 20:0.40824831 157:0.40824831 429:0.40824831 844:0.40824831 2443:0.40824831 #
0.49634811536870971 9:0.5 1742:0.5 2287:0.5 2490:0.5 #
1.000000021624557 9:0.40824831 137:0.40824831 164:0.40824831 433:0.40824831 2590:0.40824831 2773:0.40824831 #
0.7071386810622351 1021:0.57735026 1763:0.57735026 2775:0.57735026 #
-0.47039801362554012 4:0.1490712 9:0.1490712 12:0.1490712 17:0.1490712 18:0.1490712 19:0.1490712 24:0.1490712 60:0.1490712 78:0.1490712 86:0.1490712 117:0.1490712 134:0.1490712 160:0.1490712 162:0.1490712 188:0.1490712 192:0.2981424 196:0.1490712 225:0.1490712 266:0.1490712 283:0.1490712 285:0.1490712 347:0.1490712 367:0.1490712 428:0.1490712 433:0.2981424 466:0.1490712 492:0.1490712 495:0.2981424 615:0.2981424 690:0.1490712 879:0.1490712 1083:0.1490712 1263:0.1490712 #
-0.28252025954390025 24:0.5 215:0.5 1027:0.5 2918:0.5 #
-0.10222667437577036 180:0.70710677 189:0.70710677 #
-0.19284599978396089 688:1 #
1.000000021624557 153:0.70710677 530:0.70710677 #
1.000000021624557 26:0.44721359 30:0.44721359 85:0.44721359 871:0.44721359 1249:0.44721359 #
1.000000021624557 530:0.40824831 804:0.40824831 1596:0.40824831 1646:0.40824831 2234:0.40824831 2763:0.40824831 #
1.000000021624557 1:0.37796447 134:0.37796447 460:0.37796447 530:0.37796447 616:0.37796447 1612:0.37796447 2141:0.37796447 #
-0.42383992519071834 153:0.70710677 2898:0.70710677 #
-1.000000021624557 153:1 #
-0.9338071598435278 153:0.89442718 1104:0.44721359 #
1.000000021624557 36:0.5 231:0.5 1773:0.5 2566:0.5 #
1.000000021624557 153:0.57735026 164:0.57735026 868:0.57735026 #
1.000000021624557 36:0.40824831 56:0.40824831 124:0.40824831 289:0.40824831 393:0.40824831 836:0.40824831 #
1.000000021624557 7:0.2773501 8:0.2773501 24:0.2773501 36:0.2773501 124:0.2773501 326:0.2773501 1027:0.2773501 1704:0.2773501 2039:0.2773501 2318:0.2773501 2377:0.2773501 2424:0.2773501 2714:0.2773501 #
-0.10038223405268371 1143:0.70710677 1145:0.70710677 #
-0.0034464724576827033 1581:1 #
-0.10787648646135113 1174:0.57735026 1335:0.57735026 1483:0.57735026 #
-0.31968294248513618 249:0.44721359 621:0.44721359 672:0.44721359 902:0.44721359 1509:0.44721359 #
-0.021371038457041025 736:1 #
-0.25911561101624631 114:0.70710677 1041:0.70710677 #
1.000000021624557 153:1 #
1.000000021624557 3:0.19245009 10:0.19245009 19:0.19245009 25:0.38490018 36:0.19245009 57:0.19245009 129:0.38490018 153:0.38490018 355:0.19245009 782:0.19245009 853:0.19245009 1797:0.19245009 2108:0.19245009 2295:0.19245009 2544:0.19245009 2600:0.19245009 2709:0.19245009 2805:0.19245009 #
-0.92983526537899519 56:0.35355338 85:0.35355338 141:0.35355338 152:0.35355338 289:0.35355338 498:0.35355338 604:0.35355338 1562:0.35355338 #
1.000000021624557 153:0.70710677 2325:0.70710677 #
1.000000021624557 12:0.24253562 23:0.24253562 28:0.24253562 78:0.24253562 85:0.24253562 153:0.48507124 466:0.48507124 1015:0.24253562 2217:0.24253562 2394:0.24253562 2864:0.24253562 #
-1.000000021624557 153:1 #
-0.58370783529455006 153:0.81649661 252:0.40824831 543:0.40824831 #
-0.18936835506238658 5:0.40824831 153:0.81649661 360:0.40824831 #
1.000000021624557 30:0.26726124 41:0.26726124 98:0.26726124 107:0.26726124 191:0.26726124 196:0.53452247 1010:0.26726124 1030:0.26726124 1594:0.26726124 1606:0.26726124 2014:0.26726124 #
1.000000021624557 26:0.5 57:0.5 866:0.5 2050:0.5 #
1.000000021624557 6:0.5 101:0.5 615:0.5 1259:0.5 #
1.000000021624557 13:0.21821789 41:0.21821789 69:0.21821789 615:0.87287158 2132:0.21821789 2539:0.21821789 #
-1.000000021624557 8:0.44721359 57:0.44721359 85:0.44721359 152:0.44721359 1580:0.44721359 #
-0.043174976938152421 12:0.57735026 140:0.57735026 1008:0.57735026 #
-0.14532810617683545 165:0.5 958:0.5 1146:0.5 1175:0.5 #
-0.028756102241615938 68:0.35355338 327:0.35355338 400:0.35355338 535:0.35355338 537:0.35355338 601:0.35355338 1352:0.35355338 2940:0.35355338 #
1.000000021624557 18:0.57735026 153:0.57735026 1677:0.57735026 #
-1.000000021624557 153:1 #
-0.15034137633237862 85:0.44721359 197:0.44721359 198:0.44721359 622:0.44721359 870:0.44721359 #
0.19199842284245083 13:0.5 830:0.5 1581:0.5 2193:0.5 #
-1.000000021624557 153:0.81649661 1116:0.40824831 1270:0.40824831 #
1.000000021624557 3:0.25819889 25:0.51639777 55:0.25819889 57:0.25819889 79:0.25819889 83:0.25819889 85:0.25819889 199:0.25819889 1748:0.25819889 1861:0.25819889 2140:0.25819889 2360:0.25819889 #
-0.18826830612653514 290:0.70710677 929:0.70710677 #
1.000000021624557 41:0.40824831 85:0.40824831 453:0.40824831 1851:0.40824831 2448:0.40824831 2747:0.40824831 #
0.53242874098278525 13:0.30151135 85:0.30151135 158:0.30151135 223:0.30151135 395:0.30151135 1582:0.30151135 1977:0.30151135 1999:0.30151135 2185:0.30151135 2242:0.30151135 2728:0.30151135 #
0.11366128163906784 6:0.28867513 13:0.28867513 85:0.28867513 128:0.28867513 154:0.28867513 216:0.28867513 459:0.28867513 1275:0.28867513 2084:0.28867513 2237:0.28867513 2269:0.28867513 2503:0.28867513 #
-1.000000021624557 18:0.35355338 28:0.35355338 56:0.35355338 398:0.35355338 410:0.35355338 466:0.35355338 587:0.35355338 1321:0.35355338 #
-0.70159571530321896 28:0.70710677 1259:0.70710677 #
-0.58200536875781195 83:0.70710677 107:0.70710677 #
-0.43014500812061973 69:0.70710677 1259:0.70710677 #
1.000000021624557 13:0.57735026 107:0.57735026 1268:0.57735026 #
0.27202131320403833 2:0.5 153:0.5 802:0.5 828:0.5 #
-0.068032501455887129 439:1 #
1.000000021624557 41:0.28867513 56:0.28867513 113:0.28867513 153:0.57735026 191:0.28867513 285:0.28867513 321:0.28867513 467:0.28867513 2368:0.28867513 #
1.000000021624557 23:0.19611613 79:0.19611613 82:0.19611613 88:0.19611613 98:0.19611613 153:0.39223227 432:0.19611613 466:0.19611613 526:0.19611613 843:0.19611613 1580:0.19611613 1585:0.19611613 1607:0.39223227 1686:0.19611613 1794:0.19611613 2252:0.19611613 2351:0.19611613 2710:0.19611613 2716:0.19611613 2788:0.19611613 #
1.000000021624557 153:0.33333334 308:0.33333334 1033:0.33333334 1590:0.33333334 2498:0.33333334 2534:0.33333334 2560:0.33333334 2599:0.33333334 2840:0.33333334 #
-0.16134815559553956 133:0.70710677 2936:0.70710677 #
-0.98665650437043984 153:0.70710677 467:0.70710677 #
-0.12643664883488687 24:0.57735026 432:0.57735026 1274:0.57735026 #
0.58811927986968571 107:0.70710677 289:0.70710677 #
1.000000021624557 12:0.70710677 24:0.35355338 49:0.35355338 313:0.35355338 1584:0.35355338 #
1.000000021624557 24:0.53452247 69:0.26726124 217:0.26726124 224:0.26726124 1252:0.26726124 1666:0.26726124 1771:0.26726124 1945:0.26726124 2125:0.26726124 2587:0.26726124 2793:0.26726124 #
1.000000021624557 781:0.5 1580:0.5 2273:0.5 2864:0.5 #
-1.000000021624557 24:0.70710677 615:0.70710677 #
-0.65003934013379416 98:1 #
-1.000000021624557 24:1 #
1.000000021624557 10:0.25819889 55:0.25819889 150:0.25819889 153:0.25819889 254:0.25819889 356:0.25819889 428:0.25819889 615:0.25819889 617:0.25819889 1010:0.25819889 1669:0.25819889 1904:0.25819889 2521:0.25819889 2658:0.25819889 2725:0.25819889 #
1.000000021624557 28:0.2773501 107:0.2773501 128:0.2773501 153:0.2773501 285:0.2773501 854:0.2773501 1015:0.2773501 1241:0.2773501 1634:0.2773501 1756:0.2773501 2047:0.2773501 2267:0.2773501 2341:0.2773501 #
1.000000021624557 79:0.37796447 153:0.37796447 290:0.37796447 393:0.37796447 771:0.37796447 822:0.37796447 2067:0.37796447 #
-0.074967250425472642 71:1 #
-0.05293258472025808 85:1 #
-0.6986566593113368 285:1 #
-0.18316290674792221 44:0.44721359 497:0.44721359 1092:0.44721359 1215:0.44721359 1234:0.44721359 #
1.000000021624557 24:0.57735026 615:0.57735026 2672:0.57735026 #
1.000000021624557 24:0.63245553 89:0.31622776 1582:0.31622776 1653:0.31622776 2403:0.31622776 2564:0.31622776 2820:0.31622776 #
1.000000021624557 24:0.57735026 33:0.57735026 1619:0.57735026 #
1.000000021624557 24:0.5 1796:0.5 2586:0.5 2608:0.5 #
1.000000021624557 24:0.5 1682:0.5 2171:0.5 2845:0.5 #
-1.000000021624557 24:1 #
-0.33214846530013259 24:0.57735026 141:0.57735026 1594:0.57735026 #
-0.083361117854473352 14:0.17407766 15:0.17407766 22:0.17407766 24:0.17407766 36:0.34815532 72:0.17407766 79:0.17407766 106:0.17407766 123:0.17407766 135:0.17407766 246:0.17407766 342:0.17407766 352:0.17407766 526:0.17407766 549:0.17407766 569:0.17407766 617:0.34815532 695:0.17407766 737:0.17407766 919:0.17407766 1101:0.17407766 1292:0.17407766 1358:0.17407766 1583:0.17407766 1617:0.17407766 2865:0.17407766 2882:0.17407766 #
1.000000021624557 79:0.35355338 110:0.35355338 221:0.35355338 1248:0.35355338 2096:0.35355338 2224:0.35355338 2698:0.35355338 2703:0.35355338 #
1.000000021624557 79:0.35355338 166:0.35355338 847:0.35355338 1019:0.35355338 2330:0.35355338 2664:0.35355338 2720:0.35355338 2829:0.35355338 #
1.000000021624557 22:0.37796447 35:0.37796447 165:0.37796447 253:0.37796447 308:0.37796447 1024:0.37796447 1243:0.37796447 #
0.66306781929453273 153:0.33333334 366:0.66666669 825:0.33333334 1956:0.33333334 2258:0.33333334 2625:0.33333334 #
-0.12694227017984272 166:1 #
-1.000000021624557 25:0.57735026 366:0.57735026 526:0.57735026 #
-0.62674811029974764 12:0.70710677 1024:0.70710677 #
-0.30710385596325751 602:1 #
-1.000000021624557 6:0.37796447 12:0.37796447 50:0.37796447 186:0.37796447 281:0.37796447 289:0.37796447 536:0.37796447 #
1.000000021624557 13:0.35355338 24:0.35355338 225:0.35355338 443:0.35355338 1633:0.35355338 2470:0.35355338 2626:0.35355338 2721:0.35355338 #
-0.81464797620325857 199:0.44721359 1619:0.89442718 #
-0.60313197804131125 36:0.24253562 107:0.48507124 129:0.24253562 165:0.24253562 225:0.24253562 289:0.24253562 294:0.24253562 323:0.24253562 545:0.24253562 616:0.24253562 686:0.24253562 905:0.24253562 963:0.24253562 970:0.24253562 #
-0.65973507968449141 1633:1 #
-0.97814951822302343 123:0.70710677 1015:0.70710677 #
-0.86290446148435873 113:0.57735026 871:0.57735026 1027:0.57735026 #
1.000000021624557 153:0.31622776 281:0.31622776 362:0.31622776 366:0.63245553 526:0.31622776 2079:0.31622776 2359:0.31622776 #
1.000000021624557 4:0.31622776 526:0.63245553 756:0.31622776 1879:0.31622776 2212:0.31622776 2542:0.31622776 2804:0.31622776 #
1.000000021624557 19:0.70710677 615:0.70710677 #
-0.097058340406929677 79:0.40824831 515:0.81649661 526:0.40824831 #
-0.34213523486710179 51:0.37796447 394:0.37796447 615:0.75592893 1442:0.37796447 #
-0.15999392621195008 963:1 #
-0.43623185595318459 559:0.70710677 615:0.70710677 #
1.000000021624557 398:0.5 1031:0.5 1699:0.5 2431:0.5 #
1.000000021624557 59:0.70710677 199:0.35355338 285:0.35355338 445:0.35355338 832:0.35355338 #
1.000000021624557 440:0.44721359 837:0.44721359 1254:0.44721359 1817:0.44721359 2189:0.44721359 #
1.000000021624557 199:0.44721359 398:0.44721359 446:0.44721359 1249:0.44721359 2253:0.44721359 #
-0.9933638204376446 526:1 #
-1.000000021624557 526:0.70710677 1019:0.70710677 #
0.48470514870756182 191:0.40824831 455:0.40824831 1016:0.40824831 1032:0.40824831 1249:0.40824831 2221:0.40824831 #
0.20171992276409967 1:0.5 24:0.5 615:0.5 1798:0.5 #
1.000000021624557 24:0.31622776 125:0.31622776 135:0.31622776 448:0.31622776 615:0.31622776 1926:0.31622776 1990:0.31622776 2531:0.31622776 2613:0.31622776 2730:0.31622776 #
1.000000021624557 28:0.26726124 60:0.26726124 153:0.26726124 460:0.26726124 465:0.26726124 615:0.26726124 1844:0.26726124 1921:0.26726124 2280:0.26726124 2367:0.26726124 2751:0.53452247 #
-0.18127728334462007 735:0.70710677 2892:0.70710677 #
-0.30676411776746237 1004:1 #
-0.83577470251537223 59:1 #
1.000000021624557 253:0.44721359 364:0.44721359 526:0.44721359 1747:0.44721359 2651:0.44721359 #
1.000000021624557 12:0.16903085 31:0.16903085 60:0.16903085 128:0.16903085 366:0.33806169 526:0.50709254 745:0.16903085 830:0.16903085 845:0.16903085 1012:0.16903085 1769:0.33806169 1920:0.16903085 1989:0.16903085 2371:0.16903085 2543:0.33806169 2657:0.16903085 2724:0.16903085 2770:0.16903085 #
1.000000021624557 7:0.31622776 10:0.31622776 526:0.31622776 734:0.31622776 744:0.31622776 1679:0.31622776 1825:0.31622776 1928:0.31622776 2007:0.31622776 2641:0.31622776 #
1.000000021624557 90:0.21320072 197:0.21320072 285:0.21320072 308:0.21320072 444:0.63960212 526:0.21320072 848:0.21320072 1034:0.42640144 2525:0.21320072 2569:0.21320072 2853:0.21320072 #
1.000000021624557 4:0.40824831 435:0.40824831 468:0.40824831 531:0.40824831 833:0.40824831 1012:0.40824831 #
-1.000000021624557 253:1 #
-0.14751844405189368 274:0.70710677 672:0.70710677 #
-0.30746604389336057 628:0.70710677 3000:0.70710677 #
1.000000021624557 107:0.37796447 149:0.37796447 1019:0.37796447 1732:0.37796447 1891:0.37796447 2036:0.37796447 2292:0.37796447 #
1.000000021624557 1:0.2 22:0.2 26:0.2 32:0.40000001 70:0.2 90:0.2 107:0.2 153:0.2 283:0.40000001 733:0.2 766:0.2 867:0.2 1019:0.2 1253:0.2 1707:0.2 1783:0.2 1996:0.2 2114:0.2 2855:0.2 #
1.000000021624557 36:0.20851441 107:0.20851441 176:0.20851441 285:0.83405763 1020:0.20851441 2251:0.20851441 2463:0.20851441 2493:0.20851441 #
1.000000021624557 15:0.5 284:0.5 458:0.5 466:0.5 #
-1.000000021624557 285:1 #
1.000000021624557 253:1 #
1.000000021624557 136:0.70710677 253:0.70710677 #
-0.22561512166436506 698:0.70710677 1074:0.70710677 #
-0.11245256348629107 59:0.5 91:0.5 1631:0.5 2916:0.5 #
-1.000000021624557 107:1 #
1.000000021624557 18:0.57735026 285:0.57735026 620:0.57735026 #
1.000000021624557 394:0.57735026 759:0.57735026 2524:0.57735026 #
1.000000021624557 159:0.37796447 192:0.37796447 810:0.37796447 1902:0.37796447 1918:0.37796447 1988:0.37796447 2331:0.37796447 #
1.000000021624557 6:0.35355338 35:0.35355338 289:0.35355338 864:0.35355338 1029:0.35355338 1255:0.35355338 1270:0.35355338 1583:0.35355338 #
-1.000000021624557 6:0.44721359 33:0.44721359 199:0.44721359 1097:0.44721359 2987:0.44721359 #
-1.000000021624557 22:0.30151135 32:0.30151135 88:0.30151135 281:0.30151135 366:0.30151135 413:0.30151135 535:0.30151135 545:0.30151135 618:0.30151135 1114:0.30151135 2864:0.30151135 #
-0.30676412824514848 873:0.70710677 1172:0.70710677 #
-0.5579287722340085 89:1 #
-1.000000021624557 13:0.33333334 22:0.33333334 85:0.33333334 129:0.33333334 440:0.33333334 468:0.33333334 696:0.33333334 735:0.33333334 737:0.33333334 #
1.000000021624557 107:0.37796447 129:0.37796447 227:0.37796447 1581:0.37796447 1670:0.37796447 1869:0.37796447 2798:0.37796447 #
1.000000021624557 107:0.57735026 128:0.57735026 1761:0.57735026 #
1.000000021624557 50:0.31622776 107:0.31622776 820:0.31622776 846:0.31622776 1262:0.31622776 1767:0.31622776 1826:0.31622776 2135:0.31622776 2502:0.31622776 2514:0.31622776 #
1.000000021624557 10:0.25819889 35:0.25819889 100:0.25819889 107:0.25819889 195:0.25819889 253:0.25819889 442:0.25819889 526:0.25819889 837:0.25819889 1261:0.25819889 1271:0.25819889 2104:0.25819889 2605:0.25819889 2693:0.25819889 2863:0.25819889 #
-1.000000021624557 35:1 #
-0.25501862775709061 10:0.31622776 35:0.63245553 150:0.31622776 194:0.31622776 610:0.31622776 722:0.31622776 738:0.31622776 #
-1.000000021624557 1581:1 #
1.000000021624557 197:0.70710677 1635:0.70710677 #
1.000000021624557 22:0.44721359 355:0.44721359 1034:0.44721359 2263:0.44721359 2695:0.44721359 #
1.000000021624557 281:0.66666669 447:0.33333334 454:0.33333334 1256:0.33333334 1683:0.33333334 2030:0.33333334 #
1.000000021624557 13:0.20851441 32:0.20851441 442:0.20851441 449:0.20851441 615:0.20851441 621:0.41702881 739:0.20851441 1259:0.20851441 1617:0.20851441 1743:0.20851441 1866:0.20851441 1871:0.20851441 1895:0.20851441 2006:0.20851441 2032:0.20851441 2373:0.20851441 2483:0.20851441 2530:0.20851441 2541:0.20851441 2631:0.20851441 #
-1.000000021624557 16:0.35355338 142:0.35355338 281:0.35355338 538:0.35355338 739:0.35355338 998:0.35355338 1034:0.35355338 1271:0.35355338 #
-0.95285758146702271 442:1 #
-0.18418344245563398 176:0.57735026 227:0.57735026 305:0.57735026 #
-0.72423949425105161 227:0.57735026 1020:0.57735026 1472:0.57735026 #
1.000000021624557 35:0.57735026 452:0.57735026 841:0.57735026 #
1.000000021624557 3:0.40824831 35:0.40824831 152:0.40824831 197:0.40824831 738:0.40824831 1936:0.40824831 #
1.000000021624557 367:0.5 2190:0.5 2519:0.5 2683:0.5 #
1.000000021624557 15:0.30151135 33:0.30151135 126:0.30151135 539:0.30151135 813:0.30151135 1597:0.30151135 1946:0.30151135 2177:0.30151135 2555:0.30151135 2729:0.30151135 2739:0.30151135 #
-1.000000021624557 197:1 #
-1.000000021624557 128:0.31622776 175:0.31622776 344:0.31622776 367:0.63245553 466:0.31622776 1610:0.31622776 1611:0.31622776 #
-0.36290630197110024 112:0.57735026 165:0.57735026 432:0.57735026 #
-0.14257182349513497 581:0.70710677 729:0.70710677 #
-0.18285134318807333 4:0.20306924 10:0.10153462 27:0.20306924 30:0.40613848 38:0.40613848 40:0.10153462 48:0.40613848 85:0.20306924 167:0.10153462 193:0.10153462 262:0.10153462 281:0.10153462 290:0.10153462 306:0.20306924 337:0.10153462 366:0.40613848 403:0.10153462 432:0.10153462 565:0.10153462 578:0.10153462 1152:0.10153462 1169:0.10153462 1210:0.10153462 1409:0.10153462 2939:0.10153462 #
1.000000021624557 442:0.70710677 2715:0.70710677 #
1.000000021624557 33:0.37796447 538:0.37796447 744:0.37796447 863:0.37796447 1684:0.37796447 1860:0.37796447 2042:0.37796447 #
1.000000021624557 10:0.70710677 136:0.35355338 1266:0.35355338 2399:0.35355338 2489:0.35355338 #
1.000000021624557 129:0.37796447 219:0.37796447 1740:0.37796447 2023:0.37796447 2142:0.37796447 2421:0.37796447 2800:0.37796447 #
1.000000021624557 432:0.5 736:0.5 1626:0.5 2416:0.5 #
-0.27390916538682503 612:0.70710677 1369:0.70710677 #
-0.052760965904784962 466:1 #
-0.48265494558814515 10:0.70710677 308:0.70710677 #
-0.031855285264482454 136:0.57735026 372:0.57735026 531:0.57735026 #
-0.99857795690427542 736:1 #
1.000000021624557 466:0.70710677 2092:0.70710677 #
1.000000021624557 31:0.2773501 36:0.2773501 57:0.2773501 466:0.5547002 1238:0.2773501 2238:0.2773501 2477:0.2773501 2673:0.2773501 2700:0.2773501 2737:0.2773501 #
1.000000021624557 466:0.37796447 2034:0.37796447 2226:0.75592893 2472:0.37796447 #
1.000000021624557 310:0.60302269 318:0.60302269 466:0.30151135 1709:0.30151135 1875:0.30151135 #
-1.000000021624557 466:1 #
1.000000021624557 311:0.60302269 623:0.30151135 736:0.30151135 1637:0.30151135 1812:0.30151135 1863:0.30151135 2082:0.30151135 2717:0.30151135 #
1.000000021624557 2:0.15075567 4:0.15075567 19:0.15075567 32:0.30151135 193:0.15075567 199:0.30151135 226:0.15075567 229:0.15075567 251:0.15075567 253:0.15075567 285:0.15075567 367:0.30151135 398:0.30151135 531:0.15075567 757:0.15075567 857:0.30151135 1271:0.30151135 1935:0.15075567 2021:0.15075567 2133:0.15075567 2176:0.15075567 2196:0.15075567 2254:0.15075567 2507:0.15075567 2618:0.15075567 2866:0.15075567 #
1.000000021624557 308:0.35355338 309:0.70710677 1775:0.35355338 2645:0.35355338 2810:0.35355338 #
-1.000000021624557 3:0.20412415 12:0.20412415 15:0.20412415 24:0.20412415 26:0.40824831 33:0.20412415 48:0.20412415 67:0.20412415 102:0.40824831 239:0.20412415 284:0.20412415 525:0.20412415 679:0.20412415 745:0.20412415 912:0.20412415 1011:0.20412415 1189:0.20412415 2866:0.20412415 #
-1.000000021624557 37:0.40824831 107:0.40824831 402:0.40824831 466:0.40824831 614:0.40824831 896:0.40824831 #
-1.000000021624557 398:1 #
-1.000000021624557 308:1 #
-1.000000021624557 432:0.57735026 437:0.57735026 1248:0.57735026 #
1.000000021624557 23:0.31622776 367:0.63245553 522:0.63245553 1837:0.31622776 #
1.000000021624557 63:0.70710677 852:0.70710677 #
1.000000021624557 84:1 #
1.000000021624557 1702:0.5 1831:0.5 2161:0.5 2627:0.5 #
1.000000021624557 451:0.25819889 858:0.25819889 1618:0.25819889 1899:0.25819889 2025:0.25819889 2277:0.25819889 2308:0.51639777 2511:0.25819889 2535:0.25819889 2612:0.25819889 2762:0.25819889 2813:0.25819889 #
-0.97626120704009123 63:1 #
-0.16252065615275746 350:1 #
-0.73417398362585828 50:0.57735026 129:0.57735026 522:0.57735026 #
-0.052224285766239713 63:0.70710677 723:0.70710677 #
-0.20728853089262467 153:0.57735026 719:0.57735026 875:0.57735026 #
1.000000021624557 107:0.40824831 149:0.40824831 285:0.40824831 774:0.40824831 1251:0.40824831 1625:0.40824831 #
1.000000021624557 15:0.5 37:0.5 317:0.5 827:0.5 #
1.000000021624557 319:0.30151135 441:0.30151135 780:0.30151135 865:0.30151135 1248:0.60302269 1598:0.30151135 2386:0.30151135 2779:0.30151135 #
1.000000021624557 37:0.40824831 111:0.40824831 1011:0.40824831 1018:0.40824831 2105:0.40824831 2333:0.40824831 #
-1.000000021624557 367:1 #
-1.000000021624557 4:0.35355338 12:0.35355338 19:0.35355338 49:0.35355338 93:0.35355338 174:0.35355338 289:0.35355338 367:0.35355338 #
-0.043933774307691686 71:0.70710677 367:0.70710677 #
-0.71504459226464168 1251:1 #
-0.34657384008446346 367:0.5 390:0.5 428:0.5 1293:0.5 #
0.95576328536056021 109:0.5547002 432:0.2773501 769:0.5547002 1768:0.2773501 1969:0.2773501 2013:0.2773501 2680:0.2773501 #
1.000000021624557 308:0.44721359 366:0.44721359 466:0.44721359 1019:0.44721359 2317:0.44721359 #
1.000000021624557 32:0.23570226 110:0.23570226 524:0.23570226 623:0.23570226 772:0.23570226 791:0.23570226 1581:0.23570226 1903:0.47140452 1994:0.23570226 2390:0.23570226 2545:0.23570226 2701:0.47140452 #
1.000000021624557 33:0.37796447 129:0.37796447 285:0.37796447 431:0.37796447 432:0.37796447 1855:0.37796447 2516:0.37796447 #
-0.14481317186116704 117:1 #
-1.000000021624557 153:0.35355338 285:0.35355338 466:0.35355338 526:0.35355338 1021:0.35355338 1058:0.35355338 1381:0.35355338 1635:0.35355338 #
-1.000000021624557 285:1 #
-1.000000021624557 285:1 #
1.000000021624557 14:0.31622776 367:0.63245553 833:0.31622776 860:0.31622776 1611:0.31622776 1802:0.31622776 2265:0.31622776 #
1.000000021624557 626:0.57735026 1013:0.57735026 2433:0.57735026 #
1.000000021624557 2348:1 #
1.000000021624557 783:0.37796447 1587:0.75592893 1656:0.37796447 2117:0.37796447 #
1.000000021624557 1691:0.57735026 2208:0.57735026 2679:0.57735026 #
-1.000000021624557 36:0.57735026 79:0.57735026 366:0.57735026 #
0.037098086483827952 13:0.5 1750:0.5 1907:0.5 1919:0.5 #
-1.000000021624557 253:1 #
-0.59557503620459584 1218:0.70710677 1625:0.70710677 #
-0.84571227318276121 356:0.70710677 1253:0.70710677 #
1.000000021624557 7:0.28867513 107:0.28867513 285:0.28867513 315:0.28867513 1274:0.28867513 1614:0.28867513 1878:0.28867513 2501:0.28867513 2553:0.28867513 2575:0.28867513 2668:0.28867513 2755:0.28867513 #
-0.88411096376369358 620:1 #
-0.13506607865951836 111:1 #
-0.85467987895920261 1252:1 #
1.000000021624557 870:0.70710677 2816:0.70710677 #
1.000000021624557 1014:0.70710677 2159:0.70710677 #
-0.30634122695736876 630:1 #
-0.29217667423990717 107:0.70710677 139:0.70710677 #
-0.084972369523528657 103:0.57735026 146:0.57735026 471:0.57735026 #
1.000000021624557 2150:1 #
1.000000021624557 1793:0.5 1862:0.5 2562:0.5 2815:0.5 #
1.000000021624557 2637:1 #
1.000000021624557 1631:0.57735026 1779:0.57735026 2584:0.57735026 #
1.000000021624557 1632:1 #
-0.78017798794293858 549:0.57735026 882:0.57735026 1632:0.57735026 #
-0.42702311601314957 1261:1 #
-0.20573311973209218 399:0.5 432:0.5 1226:0.5 1274:0.5 #
-1.000000021624557 283:1 #
-0.1849220758788917 651:0.57735026 906:0.57735026 1297:0.57735026 #
1.000000021624557 1589:0.5 1644:0.5 1912:0.5 2822:0.5 #
-1.000000021624557 24:0.57735026 47:0.57735026 149:0.57735026 #
-1.000000021624557 308:1 #
-0.19061342999426747 308:0.94868332 490:0.31622776 #
1.000000021624557 12:0.40824831 14:0.40824831 217:0.40824831 283:0.40824831 397:0.40824831 519:0.40824831 #
1.000000021624557 779:0.57735026 1991:0.57735026 2824:0.57735026 #
0.95065835851474179 316:1 #
1.000000021624557 1814:1 #
1.000000021624557 842:0.5 1026:0.5 1973:0.5 2311:0.5 #
-0.0054089799247363218 77:0.44721359 88:0.44721359 129:0.44721359 195:0.44721359 415:0.44721359 #
-0.74650409365716031 81:0.70710677 1590:0.70710677 #
-0.52084212934990548 1256:1 #
-0.62435269634077772 397:0.70710677 442:0.70710677 #
-0.15622787313566366 6:0.75 57:0.25 72:0.25 80:0.25 85:0.25 285:0.25 434:0.25 488:0.25 #
1.000000021624557 2099:0.70710677 2473:0.70710677 #
-0.39437016232412442 1129:0.57735026 1361:0.57735026 1631:0.57735026 #
-1.000000021624557 124:1 #
-0.40881984377486147 733:1 #
-0.53786009028615223 734:1 #
-0.78357293512955795 177:0.5 394:0.5 429:0.5 870:0.5 #
1.000000021624557 627:0.40824831 794:0.40824831 1247:0.40824831 1701:0.40824831 2282:0.40824831 2520:0.40824831 #
1.000000021624557 1648:0.5 1983:0.5 2083:0.5 2619:0.5 #
1.000000021624557 220:0.44721359 2168:0.44721359 2561:0.44721359 2676:0.44721359 2862:0.44721359 #
1.000000021624557 2120:0.70710677 2478:0.70710677 #
1.000000021624557 2570:1 #
-0.062318230838902422 735:1 #
-0.85235560773663399 1026:0.70710677 1622:0.70710677 #
-0.63967847639367592 534:0.70710677 1019:0.70710677 #
-0.21133479491054671 273:0.70710677 1019:0.70710677 #
-0.16174481038609309 441:0.70710677 698:0.70710677 #
1.000000021624557 1272:0.70710677 2209:0.70710677 #
1.000000021624557 198:0.70710677 2610:0.70710677 #
1.000000021624557 1591:1 #
1.000000021624557 1659:1 #
1.000000021624557 312:0.44721359 1680:0.44721359 1932:0.44721359 2343:0.44721359 2437:0.44721359 #
-1.000000021624557 198:0.94280905 254:0.23570226 1073:0.23570226 #
-0.025860333060186647 24:1 #
-0.092286843722335865 12:0.57735026 140:0.57735026 1008:0.57735026 #
-0.21181758171081491 49:0.31622776 295:0.31622776 356:0.31622776 394:0.31622776 535:0.31622776 617:0.31622776 647:0.31622776 962:0.31622776 1538:0.31622776 1632:0.31622776 #
-0.62293966857035021 362:1 #
1.000000021624557 777:0.57735026 1016:0.57735026 2029:0.57735026 #
1.000000021624557 1889:1 #
-0.26303041666599547 326:1 #
-0.24122709716622093 60:1 #
-0.30274950324818029 207:0.70710677 1255:0.70710677 #
-0.63701755266003812 101:0.70710677 1245:0.70710677 #
1.000000021624557 1717:0.57735026 2393:0.57735026 2513:0.57735026 #
1.000000021624557 363:0.70710677 2074:0.70710677 #
1.000000021624557 2097:0.57735026 2414:0.57735026 2582:0.57735026 #
1.000000021624557 831:0.70710677 2077:0.70710677 #
-1.000000021624557 363:1 #
-0.035217621543520997 363:0.57735026 377:0.57735026 911:0.57735026 #
-0.10182214257114025 263:0.70710677 299:0.70710677 #
1.000000021624557 2344:1 #
1.000000021624557 796:0.5 1910:0.5 2236:0.5 2349:0.5 #
1.000000021624557 77:1 #
1.000000021624557 134:0.33333334 807:0.33333334 850:0.66666669 1640:0.33333334 1852:0.33333334 2712:0.33333334 #
-1.000000021624557 77:0.70710677 356:0.70710677 #
-0.055417918488712262 199:0.40824831 306:0.40824831 615:0.40824831 734:0.40824831 884:0.40824831 1462:0.40824831 #
-0.030238288595136949 76:0.26726124 91:0.26726124 101:0.26726124 153:0.26726124 433:0.26726124 476:0.26726124 479:0.26726124 696:0.26726124 1306:0.53452247 1556:0.26726124 2981:0.26726124 #
-0.15648126716829247 616:0.5 721:0.5 1167:0.5 1444:0.5 #
-0.52487791802506845 134:0.70710677 258:0.70710677 #
-0.2776137551892614 19:0.40824831 116:0.40824831 249:0.40824831 688:0.40824831 1029:0.40824831 1266:0.40824831 #
-0.071958718867333821 75:0.33333334 114:0.33333334 359:0.33333334 466:0.33333334 1117:0.66666669 1314:0.33333334 #
-0.45341301444650978 524:0.57735026 616:0.57735026 1602:0.57735026 #
-0.43363567583641349 199:0.57735026 1033:0.57735026 1254:0.57735026 #
-0.18318932394269988 281:0.57735026 431:0.57735026 1484:0.57735026 #
-0.0962744908131032 1377:0.44721359 1617:0.89442718 #
-1.000000021624557 4:0.46188021 14:0.11547005 24:0.11547005 31:0.11547005 43:0.2309401 93:0.11547005 98:0.11547005 233:0.11547005 240:0.11547005 251:0.11547005 283:0.11547005 289:0.11547005 526:0.2309401 531:0.11547005 541:0.34641016 626:0.11547005 667:0.2309401 881:0.34641016 1265:0.11547005 1272:0.46188021 #
-0.12639656488896794 435:0.40824831 470:0.40824831 493:0.40824831 598:0.40824831 943:0.40824831 2960:0.40824831 #
-0.011048079059061673 65:0.40824831 255:0.40824831 406:0.40824831 435:0.40824831 1258:0.40824831 1412:0.40824831 #
-0.32753543152389208 343:0.40824831 435:0.81649661 1253:0.40824831 #
0.99195708307969443 289:0.5 428:0.5 2107:0.5 2686:0.5 #
-0.41334975147712427 582:0.57735026 744:0.57735026 1612:0.57735026 #
-1.000000021624557 32:0.57735026 1011:0.57735026 1018:0.57735026 #
-0.1281075971400803 60:0.57735026 144:0.57735026 2881:0.57735026 #
-0.391592885958158 386:0.70710677 1275:0.70710677 #
-0.039925085364836417 32:0.57735026 98:0.57735026 1150:0.57735026 #
-1.000000021624557 17:0.44721359 37:0.44721359 107:0.44721359 649:0.44721359 709:0.44721359 #
-0.3809900325924051 147:0.44721359 472:0.44721359 629:0.44721359 1031:0.44721359 1057:0.44721359 #
-0.38405628597202229 21:0.70710677 134:0.70710677 #
-0.30746604389336057 1223:0.70710677 1576:0.70710677 #
-1.000000021624557 285:1 #
-0.26447563587167455 371:0.57735026 586:0.57735026 1238:0.57735026 #
-0.17393691732527544 395:0.57735026 936:0.57735026 1490:0.57735026 #
-1.000000021624557 231:1 #
-0.11348338777130551 107:0.40824831 153:0.40824831 308:0.40824831 521:0.40824831 533:0.40824831 1425:0.40824831 #
-0.7599447931303861 468:1 #
-0.7957044637412749 103:0.2773501 135:0.5547002 185:0.2773501 284:0.2773501 380:0.2773501 416:0.2773501 1033:0.2773501 1280:0.2773501 1609:0.2773501 2924:0.2773501 #
-0.67798987682375478 90:1 #
-0.48298082172146384 164:0.20412415 166:0.20412415 241:0.40824831 334:0.61237246 385:0.20412415 428:0.40824831 685:0.20412415 1582:0.20412415 1632:0.20412415 2951:0.20412415 #
1.000000021624557 285:0.70710677 308:0.70710677 #
1.000000021624557 79:0.5 111:0.5 285:0.5 1018:0.5 #
1.000000021624557 2:0.20851441 19:0.20851441 22:0.20851441 57:0.20851441 124:0.41702881 134:0.20851441 153:0.20851441 198:0.20851441 438:0.20851441 1010:0.20851441 1621:0.20851441 1693:0.20851441 1806:0.20851441 1913:0.20851441 1942:0.20851441 2000:0.20851441 2178:0.20851441 2419:0.20851441 2440:0.20851441 2790:0.20851441 #
1.000000021624557 134:0.30151135 153:0.30151135 154:0.30151135 216:0.30151135 250:0.30151135 308:0.30151135 429:0.30151135 798:0.30151135 1028:0.30151135 2124:0.30151135 2846:0.30151135 #
1.000000021624557 2:0.44721359 463:0.44721359 615:0.44721359 1020:0.44721359 1252:0.44721359 #
1.000000021624557 1:0.23570226 15:0.23570226 20:0.23570226 22:0.23570226 24:0.23570226 107:0.23570226 124:0.23570226 166:0.23570226 222:0.23570226 615:0.23570226 863:0.23570226 1019:0.23570226 1627:0.23570226 1751:0.23570226 2160:0.23570226 2232:0.23570226 2284:0.23570226 2708:0.23570226 #
1.000000021624557 6:0.44721359 32:0.44721359 165:0.44721359 1021:0.44721359 1588:0.44721359 #
1.000000021624557 79:0.57735026 2227:0.57735026 2722:0.57735026 #
1.000000021624557 2:0.37796447 98:0.37796447 124:0.37796447 1581:0.37796447 2109:0.37796447 2550:0.37796447 2742:0.37796447 #
1.000000021624557 356:0.57735026 2001:0.57735026 2098:0.57735026 #
1.000000021624557 3:0.30151135 37:0.30151135 107:0.30151135 153:0.30151135 466:0.30151135 615:0.30151135 1011:0.30151135 1027:0.30151135 2289:0.30151135 2485:0.30151135 2675:0.30151135 #
1.000000021624557 283:0.57735026 2239:0.57735026 2533:0.57735026 #
1.000000021624557 449:0.2773501 744:0.2773501 847:0.2773501 1019:0.2773501 1600:0.2773501 1839:0.2773501 1881:0.2773501 1888:0.2773501 2417:0.5547002 2685:0.2773501 #
1.000000021624557 9:0.25 526:0.5 534:0.25 625:0.25 750:0.25 1026:0.25 1585:0.25 1634:0.25 1754:0.25 1874:0.25 2352:0.25 2413:0.25 2495:0.25 #
1.000000021624557 806:0.5 1033:0.5 1955:0.5 2290:0.5 #
1.000000021624557 32:0.44721359 451:0.44721359 861:0.44721359 2306:0.44721359 2655:0.44721359 #
0.89043536389448508 13:0.37796447 134:0.37796447 153:0.37796447 2086:0.37796447 2192:0.37796447 2652:0.37796447 2849:0.37796447 #
1.000000021624557 25:0.35355338 153:0.35355338 194:0.35355338 230:0.35355338 289:0.35355338 1816:0.35355338 2321:0.35355338 2404:0.35355338 #
1.000000021624557 79:0.24253562 110:0.24253562 529:0.24253562 1019:0.48507124 1596:0.24253562 2387:0.48507124 2411:0.48507124 2428:0.24253562 #
1.000000021624557 314:0.37796447 445:0.37796447 468:0.37796447 1667:0.37796447 1668:0.37796447 2205:0.37796447 2337:0.37796447 #
1.000000021624557 281:0.30151135 313:0.30151135 356:0.30151135 526:0.30151135 842:0.60302269 2071:0.30151135 2115:0.30151135 2247:0.30151135 #
1.000000021624557 79:0.44721359 2199:0.44721359 2418:0.44721359 2471:0.44721359 2616:0.44721359 #
0.95683465120764577 12:0.30151135 37:0.30151135 748:0.30151135 1590:0.30151135 1600:0.30151135 1635:0.30151135 1678:0.30151135 2316:0.30151135 2422:0.30151135 2484:0.30151135 2692:0.30151135 #
-1.000000021624557 79:1 #
-0.38635807331976002 396:0.31622776 703:0.31622776 1010:0.31622776 1029:0.31622776 1243:0.63245553 2906:0.31622776 2953:0.31622776 #
1.000000021624557 14:0.35355338 36:0.35355338 71:0.35355338 252:0.35355338 1593:0.35355338 1824:0.35355338 1887:0.35355338 2522:0.35355338 #
1.000000021624557 541:0.57735026 774:0.57735026 829:0.57735026 #
0.69617348588767247 26:0.25 191:0.25 284:0.75 527:0.25 767:0.25 1032:0.25 2527:0.25 2766:0.25 #
1.000000021624557 36:0.44721359 615:0.44721359 1021:0.44721359 1965:0.44721359 2596:0.44721359 #
1.000000021624557 109:0.57735026 308:0.57735026 752:0.57735026 #
-0.60834367480632834 1028:1 #
-0.82331338833877277 15:1 #
-0.079620989416280402 288:0.70710677 1195:0.70710677 #
0.76652343748139984 3:0.24253562 749:0.24253562 792:0.24253562 805:0.24253562 1275:0.24253562 1593:0.24253562 1594:0.24253562 1791:0.24253562 1820:0.24253562 2066:0.24253562 2241:0.24253562 2356:0.24253562 2389:0.24253562 2458:0.24253562 2606:0.24253562 2678:0.24253562 2768:0.24253562 #
0.87538734945434449 23:0.44721359 177:0.44721359 2465:0.44721359 2719:0.44721359 2812:0.44721359 #
-1.000000021624557 165:1 #
-0.41801306690462559 1621:1 #
-1.000000021624557 8:0.5 56:0.5 57:0.5 124:0.5 #
-0.27448951594706389 327:0.40824831 332:0.40824831 400:0.40824831 908:0.40824831 1336:0.40824831 1564:0.40824831 #
1.000000021624557 867:0.70710677 2459:0.70710677 #
1.000000021624557 41:0.23570226 252:0.23570226 530:0.23570226 753:0.47140452 1897:0.23570226 1981:0.23570226 1993:0.47140452 2017:0.23570226 2211:0.23570226 2353:0.23570226 2526:0.23570226 2617:0.23570226 #
1.000000021624557 57:0.22941573 153:0.22941573 432:0.22941573 1744:0.22941573 1885:0.22941573 1930:0.45883146 2100:0.22941573 2143:0.22941573 2233:0.22941573 2279:0.45883146 2301:0.22941573 2669:0.22941573 2780:0.22941573 #
1.000000021624557 10:0.31622776 14:0.31622776 526:0.31622776 736:0.31622776 1272:0.31622776 1601:0.31622776 1774:0.31622776 1867:0.31622776 2396:0.31622776 2818:0.31622776 #
1.000000021624557 37:0.40824831 60:0.40824831 129:0.40824831 444:0.40824831 1022:0.40824831 1034:0.40824831 #
-1.000000021624557 128:0.26726124 136:0.53452247 285:0.26726124 526:0.53452247 922:0.26726124 986:0.26726124 1163:0.26726124 1301:0.26726124 #
-1.000000021624557 466:1 #
1.000000021624557 13:0.24253562 57:0.24253562 461:0.24253562 465:0.24253562 616:0.48507124 734:0.24253562 1254:0.24253562 1258:0.24253562 1734:0.24253562 1818:0.24253562 2012:0.24253562 2327:0.24253562 2442:0.24253562 2682:0.24253562 #
1.000000021624557 525:1 #
-0.10429116972278456 127:0.37796447 170:0.37796447 522:0.37796447 619:0.37796447 935:0.37796447 1627:0.37796447 2972:0.37796447 #
-0.13896003738987939 438:0.5 1108:0.5 1230:0.5 1308:0.5 #
-0.28199870729804677 32:0.40824831 35:0.40824831 118:0.40824831 153:0.40824831 713:0.40824831 1271:0.40824831 #
-0.076685810538425797 32:0.57735026 153:0.28867513 478:0.28867513 573:0.28867513 687:0.28867513 1019:0.28867513 1035:0.28867513 1045:0.28867513 1052:0.28867513 #
-1.000000021624557 32:1 #
-0.30119858051829962 193:1 #
-0.40580929588042858 134:0.57735026 500:0.57735026 2943:0.57735026 #
-0.20170318552100366 283:0.70710677 901:0.70710677 #
-0.10698833492295268 54:0.5 196:0.5 645:0.5 1469:0.5 #
-0.30660967975345488 1100:1 #
-0.0089197914895443597 76:0.5 201:0.5 205:0.5 1027:0.5 #
-0.30640681086285926 184:1 #
-0.28845143076424495 262:1 #
-0.06902395518053514 259:0.70710677 1387:0.70710677 #
-0.21098557469143286 28:0.37796447 36:0.37796447 290:0.37796447 291:0.37796447 615:0.37796447 870:0.37796447 1096:0.37796447 #
-0.31768769898963201 550:0.94868332 1241:0.31622776 #
-0.30658472675066972 595:1 #
-0.28790363801632612 148:1 #
-0.25306533331108638 46:1 #
-0.1809687775381523 24:0.70710677 1238:0.70710677 #
-0.14887402303561442 294:0.35355338 441:0.70710677 1154:0.35355338 1234:0.35355338 2989:0.35355338 #
-0.099730192500484566 178:0.81649661 538:0.40824831 1227:0.40824831 #
-0.30671189784084485 2878:1 #
-0.13691482528513066 27:1 #
-0.30666778296842756 161:1 #
1.000000021624557 9:0.40824831 15:0.40824831 22:0.40824831 24:0.40824831 323:0.40824831 2456:0.40824831 #
0.85626155704906048 1:0.44721359 8:0.44721359 79:0.44721359 1857:0.44721359 2402:0.44721359 #
1.000000021624557 110:0.5 466:0.5 1695:0.5 2753:0.5 #
1.000000021624557 1:0.33333334 124:0.33333334 285:0.33333334 1267:0.33333334 1622:0.33333334 1726:0.33333334 2231:0.33333334 2536:0.33333334 2666:0.33333334 #
1.000000021624557 79:0.5 316:0.5 1892:0.5 2090:0.5 #
-0.17332369184060364 22:0.57735026 124:0.57735026 910:0.57735026 #
-1.000000021624557 12:0.26726124 19:0.26726124 20:0.26726124 24:0.26726124 33:0.26726124 79:0.26726124 143:0.26726124 153:0.26726124 617:0.26726124 907:0.26726124 1021:0.26726124 1210:0.26726124 1263:0.26726124 2937:0.26726124 #
-0.061765173131699713 97:0.5 131:0.5 215:0.5 1133:0.5 #
-1.000000021624557 6:0.44721359 14:0.2236068 79:0.2236068 326:0.2236068 493:0.2236068 539:0.2236068 676:0.2236068 704:0.2236068 740:0.44721359 979:0.2236068 1443:0.2236068 1580:0.2236068 1627:0.2236068 2977:0.2236068 #
-0.081583079345259518 19:0.25819889 25:0.25819889 124:0.25819889 251:0.51639777 615:0.51639777 1271:0.51639777 #
1.000000021624557 57:0.33333334 153:0.33333334 430:0.33333334 532:0.33333334 1821:0.66666669 2041:0.33333334 #
1.000000021624557 196:0.40824831 1635:0.40824831 1657:0.40824831 2147:0.40824831 2175:0.40824831 2281:0.40824831 #
1.000000021624557 7:0.31622776 19:0.31622776 35:0.31622776 58:0.31622776 153:0.31622776 360:0.31622776 434:0.31622776 521:0.31622776 1882:0.31622776 2865:0.31622776 #
1.000000021624557 1583:0.57735026 2623:0.57735026 2749:0.57735026 #
1.000000021624557 832:0.57735026 2332:0.57735026 2405:0.57735026 #
-0.099336888067247373 167:0.35355338 428:0.35355338 612:0.35355338 714:0.35355338 1268:0.35355338 1456:0.35355338 1533:0.35355338 1571:0.35355338 #
-0.51332420113935084 521:1 #
-0.37309481750852103 434:1 #
-0.26083813964841895 532:1 #
-0.29085296724625764 131:0.57735026 960:0.57735026 1624:0.57735026 #
0.84055198458305092 33:0.2773501 124:0.2773501 165:0.2773501 367:0.2773501 1015:0.2773501 1021:0.2773501 1582:0.2773501 1609:0.2773501 2127:0.5547002 2204:0.2773501 #
0.9035241016982386 3:0.33333334 124:0.33333334 466:0.33333334 1015:0.33333334 1986:0.33333334 2310:0.33333334 2388:0.33333334 2622:0.33333334 2765:0.33333334 #
0.88697042774395729 3:0.33333334 40:0.33333334 79:0.33333334 108:0.66666669 2203:0.33333334 2509:0.33333334 #
1.000000021624557 846:0.70710677 2326:0.70710677 #
1.000000021624557 158:0.57735026 223:0.57735026 285:0.57735026 #
-0.48034469401917368 35:0.70710677 379:0.70710677 #
-0.30823370589107468 35:0.70710677 703:0.70710677 #
-0.3728876520479032 35:0.70710677 94:0.70710677 #
-1.000000021624557 196:0.70710677 466:0.70710677 #
1.000000021624557 366:0.37796447 803:0.75592893 1650:0.37796447 2197:0.37796447 #
0.86857098827790835 19:0.30151135 23:0.30151135 57:0.30151135 288:0.30151135 393:0.30151135 441:0.30151135 824:0.30151135 1245:0.30151135 1263:0.30151135 1970:0.30151135 2674:0.30151135 #
1.000000021624557 865:1 #
1.000000021624557 14:0.24253562 466:0.24253562 785:0.24253562 1010:0.24253562 1584:0.24253562 1605:0.24253562 2088:0.24253562 2183:0.24253562 2216:0.24253562 2243:0.24253562 2291:0.24253562 2324:0.24253562 2336:0.24253562 2354:0.24253562 2401:0.24253562 2540:0.24253562 2741:0.24253562 #
0.74229330855533404 37:0.33333334 128:0.33333334 227:0.33333334 396:0.33333334 745:0.33333334 2305:0.33333334 2307:0.33333334 2361:0.33333334 2732:0.33333334 #
-0.30689530696280376 1463:1 #
-0.30651752024643841 1526:1 #
-0.51197148448029817 60:0.70710677 615:0.70710677 #
-0.30651752024643841 105:1 #
-0.23580522946489257 1143:1 #
1.000000021624557 289:0.35355338 325:0.35355338 466:0.35355338 1031:0.35355338 1807:0.35355338 2045:0.35355338 2430:0.35355338 2689:0.35355338 #
1.000000021624557 14:0.35355338 466:0.35355338 1253:0.35355338 2076:0.35355338 2358:0.35355338 2420:0.35355338 2620:0.35355338 2624:0.35355338 #
0.79070911843389724 6:0.30151135 35:0.30151135 289:0.30151135 864:0.30151135 1029:0.30151135 1255:0.30151135 1270:0.30151135 1583:0.60302269 #
0.95753897294863677 33:0.37796447 1720:0.37796447 1924:0.75592893 2121:0.37796447 #
1.000000021624557 23:0.35355338 252:0.35355338 466:0.35355338 782:0.35355338 848:0.35355338 1786:0.35355338 2441:0.35355338 2480:0.35355338 #
-0.16462643927955251 427:0.44721359 576:0.44721359 715:0.44721359 1413:0.44721359 2974:0.44721359 #
-1.000000021624557 466:1 #
-0.018292105541625053 196:0.70710677 466:0.70710677 #
1.000000021624557 529:0.70710677 820:0.70710677 #
0.89677651508467515 13:0.47140452 69:0.23570226 735:0.47140452 871:0.23570226 1762:0.23570226 2298:0.23570226 2323:0.23570226 2339:0.23570226 2365:0.23570226 2438:0.23570226 2556:0.23570226 2797:0.23570226 #
1.000000021624557 627:1 #
1.000000021624557 804:1 #
1.000000021624557 224:0.57735026 626:0.57735026 2240:0.57735026 #
-0.42534831466113415 1539:0.70710677 1608:0.70710677 #
-0.04060066412207286 60:0.24253562 79:0.24253562 131:0.24253562 244:0.24253562 359:0.24253562 404:0.24253562 432:0.24253562 478:0.24253562 573:0.24253562 605:0.24253562 687:0.24253562 718:0.24253562 1027:0.24253562 1052:0.24253562 1455:0.24253562 1481:0.24253562 1517:0.24253562 #
-0.30606854694985419 104:1 #
-0.22605698457837453 39:1 #
-0.28647841299968668 989:0.70710677 1060:0.70710677 #
0.92650537624623019 3:0.37796447 466:0.37796447 1610:0.37796447 2065:0.37796447 2085:0.37796447 2274:0.37796447 2406:0.37796447 #
0.57710449924015894 14:0.44721359 466:0.44721359 2069:0.44721359 2347:0.44721359 2671:0.44721359 #
0.71517054879837172 1:0.31622776 153:0.31622776 446:0.31622776 466:0.31622776 1674:0.31622776 1845:0.31622776 1958:0.31622776 2123:0.31622776 2467:0.31622776 2795:0.31622776 #
0.7457073365852025 2:0.40824831 50:0.40824831 1712:0.40824831 1961:0.40824831 2044:0.40824831 2830:0.40824831 #
-0.01276120799203144 21:0.70710677 1319:0.70710677 #
-0.0049897213562707377 22:1 #
-0.42383992519332631 153:0.70710677 1142:0.70710677 #
-0.42384682093463888 153:0.70710677 680:0.70710677 #
-0.28976971906900106 489:1 #
-0.29692812563841475 1003:1 #
-0.024489176951744154 32:0.26726124 300:0.26726124 337:0.26726124 615:0.26726124 1091:0.26726124 1164:0.53452247 1320:0.26726124 2920:0.53452247 #
-0.30691311723760273 2873:1 #
-0.28814991349441188 1169:1 #
-0.23056747236636932 1457:1 #
-0.19855469884207233 68:1 #
-0.30655867379990953 1127:1 #
-1.000000021624557 36:0.37796447 129:0.75592893 627:0.37796447 711:0.37796447 #
-0.30701997078598758 579:0.70710677 2903:0.70710677 #
-0.30662512701098177 1525:1 #
-0.18121078008777378 973:0.70710677 1544:0.70710677 #
-0.015278948857720654 292:0.70710677 1564:0.70710677 #
1.000000021624557 9:0.35355338 155:0.35355338 530:0.35355338 856:0.35355338 1011:0.35355338 1264:0.35355338 2491:0.35355338 2782:0.35355338 #
1.000000021624557 843:0.57735026 868:0.57735026 1911:0.57735026 #
0.83221999962507143 9:0.44721359 153:0.44721359 450:0.44721359 2432:0.44721359 2687:0.44721359 #
1.000000021624557 6:0.23570226 7:0.23570226 282:0.23570226 320:0.70710677 870:0.23570226 1020:0.23570226 1623:0.23570226 1785:0.23570226 1788:0.23570226 1815:0.23570226 #
1.000000021624557 7:0.39223227 87:0.19611613 165:0.39223227 230:0.19611613 355:0.19611613 357:0.19611613 367:0.19611613 533:0.19611613 615:0.58834839 1602:0.19611613 1886:0.19611613 1941:0.19611613 #
-0.16838641360266426 190:1 #
-0.15446437124713372 927:0.70710677 1264:0.70710677 #
-0.78412549855316638 282:1 #
-0.8414529381920971 230:0.70710677 355:0.70710677 #
1.000000021624557 32:0.37796447 36:0.37796447 154:0.75592893 789:0.37796447 #
1.000000021624557 110:0.35355338 528:0.35355338 801:0.35355338 812:0.35355338 1731:0.35355338 1799:0.35355338 1997:0.35355338 2851:0.35355338 #
1.000000021624557 18:0.5 40:0.5 756:0.5 809:0.5 #
1.000000021624557 109:0.44721359 2118:0.44721359 2188:0.44721359 2357:0.44721359 2696:0.44721359 #
1.000000021624557 217:0.44721359 309:0.44721359 535:0.44721359 1700:0.44721359 2557:0.44721359 #
-0.10200962147657339 165:0.40824831 396:0.40824831 530:0.40824831 1136:0.40824831 1329:0.40824831 1464:0.40824831 #
-0.32999589972025006 32:0.70710677 1388:0.70710677 #
-0.28666844254521728 32:0.57735026 876:0.57735026 1289:0.57735026 #
-0.11942654113766971 87:0.44721359 96:0.44721359 132:0.44721359 878:0.44721359 1512:0.44721359 #
0.93974548962568727 23:0.40824831 462:0.40824831 1033:0.40824831 1772:0.40824831 2155:0.40824831 2752:0.40824831 #
1.000000021624557 107:0.40824831 1034:0.81649661 2667:0.40824831 #
1.000000021624557 22:0.5 1021:0.5 1588:0.5 2486:0.5 #
1.000000021624557 159:0.57735026 1013:0.57735026 2757:0.57735026 #
1.000000021624557 41:0.30151135 85:0.30151135 99:0.30151135 191:0.30151135 432:0.30151135 1032:0.30151135 1655:0.30151135 2028:0.30151135 2094:0.30151135 2235:0.30151135 2860:0.30151135 #
-1.000000021624557 285:0.57735026 308:0.57735026 626:0.57735026 #
-1.000000021624557 36:1 #
-1.000000021624557 615:1 #
0.93875123582243236 32:0.37796447 41:0.37796447 153:0.37796447 284:0.37796447 1698:0.37796447 2439:0.37796447 2640:0.37796447 #
0.85785387717704664 366:0.57735026 758:0.57735026 1738:0.57735026 #
0.97876942793996524 128:0.44721359 840:0.44721359 854:0.44721359 2174:0.44721359 2778:0.44721359 #
0.24820607957678231 1:0.33333334 149:0.33333334 218:0.33333334 281:0.33333334 790:0.33333334 838:0.33333334 1259:0.33333334 2145:0.33333334 2283:0.33333334 #
1.000000021624557 2:0.35355338 12:0.35355338 308:0.35355338 448:0.35355338 1776:0.35355338 1873:0.35355338 2517:0.35355338 2636:0.35355338 #
-0.62535255342055485 40:1 #
-0.2887314697645989 11:0.26726124 171:0.26726124 191:0.26726124 252:0.53452247 345:0.26726124 466:0.26726124 1101:0.26726124 1209:0.53452247 #
-1.000000021624557 56:0.28867513 85:0.28867513 259:0.28867513 466:0.28867513 604:0.28867513 695:0.28867513 1010:0.28867513 1034:0.57735026 1043:0.28867513 #
-0.16461671367056932 252:0.70710677 1146:0.70710677 #
1.000000021624557 85:0.23570226 250:0.47140452 308:0.23570226 314:0.23570226 366:0.47140452 615:0.23570226 764:0.47140452 2173:0.23570226 2397:0.23570226 #
1.000000021624557 79:0.5547002 625:0.2773501 813:0.5547002 870:0.2773501 1634:0.2773501 1635:0.2773501 2453:0.2773501 #
-0.10211764332635467 36:0.57735026 328:0.57735026 1107:0.57735026 #
-0.31661964860912328 10:0.57735026 892:0.57735026 1193:0.57735026 #
-0.48874299535400723 323:1 #
-0.1779020141408173 512:1 #
1.000000021624557 626:0.70710677 1597:0.70710677 #
0.83152967094862618 13:0.28867513 129:0.28867513 1598:0.28867513 1605:0.28867513 1708:0.28867513 1833:0.28867513 1877:0.28867513 2053:0.28867513 2106:0.28867513 2137:0.28867513 2154:0.28867513 2392:0.28867513 #
1.000000021624557 33:0.37796447 220:0.37796447 398:0.37796447 1616:0.37796447 1723:0.37796447 2571:0.37796447 2831:0.37796447 #
1.000000021624557 313:1 #
0.52053963263138692 18:0.44721359 289:0.44721359 363:0.44721359 743:0.44721359 1608:0.44721359 #
-0.6844238014983417 1616:1 #
-0.04070687106118337 298:0.24253562 308:0.48507124 431:0.24253562 438:0.24253562 469:0.24253562 531:0.24253562 1003:0.24253562 1055:0.24253562 1238:0.24253562 1272:0.24253562 1518:0.48507124 #
-0.25972098104033392 99:1 #
-0.17444670128187609 255:0.70710677 1226:0.70710677 #
-0.17803334558794415 99:0.70710677 1242:0.70710677 #
0.55423385622853572 23:0.57735026 286:0.57735026 1755:0.57735026 #
1.000000021624557 37:0.44721359 825:0.44721359 1027:0.44721359 1770:0.44721359 2024:0.44721359 #
0.85256159445671342 37:0.5 793:0.5 2748:0.5 2832:0.5 #
0.99748988329475696 310:0.57735026 318:0.57735026 2429:0.57735026 #
0.66874145667164031 57:0.31622776 456:0.31622776 623:0.31622776 792:0.31622776 1697:0.31622776 1703:0.31622776 1716:0.31622776 1764:0.31622776 2482:0.31622776 2621:0.31622776 #
-1.000000021624557 79:1 #
-0.78802180432810709 368:0.70710677 870:0.70710677 #
-0.44397507303158151 6:0.44721359 42:0.44721359 151:0.44721359 627:0.44721359 1581:0.44721359 #
0.8499592194338591 128:0.5 812:0.5 1780:0.5 1829:0.5 #
0.063551111420902473 1:0.40000001 35:0.2 249:0.2 287:0.2 290:0.2 359:0.40000001 464:0.2 530:0.2 1019:0.2 1021:0.2 1257:0.40000001 1274:0.2 1624:0.2 1642:0.2 1856:0.2 2633:0.2 #
-1.000000021624557 37:0.18569534 64:0.37139067 69:0.18569534 197:0.18569534 526:0.37139067 528:0.18569534 615:0.18569534 735:0.37139067 931:0.18569534 1011:0.18569534 1019:0.18569534 1034:0.18569534 1108:0.37139067 1178:0.18569534 1182:0.18569534 1406:0.18569534 1595:0.18569534 #
-0.30730102580851493 1313:1 #
-0.30710385596325751 53:1 #
0.83840467417927556 7:0.25 149:0.25 862:0.75 1581:0.25 1645:0.25 1811:0.25 2111:0.25 2146:0.25 #
1.000000021624557 13:0.37796447 281:0.37796447 814:0.37796447 1603:0.37796447 1711:0.37796447 1985:0.37796447 2506:0.37796447 #
1.000000021624557 623:0.44721359 786:0.44721359 1034:0.44721359 1687:0.44721359 2447:0.44721359 #
-0.71523328164532374 1022:1 #
-0.41184290519866706 237:0.5 436:0.5 1603:0.5 2883:0.5 #
-0.30744008504376052 924:0.70710677 925:0.70710677 #
-0.30677401937276483 1370:1 #
-0.30677401937276483 951:1 #
0.58512624865886842 1:0.2773501 526:0.2773501 776:0.2773501 783:0.2773501 793:0.2773501 1658:0.2773501 1718:0.2773501 1853:0.2773501 1979:0.2773501 2345:0.2773501 2481:0.2773501 2764:0.2773501 2828:0.2773501 #
0.76513189001691528 109:0.5 780:0.5 2275:0.5 2857:0.5 #
0.74345090934436731 18:0.70710677 2276:0.70710677 #
-0.28191461088239844 337:1 #
-0.31173252692351316 112:1 #
-0.19229624329171274 716:0.70710677 906:0.70710677 #
-0.30640681086285926 1191:1 #
-0.29326484024124511 261:1 #
0.69421839090687865 128:0.26726124 219:0.26726124 328:0.26726124 456:0.26726124 775:0.26726124 831:0.26726124 849:0.26726124 1034:0.26726124 1250:0.26726124 1603:0.26726124 1729:0.26726124 2549:0.26726124 2735:0.26726124 2806:0.26726124 #
0.73782659048922516 9:0.40824831 751:0.40824831 2057:0.40824831 2122:0.40824831 2500:0.40824831 2842:0.40824831 #
-0.29375318422538144 1152:0.70710677 1328:0.70710677 #
-0.19488311841118311 1327:1 #
-0.30662342035277435 1310:1 #
-0.044750395333600541 179:0.70710677 1514:0.70710677 #
-0.181098248386068 263:0.70710677 324:0.70710677 #
0.73091822329586198 23:0.5 1890:0.5 2538:0.5 2864:0.5 #
-0.30658287203924062 1486:0.70710677 1630:0.70710677 #
-0.30659483480569838 1110:1 #
-0.055668874093005159 98:0.70710677 198:0.70710677 #
-0.30625590193084384 2868:1 #
-0.30676411776746237 418:1 #
-0.30676411776746237 1123:1 #
-0.307413651186276 514:0.70710677 978:0.70710677 #
-0.30653751722098965 671:1 #
-0.30653751722098965 1347:1 #
-0.30639935340783098 1339:1 #
-0.13316689148935962 417:0.70710677 1159:0.70710677 #
-0.22590188223967667 555:1 #
-0.17493791201974673 589:0.5 712:0.5 1157:0.5 2880:0.5 #
-0.24981516833172634 1195:1 #
-0.30646762007811412 1399:1 #
-0.082934625142171634 1174:0.57735026 1335:0.57735026 1483:0.57735026 #
-0.8487406761175611 1268:1 #
-0.30666778296842756 2948:1 #
-0.24050355679372126 72:1 #
-0.30655384091557325 692:1 #
-0.18090719670523814 265:1 #
-0.3061011105908098 937:1 #
-0.30686336290995936 354:0.57735026 1187:0.57735026 1479:0.57735026 #
-0.30730976853927616 2993:1 #
-0.30730976853927616 1144:1 #
-0.075160849351858849 300:0.5 509:0.5 554:0.5 984:0.5 #
-0.1663707312046584 495:1 #
-0.21530473537584913 1088:0.70710677 1446:0.70710677 #
-0.047135842343183021 306:0.5 972:0.5 995:0.5 1572:0.5 #
-0.30679627811571308 950:1 #
-0.1318571749286602 270:0.70710677 1025:0.70710677 #
-0.28393366299574935 1309:0.70710677 1324:0.70710677 #
-0.3065625185577705 1449:1 #
-1.000000021624557 71:0.35355338 153:0.35355338 162:0.35355338 393:0.35355338 466:0.35355338 469:0.35355338 537:0.35355338 1617:0.35355338 #
-0.3025869148935787 1091:0.70710677 1478:0.70710677 #
-0.25407924614587513 895:0.57735026 1120:0.57735026 2926:0.57735026 #
-0.43546383104470754 124:0.70710677 271:0.70710677 #
-0.088525711041859606 355:0.70710677 404:0.70710677 #
-0.3071402108859238 982:1 #
-0.3071402108859238 485:1 #
-0.3071402108859238 408:1 #
0.27932683880147435 1:0.37796447 107:0.37796447 153:0.37796447 218:0.37796447 776:0.37796447 1782:0.37796447 2659:0.37796447 #
-0.30657812007885288 1498:1 #
-0.089189763786502119 370:1 #
-0.16812552095945363 375:0.70710677 1375:0.70710677 #
-0.307025358493631 2961:1 #
-0.41713854170858117 622:0.70710677 974:0.70710677 #
-0.30694712028891835 1396:1 #
-0.30688562846642686 182:1 #
-0.30606855813826273 482:0.57735026 600:0.57735026 1179:0.57735026 #
-0.23620624160084186 327:0.70710677 1252:0.70710677 #
-0.30162831938503332 605:0.57735026 641:0.57735026 1049:0.57735026 #
-0.30664775112754072 1466:1 #
-0.21579249705730827 373:0.57735026 583:0.57735026 639:0.57735026 #
-0.30665453751175298 278:1 #
-0.30688562846642686 944:1 #
-0.27578475447096951 1244:1 #
1.000000021624557 7:0.25819889 12:0.51639777 57:0.25819889 139:0.25819889 281:0.51639777 321:0.25819889 1908:0.25819889 2346:0.25819889 2381:0.25819889 #
-0.30671668810313668 1334:1 #
-0.30619472644620982 1290:1 #
-0.30619472644620982 1009:1 #
0.021315050877260606 149:0.25819889 447:0.25819889 466:0.25819889 525:0.25819889 745:0.25819889 1021:0.51639777 2635:0.25819889 2702:0.25819889 2791:0.51639777 #
-0.34207790388636983 520:0.70710677 678:0.70710677 #
-0.69874506239894429 281:1 #
-1.000000021624557 135:0.44721359 164:0.44721359 1555:0.44721359 1565:0.44721359 1635:0.44721359 #
-0.1627857262001641 534:0.70710677 889:0.70710677 #
-1.000000021624557 107:1 #
0.62271664825597883 2:0.35355338 1884:0.35355338 2207:0.35355338 2244:0.35355338 2312:0.35355338 2409:0.35355338 2603:0.35355338 2699:0.35355338 #
1.000000021624557 2:0.40824831 249:0.40824831 436:0.40824831 469:0.40824831 537:0.40824831 827:0.40824831 #
0.92656369283766582 14:0.44721359 229:0.44721359 291:0.44721359 622:0.44721359 2342:0.44721359 #
0.4843020562547759 3:0.40824831 79:0.40824831 817:0.40824831 2523:0.40824831 2663:0.40824831 2713:0.40824831 #
-1.000000021624557 13:0.18898223 19:0.18898223 20:0.18898223 30:0.18898223 38:0.18898223 57:0.18898223 79:0.18898223 85:0.18898223 98:0.18898223 253:0.18898223 283:0.18898223 285:0.18898223 289:0.18898223 292:0.18898223 301:0.18898223 410:0.18898223 430:0.18898223 440:0.18898223 466:0.18898223 473:0.18898223 526:0.18898223 616:0.18898223 669:0.18898223 909:0.18898223 1033:0.18898223 1400:0.18898223 1450:0.18898223 1615:0.18898223 #
-1.000000021624557 1:0.21821789 10:0.43643579 15:0.21821789 58:0.21821789 268:0.21821789 526:0.43643579 1026:0.21821789 1149:0.21821789 1246:0.43643579 1263:0.21821789 1438:0.21821789 1531:0.21821789 #
-0.82550253904167747 6:0.11043153 11:0.11043153 20:0.11043153 24:0.11043153 41:0.44172612 54:0.33129457 58:0.11043153 60:0.11043153 69:0.11043153 78:0.11043153 98:0.22086306 100:0.22086306 123:0.11043153 133:0.11043153 153:0.22086306 178:0.11043153 205:0.11043153 228:0.11043153 248:0.22086306 361:0.11043153 370:0.11043153 466:0.11043153 473:0.11043153 491:0.11043153 502:0.11043153 503:0.11043153 510:0.11043153 567:0.33129457 665:0.11043153 723:0.11043153 942:0.11043153 993:0.11043153 1019:0.11043153 1256:0.11043153 1257:0.11043153 1274:0.11043153 1407:0.11043153 2871:0.11043153 2928:0.11043153 #
-0.9252971016696534 10:0.33333334 16:0.33333334 18:0.33333334 38:0.33333334 124:0.33333334 474:0.33333334 531:0.33333334 663:0.33333334 966:0.33333334 #
-0.60068854643827385 80:0.70710677 432:0.70710677 #
1.000000021624557 1635:0.70710677 2528:0.70710677 #
0.8956175574234988 3:0.40824831 135:0.40824831 1011:0.40824831 2425:0.40824831 2772:0.40824831 2789:0.40824831 #
0.99178266066985576 14:0.5 107:0.5 285:0.5 1858:0.5 #
-0.39567696206984015 615:0.70710677 664:0.70710677 #
-0.43623185595318326 304:0.70710677 615:0.70710677 #
-0.43612537730105633 615:0.70710677 638:0.70710677 #
-0.43612537730123307 584:0.70710677 615:0.70710677 #
-0.45800062580360001 87:0.57735026 297:0.57735026 615:0.57735026 #
0.54069646519368686 33:0.57735026 815:0.57735026 1736:0.57735026 #
0.96947317759389073 79:0.40824831 84:0.40824831 821:0.40824831 1583:0.40824831 1601:0.40824831 2707:0.40824831 #
-0.037601582886941612 526:0.70710677 2925:0.70710677 #
0.71164013888964806 13:0.30151135 56:0.30151135 112:0.30151135 535:0.30151135 1583:0.30151135 1601:0.30151135 1643:0.30151135 2257:0.30151135 2262:0.30151135 2294:0.30151135 2677:0.30151135 #
-0.63651782709411309 225:0.70710677 535:0.70710677 #
-0.6595503969827875 325:1 #
-0.43090375436745759 119:0.70710677 530:0.70710677 #
-0.46527122097049256 12:1 #
-0.32545615463591027 530:0.5 588:0.5 1282:0.5 1362:0.5 #
0.26179692450624148 2:0.5 615:0.5 747:0.5 787:0.5 #
0.50497823362032357 1:0.33333334 129:0.33333334 315:0.33333334 1789:0.33333334 2061:0.33333334 2101:0.33333334 2259:0.33333334 2462:0.33333334 2567:0.33333334 #
0.92221529363557853 1:0.28867513 24:0.28867513 57:0.28867513 221:0.28867513 285:0.57735026 466:0.28867513 624:0.28867513 760:0.28867513 2579:0.28867513 #
0.41801670157671966 41:0.40000001 191:0.2 432:0.2 757:0.2 834:0.80000001 850:0.2 1967:0.2 #
-1.000000021624557 22:0.70710677 1258:0.70710677 #
-1.000000021624557 2864:1 #
-0.47190436770082939 204:0.35355338 235:0.35355338 243:0.35355338 273:0.35355338 279:0.35355338 575:0.35355338 1202:0.35355338 1634:0.35355338 #
-1.000000021624557 22:1 #
0.86175754231815827 196:0.70710677 289:0.70710677 #
0.75227055537472332 128:0.5 796:0.5 835:0.5 2423:0.5 #
-0.82216267283133471 125:0.37796447 128:0.37796447 147:0.37796447 466:0.37796447 604:0.37796447 1019:0.37796447 1606:0.37796447 #
-0.30615454461267677 340:1 #
-0.30672206159863513 899:1 #
-0.28053646372364049 1158:1 #
-0.30672206159863513 1488:1 #
0.68825413330134511 13:0.35355338 316:0.35355338 442:0.35355338 526:0.35355338 535:0.35355338 1628:0.35355338 2119:0.35355338 2639:0.35355338 #
0.38653440556600294 3:0.35355338 1580:0.35355338 1639:0.35355338 2095:0.35355338 2113:0.35355338 2210:0.35355338 2398:0.35355338 2835:0.35355338 #
0.3932982075043831 1021:0.70710677 2554:0.70710677 #
-0.3068646976975955 507:1 #
-0.3068646976975955 2962:1 #
-0.3068646976975955 341:1 #
-0.30702124373897988 1286:1 #
-0.30659484492482847 955:0.70710677 1448:0.70710677 #
0.89986726577433829 128:0.70710677 2434:0.70710677 #
-1.000000021624557 12:0.28867513 30:0.28867513 33:0.28867513 69:0.28867513 107:0.28867513 134:0.28867513 338:0.28867513 361:0.28867513 738:0.28867513 885:0.28867513 1166:0.28867513 1274:0.28867513 #
-0.62834232697789894 1033:1 #
-0.30689480870671326 556:1 #
-0.28741474241045672 603:1 #
0.48776911562132858 3:0.33333334 450:0.33333334 1237:0.33333334 1662:0.33333334 1842:0.33333334 1922:0.33333334 2144:0.33333334 2218:0.33333334 2704:0.33333334 #
-0.50250324921314571 939:0.70710677 1604:0.70710677 #
-0.30619473684275117 546:0.70710677 1037:0.70710677 #
-0.30697456875184692 209:1 #
-0.30655384091557325 1148:1 #
0.60045503581822979 7:0.35355338 308:0.35355338 753:0.35355338 1258:0.35355338 2068:0.35355338 2304:0.35355338 2774:0.35355338 2777:0.35355338 #
0.63204519316602104 78:0.40824831 231:0.40824831 289:0.40824831 393:0.40824831 460:0.40824831 2059:0.40824831 #
-0.30650084633415209 1087:1 #
-0.18127294722796405 619:1 #
-0.30706418973438199 501:1 #
-0.30676139702290794 654:1 #
-0.30726693135880123 1204:1 #
0.42903668314764032 14:0.33333334 149:0.33333334 755:0.33333334 1721:0.33333334 2055:0.33333334 2366:0.33333334 2457:0.33333334 2559:0.33333334 2578:0.33333334 #
0.5662028379344658 9:0.25819889 32:0.25819889 124:0.25819889 308:0.25819889 320:0.25819889 358:0.25819889 465:0.25819889 527:0.25819889 1021:0.25819889 1604:0.25819889 2148:0.25819889 2200:0.25819889 2213:0.25819889 2363:0.25819889 2781:0.25819889 #
0.35875974576034064 1:0.33333334 156:0.33333334 527:0.33333334 773:0.33333334 778:0.33333334 823:0.33333334 2288:0.33333334 2843:0.33333334 2844:0.33333334 #
-0.046383686953377058 1158:0.57735026 1161:0.57735026 1175:0.57735026 #
-0.22734421840449967 594:0.57735026 693:0.57735026 1067:0.57735026 #
-0.22100308265291807 1473:0.70710677 2953:0.70710677 #
-0.30733068291024379 1312:1 #
-0.30733068291024379 236:1 #
-1.000000021624557 79:0.35355338 128:0.35355338 232:0.35355338 291:0.35355338 360:0.35355338 536:0.35355338 871:0.35355338 1010:0.35355338 #
-0.87981376023400959 1011:1 #
-1.000000021624557 24:0.31622776 32:0.31622776 129:0.31622776 153:0.31622776 395:0.31622776 636:0.31622776 704:0.31622776 1021:0.31622776 1254:0.31622776 1567:0.31622776 #
-1.000000021624557 24:0.40824831 70:0.40824831 128:0.40824831 439:0.40824831 1010:0.40824831 1023:0.40824831 #
0.49661648262938424 3:0.40824831 1581:0.40824831 1739:0.40824831 1841:0.40824831 2340:0.40824831 2697:0.40824831 #
-0.87947204222863629 2:0.11043153 6:0.33129457 12:0.11043153 22:0.11043153 27:0.11043153 32:0.11043153 41:0.22086306 65:0.11043153 107:0.11043153 120:0.11043153 129:0.11043153 147:0.11043153 153:0.11043153 185:0.11043153 197:0.22086306 199:0.11043153 249:0.11043153 308:0.44172612 326:0.11043153 327:0.11043153 336:0.11043153 345:0.11043153 346:0.33129457 420:0.11043153 435:0.11043153 717:0.11043153 733:0.11043153 737:0.11043153 743:0.11043153 897:0.11043153 929:0.11043153 1019:0.11043153 1034:0.11043153 1105:0.11043153 1161:0.11043153 1262:0.11043153 1398:0.11043153 1446:0.11043153 1619:0.11043153 1621:0.11043153 2945:0.11043153 2969:0.22086306 #
-0.35572031046095087 469:0.70710677 1610:0.70710677 #
-0.49180408182764551 12:0.37139067 29:0.18569534 37:0.18569534 62:0.18569534 250:0.18569534 285:0.55708599 475:0.18569534 590:0.18569534 911:0.37139067 953:0.37139067 1068:0.18569534 1603:0.18569534 #
-0.095595979307136925 36:0.5 126:0.5 1027:0.5 1389:0.5 #
-0.17391648994954664 139:0.70710677 1070:0.70710677 #
-0.73628462658686677 126:0.70710677 228:0.70710677 #
-0.10763484785984834 294:1 #
-0.31648516351317557 238:0.5 609:0.5 1243:0.5 1348:0.5 #
-0.30733068291024379 1212:1 #
-0.30739118345496952 1305:0.70710677 1417:0.70710677 #
-0.29655174946453655 298:1 #
-0.25687139848038576 130:1 #
-0.30739117265835536 1122:1 #
-0.36690751887763767 36:0.5 616:0.5 1048:0.5 1605:0.5 #
-0.97725332228713335 36:0.35355338 62:0.35355338 168:0.35355338 253:0.35355338 505:0.35355338 606:0.35355338 616:0.35355338 1583:0.35355338 #
-0.30684001921728743 163:1 #
-0.30619952167591169 1344:1 #
-0.30710385596325751 2886:1 #
-0.30702152272429395 997:1 #
-0.30698496749639514 720:1 #
-0.59999466290385595 20:0.5 365:0.5 1601:0.5 2905:0.5 #
-0.55802954437822028 429:1 #
-0.30646762007811412 932:1 #
-0.05715980727900026 27:0.35355338 42:0.35355338 134:0.35355338 1477:0.70710677 1573:0.35355338 #
0.57678784788991266 12:0.44721359 14:0.44721359 1787:0.44721359 1954:0.44721359 2466:0.44721359 #
1.000000021624557 7:0.5 66:0.5 166:0.5 228:0.5 #
0.37047508890271441 7:0.35355338 449:0.35355338 797:0.35355338 818:0.35355338 1604:0.35355338 1730:0.35355338 1978:0.35355338 2734:0.35355338 #
0.45390501348170659 3:0.28867513 625:0.28867513 1011:0.28867513 1634:0.28867513 1745:0.57735026 1876:0.28867513 2165:0.28867513 2167:0.28867513 2299:0.28867513 #
1.000000021624557 41:0.70710677 79:0.70710677 #
-0.43869101693080575 6:0.2773501 20:0.2773501 59:0.2773501 79:0.2773501 113:0.2773501 128:0.2773501 202:0.2773501 213:0.2773501 250:0.2773501 659:0.2773501 972:0.2773501 1075:0.2773501 1156:0.2773501 #
0.56322498444203151 128:0.37796447 456:0.37796447 623:0.37796447 745:0.37796447 1836:0.37796447 2172:0.37796447 2594:0.37796447 #
-0.47996631202485845 137:0.70710677 517:0.70710677 #
-0.23941666026126315 170:0.40824831 433:0.40824831 1173:0.40824831 1363:0.40824831 1460:0.40824831 1467:0.40824831 #
-0.1969928545370298 1045:0.70710677 1467:0.70710677 #
-0.007191419994656445 22:1 #
-0.4969947056082476 26:0.2773501 50:0.2773501 97:0.2773501 153:0.2773501 442:0.2773501 522:0.2773501 704:0.2773501 1021:0.2773501 1174:0.2773501 1200:0.2773501 1331:0.2773501 1381:0.2773501 1443:0.2773501 #
-0.21580981549881517 2871:1 #
0.28082714948771692 1:0.44721359 532:0.44721359 1715:0.44721359 2019:0.44721359 2102:0.44721359 #
-0.40632857545560058 6:0.18569534 9:0.18569534 32:0.18569534 49:0.18569534 94:0.18569534 307:0.18569534 308:0.18569534 395:0.18569534 510:0.18569534 694:0.18569534 948:0.37139067 1025:0.37139067 1033:0.18569534 1198:0.18569534 1207:0.18569534 1240:0.18569534 1257:0.18569534 1259:0.18569534 1325:0.18569534 1447:0.18569534 2938:0.18569534 2945:0.18569534 2969:0.18569534 #
-0.15533756448471553 10:0.37796447 234:0.37796447 249:0.37796447 407:0.37796447 544:0.37796447 1024:0.37796447 2888:0.37796447 #
0.49529775154401218 33:0.70710677 281:0.35355338 291:0.35355338 2011:0.35355338 2286:0.35355338 #
0.25024455410849844 13:0.30151135 41:0.30151135 197:0.30151135 308:0.30151135 1258:0.30151135 1766:0.30151135 2246:0.60302269 2799:0.30151135 #
-0.34489069902199332 738:1 #
-0.42675441312861484 183:0.70710677 621:0.70710677 #
-0.11132152663906342 58:0.70710677 1549:0.70710677 #
-0.11242056306932101 189:0.40824831 374:0.40824831 872:0.40824831 1134:0.40824831 1458:0.40824831 2904:0.40824831 #
-0.30730976853927616 145:1 #
-1.000000021624557 107:1 #
-0.41797877546942735 106:0.70710677 107:0.70710677 #
-0.43821162186992646 107:0.70710677 1341:0.70710677 #
-0.029409966639891219 356:0.70710677 469:0.70710677 #
-0.30665175540473993 302:0.57735026 593:0.57735026 994:0.57735026 #
-0.30706418973438199 1205:1 #
-0.30444285837130791 266:0.5 1394:0.5 1603:0.5 1620:0.5 #
-0.3372374681254342 19:0.28867513 35:0.28867513 238:0.28867513 270:0.28867513 293:0.28867513 541:0.57735026 1029:0.28867513 1237:0.28867513 1502:0.28867513 #
-0.30094938943922123 287:1 #
-0.18044087246828797 333:0.70710677 744:0.70710677 #
-0.18160841363693039 1581:0.70710677 2986:0.70710677 #
-0.18160841363168037 1225:0.70710677 1581:0.70710677 #
-0.75556212343331786 11:0.5 466:0.5 633:0.5 1597:0.5 #
-0.67763284024490555 744:1 #
0.51935473825902401 2:0.31622776 35:0.31622776 36:0.31622776 327:0.31622776 735:0.31622776 1021:0.31622776 1580:0.31622776 2126:0.31622776 2476:0.31622776 2834:0.31622776 #
-0.27468552513947403 26:0.57735026 78:0.57735026 2973:0.57735026 #
-0.62124379027128607 153:0.57735026 285:0.57735026 1267:0.57735026 #
-0.61191772917168408 55:1 #
-0.26949879578867736 78:0.70710677 1084:0.70710677 #
-0.44735618993124832 138:0.70710677 1019:0.70710677 #
-0.17251041424109065 677:0.57735026 1042:0.57735026 2925:0.57735026 #
-0.79992543836993302 79:0.70710677 364:0.70710677 #
-0.16161757524931197 133:0.70710677 296:0.70710677 #
-0.3157910755043421 82:0.70710677 203:0.70710677 #
-0.30726693135880123 115:1 #
-0.18089443723079263 285:0.70710677 1279:0.70710677 #
-0.44992191255667785 436:0.70710677 1085:0.70710677 #
-0.30348016847772274 201:0.70710677 1208:0.70710677 #
-0.55255424102323591 166:1 #
0.30237299740130846 1:0.40824831 222:0.40824831 467:0.40824831 819:0.40824831 2149:0.40824831 2219:0.40824831 #
-0.26962547886184202 43:0.23570226 69:0.23570226 103:0.23570226 135:0.23570226 191:0.23570226 252:0.23570226 283:0.47140452 358:0.23570226 367:0.23570226 491:0.23570226 502:0.23570226 615:0.23570226 942:0.23570226 1032:0.23570226 1614:0.23570226 #
-0.50356912327901171 58:0.25 143:0.25 260:0.25 345:0.25 366:0.25 378:0.25 428:0.25 483:0.25 615:0.25 690:0.25 691:0.25 732:0.25 1006:0.25 1033:0.25 1210:0.25 1612:0.25 #
-0.86832935639832731 15:0.37796447 76:0.37796447 232:0.37796447 424:0.37796447 432:0.37796447 623:0.37796447 1112:0.37796447 #
-0.17313160431921532 615:0.57735026 1373:0.57735026 2866:0.57735026 #
-0.25797416803359885 66:0.57735026 165:0.57735026 1579:0.57735026 #
0.28257304043823872 14:0.35355338 284:0.35355338 1023:0.35355338 1724:0.35355338 1854:0.35355338 2048:0.35355338 2228:0.35355338 2474:0.35355338 #
0.30464822029435629 3:0.35355338 466:0.35355338 1014:0.35355338 1909:0.35355338 2563:0.35355338 2688:0.35355338 2769:0.35355338 2784:0.35355338 #
0.34426528551682134 57:0.57735026 861:0.57735026 2300:0.57735026 #
-0.30665454793210434 335:0.70710677 1065:0.70710677 #
-0.382998200548056 100:1 #
-0.29204749528432228 52:0.2236068 117:0.2236068 442:0.2236068 481:0.2236068 526:0.2236068 558:0.2236068 651:0.2236068 706:0.44721359 1029:0.44721359 1030:0.44721359 1608:0.2236068 #
-0.4817686476990673 290:0.57735026 328:0.57735026 743:0.57735026 #
-0.46256822430519756 1292:0.70710677 2865:0.70710677 #
-0.21800988998800608 715:1 #
0.42880847950917067 366:0.5 525:0.5 1689:0.5 2589:0.5 #
-0.11977833040615832 512:0.70710677 877:0.70710677 #
-0.36620646259738937 466:0.57735026 484:0.57735026 519:0.57735026 #
-0.24158315159094207 10:0.5 401:0.5 407:0.5 1318:0.5 #
-0.30664713088017104 247:1 #
1.000000021624557 1:0.35355338 218:0.35355338 439:0.35355338 762:0.35355338 1030:0.70710677 #
0.44466865189301297 2:0.5 526:0.5 2469:0.5 2653:0.5 #
-0.13965974969171838 79:0.70710677 542:0.70710677 #
-0.035989283981638774 79:0.70710677 400:0.70710677 #
-0.21227872086127703 79:0.57735026 412:0.57735026 2991:0.57735026 #
-0.075252651734634801 79:0.44721359 120:0.44721359 438:0.44721359 535:0.44721359 1538:0.44721359 #
-0.14164638395666809 79:0.35355338 403:0.35355338 530:0.35355338 727:0.70710677 1231:0.35355338 #
0.76563443859718383 57:0.31622776 107:0.31622776 124:0.31622776 252:0.31622776 282:0.31622776 284:0.31622776 289:0.31622776 308:0.31622776 457:0.31622776 2162:0.31622776 #
0.25141509732859146 9:0.2773501 289:0.2773501 767:0.2773501 851:0.2773501 1599:0.2773501 1803:0.2773501 1962:0.2773501 2026:0.2773501 2198:0.2773501 2408:0.2773501 2446:0.2773501 2547:0.2773501 2648:0.2773501 #
0.18202012597940215 2:0.2773501 37:0.2773501 98:0.2773501 319:0.2773501 466:0.2773501 808:0.2773501 1634:0.2773501 1725:0.2773501 1947:0.2773501 2201:0.2773501 2642:0.2773501 2733:0.2773501 2811:0.2773501 #
-0.89600900014321305 111:0.70710677 136:0.70710677 #
-0.58482393909577146 52:0.5 61:0.5 398:0.5 1030:0.5 #
-0.37500791122534599 150:0.70710677 1109:0.70710677 #
-0.30713732189341136 480:0.70710677 1064:0.70710677 #
-0.82283008682545222 26:0.44721359 199:0.44721359 1262:0.44721359 1618:0.44721359 1631:0.44721359 #
-0.083431447384621632 74:0.57735026 885:0.57735026 987:0.57735026 #
-0.23361018373623582 171:0.70710677 945:0.70710677 #
0.23226378638208553 110:0.57735026 224:0.57735026 1690:0.57735026 #
0.2626705971975799 1014:0.37796447 1021:0.37796447 1031:0.75592893 2376:0.37796447 #
-0.66681741685621898 4:0.28867513 10:0.28867513 196:0.28867513 272:0.28867513 435:0.28867513 441:0.57735026 623:0.28867513 1149:0.28867513 1613:0.28867513 #
-0.30712066087776069 648:1 #
-0.26837022982198799 208:0.5 331:0.5 358:0.5 577:0.5 #
0.25919968729901566 14:0.5 520:0.5 2615:0.5 2847:0.5 #
-0.024040546824763899 612:0.44721359 940:0.44721359 1001:0.44721359 1297:0.44721359 1431:0.44721359 #
-0.17841745561804068 466:0.40824831 578:0.81649661 1511:0.40824831 #
-0.23949223835705702 295:1 #
-0.30427724662053535 415:1 #
-0.21964170333872107 204:0.44721359 1307:0.89442718 #
-0.48079716141544587 288:0.57735026 428:0.57735026 1080:0.57735026 #
-0.15084290451579946 8:0.40824831 137:0.40824831 1285:0.81649661 #
-0.30676140760265819 548:0.70710677 1214:0.70710677 #
-0.30658472675066972 551:1 #
-0.16989665195744547 177:0.70710677 643:0.70710677 #
-0.31266213912204499 95:0.31622776 303:0.31622776 386:0.31622776 634:0.31622776 1560:0.31622776 1628:0.63245553 2998:0.31622776 #
-0.32122046800025861 10:0.25819889 66:0.25819889 85:0.25819889 165:0.25819889 196:0.25819889 230:0.25819889 431:0.25819889 504:0.25819889 1159:0.25819889 1272:0.51639777 1531:0.25819889 2970:0.25819889 #
-0.3066889972315503 635:1 #
0.097814874304437138 7:0.5 15:0.5 1934:0.5 2297:0.5 #
-0.12570478772871674 581:0.57735026 1194:0.57735026 1322:0.57735026 #
-0.1907879604994607 153:0.31622776 336:0.94868332 #
0.2935538791064804 1:0.20851441 6:0.20851441 18:0.41702881 153:0.20851441 459:0.20851441 518:0.20851441 822:0.20851441 838:0.41702881 1017:0.20851441 1804:0.20851441 2072:0.20851441 2128:0.20851441 2309:0.20851441 2436:0.20851441 2529:0.20851441 2588:0.20851441 2821:0.20851441 #
-0.074961260627565737 114:0.57735026 280:0.57735026 2891:0.57735026 #
-0.41356766146107155 48:0.33333334 83:0.33333334 139:0.33333334 193:0.33333334 403:0.33333334 1033:0.33333334 1034:0.33333334 1261:0.33333334 1416:0.33333334 #
-0.27583015978882458 280:0.70710677 1360:0.70710677 #
-0.16466491614738329 992:0.70710677 1385:0.70710677 #
-0.069701685103770061 178:1 #
-0.13713286094507648 65:0.5 535:0.5 662:0.5 708:0.5 #
-0.29848600179237839 252:0.5 619:0.5 1188:0.5 1623:0.5 #
-0.00091305035492674511 567:0.70710677 731:0.70710677 #
-0.12770082841245226 233:0.57735026 240:0.57735026 1197:0.57735026 #
-0.30706418973438199 1095:1 #
0.15986238813038645 2:0.37796447 192:0.37796447 859:0.37796447 1032:0.37796447 2062:0.37796447 2249:0.37796447 2817:0.37796447 #
-0.22235553471103239 875:0.70710677 1147:0.70710677 #
-0.21910800712273359 589:1 #
-0.004323987281456775 505:0.70710677 2970:0.70710677 #
-0.13041819227877227 34:0.57735026 144:0.57735026 653:0.57735026 #
-0.036772488588482422 117:0.70710677 1475:0.70710677 #
-0.16304281735010639 66:0.57735026 526:0.57735026 930:0.57735026 #
0.13576600158099228 3:0.25819889 79:0.25819889 219:0.25819889 284:0.25819889 752:0.25819889 768:0.25819889 839:0.25819889 1594:0.25819889 1822:0.25819889 1870:0.25819889 1900:0.25819889 2033:0.25819889 2075:0.25819889 2583:0.25819889 2754:0.25819889 #
-0.17486006304480603 32:0.37796447 699:0.37796447 1019:0.37796447 1240:0.75592893 #
-0.23633810349979623 160:1 #
-0.11847738050032001 69:0.70710677 1162:0.70710677 #
-0.30649131055142426 73:0.70710677 422:0.70710677 #
-0.30664103100966145 928:1 #
-0.10192370863653921 44:0.5 491:0.5 596:0.5 1374:0.5 #
-0.17386514589024163 79:0.31622776 124:0.31622776 134:0.31622776 228:0.31622776 488:0.31622776 716:0.31622776 985:0.31622776 1030:0.31622776 1145:0.31622776 1629:0.31622776 #
-0.54578816536235442 28:0.37796447 125:0.37796447 308:0.37796447 615:0.37796447 742:0.37796447 920:0.37796447 1031:0.37796447 #
-0.22590188223967667 563:1 #
-0.29640499491349526 1001:1 #
0.32779776864024324 3:0.31622776 108:0.31622776 129:0.31622776 285:0.31622776 623:0.31622776 869:0.31622776 1673:0.31622776 2335:0.31622776 2684:0.31622776 2787:0.31622776 #
-0.75051421912020611 129:0.70710677 1255:0.70710677 #
-0.23947233039475657 176:0.33333334 226:0.33333334 433:0.33333334 520:0.33333334 1072:0.33333334 1237:0.33333334 1238:0.33333334 1506:0.33333334 1513:0.33333334 #
-0.31426940681392468 430:1 #
-0.84366150973497822 10:0.25 14:0.25 16:0.25 19:0.25 55:0.25 75:0.25 85:0.25 250:0.25 361:0.25 434:0.25 561:0.25 615:0.25 744:0.25 1183:0.25 1551:0.25 2912:0.25 #
-0.19846506596990257 285:0.2773501 404:0.2773501 441:0.5547002 615:0.5547002 1027:0.2773501 1568:0.2773501 2934:0.2773501 #
-0.41595142452192174 246:0.70710677 615:0.70710677 #
-0.51535703259965016 250:0.70710677 1221:0.70710677 #
-0.16789596376898944 690:0.70710677 1153:0.70710677 #
-0.19116100275179737 267:0.70710677 275:0.70710677 #
-1.000000021624557 229:0.44721359 281:0.89442718 #
-0.48599484102455315 189:0.5 226:0.5 440:0.5 1626:0.5 #
-0.1965598952404127 4:0.13483997 19:0.13483997 35:0.26967993 41:0.13483997 58:0.13483997 61:0.13483997 90:0.13483997 124:0.13483997 171:0.13483997 198:0.13483997 281:0.13483997 407:0.13483997 413:0.13483997 474:0.13483997 535:0.13483997 913:0.80903983 1266:0.13483997 #
-0.18873795356539827 1202:0.70710677 2902:0.70710677 #
-0.82524069049306481 253:1 #
-0.1167799926619877 475:0.70710677 1159:0.70710677 #
-0.16910691729042021 24:0.57735026 383:0.57735026 880:0.57735026 #
0.13554086416841679 1:0.5 10:0.5 618:0.5 1759:0.5 #
-0.34392389476222285 5:0.70710677 1241:0.70710677 #
-0.30753146094707184 32:0.20412415 35:0.20412415 274:0.20412415 285:0.20412415 402:0.20412415 614:0.40824831 968:0.20412415 984:0.61237246 1021:0.20412415 1174:0.20412415 1414:0.20412415 1603:0.20412415 1627:0.20412415 #
0.33569595605606606 2:0.33333334 127:0.33333334 253:0.33333334 469:0.33333334 1021:0.33333334 1258:0.33333334 2005:0.33333334 2487:0.33333334 2826:0.33333334 #
-0.27623355286378665 358:0.57735026 1203:0.57735026 1553:0.57735026 #
-0.10896421511408197 469:0.57735026 531:0.57735026 909:0.57735026 #
-1.000000021624557 79:1 #
-0.19120411944350713 622:0.70710677 734:0.70710677 #
-0.10749697783578881 82:0.70710677 203:0.70710677 #
-0.10967971474040925 97:0.30151135 196:0.60302269 744:0.30151135 1238:0.30151135 2900:0.60302269 #
0.20131489706848535 1:0.5 15:0.5 198:0.5 2796:0.5 #
-0.13516871707752881 12:0.5 140:0.5 1118:0.5 2865:0.5 #
-0.10170415628461553 992:0.81649661 1170:0.40824831 1385:0.40824831 #
-0.61332447638130694 286:1 #
-1.000000021624557 153:1 #
-1.000000021624557 79:1 #
-0.15306578453377062 2866:1 #
-0.35558565790517299 254:0.57735026 431:0.57735026 995:0.57735026 #
-0.35188610686649802 615:0.57735026 961:0.57735026 1379:0.57735026 #
-0.21736874049891142 4:0.57735026 200:0.57735026 357:0.57735026 #
0.48435032290163027 79:0.40824831 1021:0.81649661 2551:0.40824831 #
-0.40492784277544158 15:0.22941573 85:0.22941573 88:0.22941573 128:0.22941573 166:0.22941573 195:0.22941573 285:0.22941573 387:0.22941573 397:0.22941573 398:0.22941573 431:0.22941573 466:0.22941573 607:0.22941573 988:0.22941573 1019:0.22941573 1026:0.22941573 1403:0.22941573 1453:0.22941573 1581:0.22941573 #
-0.16446675044137835 10:0.40824831 24:0.40824831 31:0.40824831 229:0.40824831 396:0.40824831 1255:0.40824831 #
-0.41941145028346349 12:0.70710677 31:0.70710677 #
-0.26254446407856835 1606:1 #
-0.23777277357077625 592:0.57735026 594:0.57735026 615:0.57735026 #
-0.30686250237685508 1337:1 #
-0.29279206595971247 101:0.70710677 1461:0.70710677 #
-0.18130076220181762 36:0.70710677 1430:0.70710677 #
-0.98632852314635022 20:0.28867513 30:0.28867513 57:0.28867513 60:0.28867513 70:0.28867513 530:0.28867513 562:0.28867513 1039:0.28867513 1264:0.57735026 #
-0.69848817946138364 1607:1 #
-0.14203914254816707 290:0.5 432:0.5 562:0.5 898:0.5 #
-0.25281983045717171 878:1 #
0.23389083098802177 1:0.5 232:0.5 1705:0.5 2585:0.5 #
-0.13669467345787101 430:1 #
-0.067277730117081991 76:0.21821789 90:0.21821789 196:0.21821789 622:0.21821789 715:0.21821789 934:0.87287158 #
-0.52519026489654619 166:1 #
-0.121291342911091 101:0.5 120:0.5 411:0.5 1237:0.5 #
-0.18566164951125813 177:1 #
-0.6429612373692879 179:0.57735026 196:0.57735026 1020:0.57735026 #
-0.30698869655571204 92:1 #
-0.38292604181220546 35:0.5 124:0.5 176:0.5 1320:0.5 #
-0.43124570291375164 35:0.57735026 518:0.57735026 1260:0.57735026 #
-0.19455227188524835 26:0.70710677 190:0.70710677 #
0.25222655740665234 321:0.35355338 366:0.70710677 2435:0.35355338 2718:0.35355338 2827:0.35355338 #
0.18013322059325038 1:0.35355338 18:0.35355338 616:0.35355338 619:0.35355338 1033:0.35355338 2314:0.35355338 2593:0.35355338 2850:0.35355338 #
0.31980238842865594 33:0.70710677 1257:0.70710677 #
-0.26852448727064382 509:1 #
-0.30662711612638693 1217:1 #
-0.2064720021526254 677:1 #
-0.22639603409383946 363:1 #
0.12780803714356409 23:0.37796447 219:0.37796447 446:0.37796447 1269:0.37796447 1809:0.37796447 2681:0.37796447 2856:0.37796447 #
0.14774728112781038 9:0.57735026 156:0.57735026 761:0.57735026 #
-1.000000021624557 153:0.70710677 252:0.70710677 #
-0.36882015622046338 4:0.086710997 6:0.086710997 8:0.086710997 19:0.086710997 35:0.086710997 36:0.086710997 118:0.086710997 127:0.086710997 178:0.17342199 200:0.086710997 347:0.086710997 376:0.17342199 494:0.086710997 521:0.17342199 535:0.086710997 537:0.086710997 681:0.086710997 901:0.086710997 926:0.086710997 1030:0.86710995 1139:0.086710997 1166:0.086710997 1324:0.086710997 1446:0.086710997 1507:0.086710997 #
-0.14733028868179779 24:0.31622776 107:0.31622776 129:0.31622776 1054:0.31622776 1079:0.63245553 1546:0.31622776 1566:0.31622776 #
-0.13921453684361662 24:0.5 153:0.5 568:0.5 926:0.5 #
0.13334966644257118 3:0.35355338 1591:0.35355338 1595:0.35355338 1753:0.35355338 1868:0.35355338 2595:0.35355338 2629:0.35355338 2794:0.35355338 #
-0.39048175038875166 355:1 #
-0.27160227819295235 373:0.57735026 539:0.57735026 683:0.57735026 #
-0.39867590597274327 40:0.57735026 1027:0.57735026 1504:0.57735026 #
-0.15796028605772311 31:0.40824831 89:0.40824831 540:0.40824831 541:0.40824831 943:0.40824831 1267:0.40824831 #
-0.26795225330356659 78:0.70710677 384:0.70710677 #
-0.21248219686553171 976:0.5 1038:0.5 1230:0.5 1375:0.5 #
-0.30665174440680498 369:1 #
-0.21506890257059305 1010:0.57735026 1495:0.57735026 1603:0.57735026 #
-0.18138938645076974 375:0.5 685:0.5 964:0.5 1547:0.5 #
-0.17866540326292574 442:0.70710677 947:0.70710677 #
-0.17360556843711583 44:1 #
-0.2757187523533865 121:1 #
-0.18367258273687714 439:1 #
-0.30670056639999277 277:0.70710677 1471:0.70710677 #
0.097185179099755117 23:0.40824831 769:0.40824831 1589:0.40824831 1938:0.40824831 2035:0.40824831 2783:0.40824831 #
-0.30600789657859506 1086:1 #
-0.26014619530566774 169:0.70710677 197:0.70710677 #
-0.09314227803257917 15:0.22941573 79:0.22941573 91:0.22941573 134:0.45883146 322:0.6882472 533:0.22941573 578:0.22941573 1262:0.22941573 #
-0.24004904252941972 15:0.5 107:0.5 134:0.5 276:0.5 #
-0.19140647604927688 172:0.57735026 292:0.57735026 2915:0.57735026 #
-0.19573482944610948 36:0.5 227:0.5 724:0.5 1390:0.5 #
-0.17803334558794415 99:0.70710677 632:0.70710677 #
-0.56437573623398896 15:0.57735026 107:0.57735026 1614:0.57735026 #
-0.17916285996613268 15:0.70710677 1002:0.70710677 #
-0.18041708380886348 34:0.70710677 1542:0.70710677 #
-0.19350181405155081 553:0.57735026 656:0.57735026 1327:0.57735026 #
-0.26476016533926494 1464:1 #
-0.16970467806990333 68:0.57735026 352:0.57735026 919:0.57735026 #
-0.11458412994064453 181:0.28867513 243:0.57735026 279:0.28867513 524:0.28867513 650:0.28867513 1056:0.28867513 1317:0.28867513 1529:0.28867513 1547:0.28867513 #
-0.72691013025517881 164:1 #
-0.30671655473704401 486:0.70710677 1494:0.70710677 #
-0.293421598798914 329:0.70710677 1121:0.70710677 #
-0.15605220463914043 67:0.57735026 367:0.57735026 1611:0.57735026 #
-0.16230271622770112 25:0.57735026 194:0.57735026 355:0.57735026 #
-0.076237932392725097 19:0.37796447 31:0.37796447 194:0.37796447 264:0.37796447 376:0.37796447 664:0.37796447 725:0.37796447 #
0.060941067341230698 33:0.33333334 191:0.33333334 615:0.33333334 777:0.33333334 807:0.33333334 1032:0.33333334 2379:0.33333334 2384:0.33333334 2661:0.33333334 #
-0.25728451629102878 116:0.44721359 227:0.44721359 353:0.44721359 673:0.44721359 2983:0.44721359 #
-0.56281256460050821 19:1 #
-0.22753184495331549 19:0.60302269 24:0.30151135 26:0.30151135 490:0.30151135 523:0.30151135 615:0.30151135 674:0.30151135 1593:0.30151135 #
-0.10320652583577949 1189:1 #
-0.34663015409722331 24:0.31622776 127:0.31622776 211:0.31622776 615:0.31622776 905:0.31622776 1266:0.63245553 1270:0.31622776 #
0.069229841661817365 1:0.44721359 855:0.44721359 1629:0.44721359 2060:0.44721359 2272:0.44721359 #
-0.084722662127164824 343:0.33333334 506:0.66666669 524:0.33333334 897:0.33333334 1060:0.33333334 1276:0.33333334 #
-0.17865015496581205 532:0.70710677 1500:0.70710677 #
-0.14445391259908946 350:1 #
-0.17846607160615502 973:1 #
-0.17880994889840354 265:0.70710677 1078:0.70710677 #
-0.10984778305376534 51:0.5 124:0.5 299:0.5 959:0.5 #
-0.13250334743274361 416:0.28867513 1007:0.28867513 1247:0.28867513 1366:0.57735026 1610:0.28867513 1617:0.57735026 #
-0.30146116226000919 187:0.5 425:0.5 601:0.5 741:0.5 #
-0.15867512517669213 477:1 #
-0.81478753112303071 25:1 #
-0.30710510724160212 212:1 #
-0.12000069191911074 79:0.44721359 198:0.44721359 250:0.44721359 949:0.44721359 1105:0.44721359 #
-0.17821340637715655 40:0.70710677 608:0.70710677 #
-0.16556620428558361 305:0.70710677 607:0.70710677 #
0.1919618569144205 14:0.5 327:0.5 1929:0.5 2646:0.5 #
-0.19952563256636752 58:0.57735026 153:0.57735026 1270:0.57735026 #
-0.43018777256167162 66:0.70710677 1419:0.70710677 #
-0.17769063238941746 351:0.70710677 734:0.70710677 #
-0.11847130020889898 95:0.33333334 233:0.33333334 240:0.33333334 513:0.33333334 560:0.33333334 613:0.33333334 637:0.33333334 700:0.33333334 726:0.33333334 #
-0.061453883518429675 211:0.57735026 268:0.57735026 535:0.57735026 #
-0.0019327012015693378 4:0.40824831 19:0.40824831 239:0.40824831 298:0.40824831 532:0.40824831 1634:0.40824831 #
-0.49702696313684785 6:0.26726124 26:0.26726124 29:0.26726124 30:0.26726124 42:0.26726124 57:0.26726124 65:0.26726124 79:0.26726124 125:0.26726124 285:0.26726124 624:0.26726124 872:0.26726124 1543:0.26726124 1572:0.26726124 #
-0.12924261695445557 42:0.35355338 647:0.35355338 712:0.35355338 1120:0.35355338 1440:0.35355338 1605:0.35355338 2926:0.35355338 2946:0.35355338 #
-0.1573001458985934 561:0.70710677 566:0.70710677 #
-0.23454795168701059 24:0.63960212 25:0.21320072 36:0.21320072 130:0.21320072 366:0.21320072 483:0.21320072 542:0.21320072 616:0.42640144 1023:0.21320072 1044:0.21320072 2930:0.21320072 #
-0.13776058812593689 99:0.70710677 1276:0.70710677 #
-0.15942491557384442 39:0.5 74:0.5 382:0.5 956:0.5 #
-0.27681155789916406 581:0.57735026 731:0.57735026 1254:0.57735026 #
-0.12064481346438172 10:0.31622776 214:0.31622776 349:0.31622776 538:0.31622776 992:0.63245553 1046:0.31622776 2875:0.31622776 #
-0.088859533248210387 43:0.57735026 615:0.57735026 1319:0.57735026 #
-0.00093241689064022047 45:0.70710677 260:0.70710677 #
0.26974348735498832 1:0.40824831 76:0.40824831 79:0.40824831 149:0.40824831 315:0.40824831 744:0.40824831 #
0.096351508269192712 13:0.35355338 281:0.35355338 844:0.35355338 1582:0.35355338 1598:0.35355338 2374:0.35355338 2451:0.35355338 2496:0.35355338 #
-0.17870393644994412 370:0.70710677 391:0.70710677 #
0.13678058853108035 128:0.37796447 366:0.37796447 463:0.37796447 735:0.37796447 745:0.37796447 1757:0.37796447 2415:0.37796447 #
0.098508348398503823 3:0.40824831 1033:0.40824831 1596:0.40824831 1719:0.40824831 2250:0.40824831 2412:0.40824831 #
-0.17930721645092626 15:0.70710677 421:0.70710677 #
-0.22489786734807604 526:1 #
-0.16047150512672159 686:1 #
-0.53406214191999524 530:0.70710677 532:0.70710677 #
-0.13621231498709285 472:1 #
-0.056888575030137355 142:0.70710677 996:0.70710677 #
-0.06729740329767811 5:0.70710677 173:0.70710677 #
-0.14260963892713613 139:0.70710677 1035:0.70710677 #
-0.007246794134365242 119:0.5 121:0.5 1027:0.5 1410:0.5 #
-0.077680367039765913 1:0.17960531 6:0.17960531 11:0.17960531 17:0.17960531 56:0.17960531 79:0.17960531 85:0.17960531 285:0.17960531 293:0.17960531 328:0.17960531 345:0.17960531 467:0.17960531 511:0.17960531 564:0.17960531 569:0.17960531 621:0.17960531 622:0.35921061 974:0.17960531 1256:0.35921061 1326:0.17960531 2909:0.35921061 2971:0.17960531 #
-0.11765944695213022 188:0.37796447 194:0.37796447 734:0.37796447 1020:0.37796447 1265:0.37796447 1277:0.37796447 2864:0.37796447 #
-0.06633023687796441 29:0.37796447 78:0.37796447 194:0.37796447 476:0.37796447 1020:0.37796447 1093:0.37796447 2864:0.37796447 #
-0.10141681419112136 1581:1 #
-0.068062968232418294 259:0.70710677 572:0.70710677 #
-0.037737763060529145 58:0.37796447 390:0.37796447 547:0.37796447 967:0.37796447 1090:0.37796447 1294:0.37796447 1307:0.37796447 #
-0.13613409598249637 629:1 #
-0.14909698980513919 36:1 #
-0.18420683161911236 36:0.57735026 234:0.57735026 1271:0.57735026 #
-0.079513466140487835 22:0.70710677 288:0.70710677 #
-0.076023702072655103 54:0.70710677 980:0.70710677 #
-0.06570485181276059 32:0.40824831 36:0.40824831 662:0.40824831 708:0.40824831 1421:0.40824831 1541:0.40824831 #
-0.07583531407832303 46:0.70710677 1194:0.70710677 #
-0.085395429913320539 427:0.70710677 1226:0.70710677 #
-0.10669312194703462 263:1 #
-0.02240816486878271 290:0.57735026 871:0.57735026 1618:0.57735026 #
-0.062133232343178108 121:0.44721359 124:0.44721359 176:0.44721359 348:0.44721359 1051:0.44721359 #
-0.57261084922047834 124:0.70710677 736:0.70710677 #
-0.10707506329538713 91:0.40824831 512:0.40824831 538:0.40824831 877:0.40824831 1465:0.40824831 2988:0.40824831 #
-0.04956923907339994 735:1 #
-0.18125718300121568 95:0.44721359 432:0.44721359 526:0.44721359 531:0.44721359 666:0.44721359 #
-0.030355009959921339 301:0.57735026 489:0.57735026 1563:0.57735026 #
-0.10936899485306784 36:0.37796447 150:0.37796447 490:0.37796447 1273:0.75592893 #
-0.17466797370111742 146:0.57735026 367:0.57735026 586:0.57735026 #
-0.13312801265339619 29:0.57735026 367:0.57735026 957:0.57735026 #
-0.029038045494466744 107:0.44721359 285:0.44721359 539:0.44721359 701:0.44721359 1200:0.44721359 #
-0.19780985672962839 107:0.40824831 196:0.40824831 417:0.40824831 555:0.40824831 563:0.40824831 1247:0.40824831 #
0.058647144924257259 3:0.40824831 79:0.40824831 108:0.40824831 2138:0.40824831 2577:0.40824831 2744:0.40824831 #
-0.069046888123674141 76:0.5 1020:0.5 1140:0.5 1467:0.5 #
-0.10711997561386688 21:0.5 153:0.5 1468:0.5 2872:0.5 #
-0.15285495603074883 1581:1 #
-0.18153844957712084 71:1 #
-0.58939766775844438 77:0.70710677 111:0.70710677 #
-0.10329483365968495 34:1 #
-0.083385835588000612 1:0.15249857 10:0.15249857 22:0.15249857 36:0.30499715 56:0.15249857 72:0.15249857 120:0.15249857 183:0.15249857 198:0.15249857 210:0.15249857 211:0.15249857 235:0.45749572 261:0.15249857 286:0.15249857 394:0.45749572 427:0.15249857 510:0.15249857 562:0.15249857 669:0.15249857 694:0.15249857 699:0.15249857 1603:0.15249857 2876:0.15249857 2974:0.15249857 #
0.038693482559564535 1:0.44721359 1880:0.44721359 2080:0.44721359 2296:0.44721359 2475:0.44721359 #
-0.23150589185952755 153:0.70710677 267:0.70710677 #
-0.044913495229491299 82:0.70710677 2937:0.70710677 #
-0.052211018027066756 4:0.33333334 35:0.33333334 181:0.33333334 540:0.33333334 609:0.33333334 941:0.66666669 #
-0.098334973058840688 12:0.2 41:0.2 49:0.2 67:0.2 78:0.2 87:0.2 107:0.2 122:0.2 150:0.40000001 164:0.2 242:0.2 274:0.2 346:0.2 440:0.2 603:0.2 743:0.2 904:0.2 1011:0.2 1245:0.2 1412:0.2 1512:0.2 2965:0.2 #
-0.012623469637160101 95:0.5 466:0.5 523:0.5 1302:0.5 #
-0.3061411523362445 45:1 #
-0.076131142647283379 51:1 #
-0.28713141811681264 372:1 #
-0.0025691276682113916 372:0.44721359 968:0.44721359 975:0.44721359 1154:0.44721359 1361:0.44721359 #
-0.15610608822962435 134:0.5 323:0.5 615:0.5 621:0.5 #
-0.14808599639954223 477:1 #
-0.078356025865923287 96:0.37796447 132:0.37796447 134:0.37796447 365:0.37796447 374:0.37796447 942:0.37796447 1027:0.37796447 #
-0.10816234862681229 151:1 #
-0.1254730030039683 429:0.5 531:0.5 610:0.5 697:0.5 #
-0.10790411739138561 21:0.35355338 56:0.17677669 60:0.17677669 62:0.17677669 74:0.17677669 83:0.17677669 134:0.35355338 148:0.17677669 173:0.17677669 197:0.17677669 332:0.17677669 346:0.17677669 1019:0.17677669 1114:0.53033006 1583:0.35355338 #
-0.05299814984664087 8:0.57735026 364:0.57735026 432:0.57735026 #
-0.07232687715326204 19:0.44721359 249:0.44721359 975:0.44721359 1263:0.44721359 1628:0.44721359 #
-0.022532521726628174 32:0.35355338 249:0.35355338 308:0.35355338 441:0.35355338 694:0.70710677 #
-0.046326220153998121 51:1 #
-0.14065819401659752 466:1 #
-0.041208222267449565 383:0.70710677 466:0.70710677 #
-0.069746955617425124 367:0.44721359 691:0.44721359 702:0.44721359 965:0.44721359 1244:0.44721359 #
-0.049523951162488512 255:0.37796447 287:0.37796447 329:0.37796447 388:0.37796447 644:0.37796447 985:0.37796447 1222:0.37796447 #
-0.062882350052727298 6:0.5 251:0.5 522:0.5 965:0.5 #
-0.17722592554715003 40:0.57735026 137:0.57735026 1475:0.57735026 #
-0.049042031222911509 22:1 #
0.011091649761847747 1:0.37796447 625:0.37796447 766:0.37796447 1019:0.37796447 1696:0.37796447 1901:0.37796447 2169:0.37796447 #
-0.079643489565274728 79:0.30151135 120:0.60302269 322:0.30151135 438:0.30151135 2916:0.60302269 #
-0.10867482573478812 394:0.70710677 1457:0.70710677 #
-0.051381433634609244 69:0.57735026 111:0.57735026 291:0.57735026 #
-0.066224194513375467 12:0.57735026 26:0.57735026 506:0.57735026 #
-0.077677440927660463 30:0.70710677 107:0.70710677 #
-0.018212227292626393 76:1 #
-0.0030945369526862304 58:0.35355338 165:0.35355338 279:0.35355338 1529:0.70710677 1609:0.35355338 #
-0.0059636387473497501 197:0.70710677 510:0.70710677 #
-0.0113808067916964 4:0.18898223 25:0.37796447 153:0.37796447 251:0.18898223 540:0.37796447 886:0.18898223 1024:0.18898223 1029:0.18898223 1220:0.18898223 1235:0.56694669 1271:0.18898223 #
-0.028006237634210656 71:0.70710677 196:0.70710677 #
-0.0099194412545433597 36:1 #
-0.0079747878535434413 76:1 #
-0.0050236028598436289 196:0.70710677 466:0.70710677 #
-0.0046699982952832777 196:0.70710677 466:0.70710677 #
-0.004307300495999246 39:0.31622776 90:0.31622776 241:0.31622776 653:0.31622776 714:0.63245553 1216:0.31622776 1303:0.31622776 #
-0.018975253024455532 27:0.81649661 330:0.40824831 643:0.40824831 #
0.0049384520635085433 18:0.44721359 317:0.44721359 432:0.44721359 1034:0.44721359 1741:0.44721359 #
-0.0035461330394163521 429:1 #
-0.0011297361222805113 323:1 #
-0.0010270098433463049 20:0.57735026 194:0.57735026 1137:0.57735026 #
