SVM-light Version V6.02
0 # kernel type
3 # kernel parameter -d 
1 # kernel parameter -g 
1 # kernel parameter -s 
1 # kernel parameter -r 
empty# kernel parameter -u 
3000 # highest feature index 
4284 # number of training documents 
2203 # number of support vectors plus 1 
0.74923309 # threshold b, each following line is a SV (starting with alpha*y)
-0.57247915412762384601563780961442 117:0.57735026 929:0.57735026 1667:0.57735026 #
-0.13367277944792932409256991377333 5:1 #
-0.27692817238144923353004855925974 184:0.37796447 218:0.37796447 276:0.37796447 471:0.37796447 816:0.37796447 2144:0.37796447 2195:0.37796447 #
-1.0000000241482720486629887091112 107:1 #
-0.12464287586997963019896928926755 107:0.57735026 1708:0.57735026 2814:0.57735026 #
1.0000000241482720486629887091112 68:0.30151135 185:0.30151135 466:0.30151135 473:0.30151135 664:0.30151135 1428:0.30151135 1449:0.30151135 1465:0.30151135 1581:0.30151135 1590:0.30151135 2816:0.30151135 #
1.0000000241482720486629887091112 121:0.5 978:0.5 1446:0.5 2752:0.5 #
1.0000000241482720486629887091112 123:0.70710677 225:0.70710677 #
1.0000000241482720486629887091112 73:0.44721359 468:0.44721359 1391:0.44721359 1463:0.44721359 2842:0.44721359 #
1.0000000241482720486629887091112 15:0.15249857 25:0.15249857 30:0.45749572 77:0.30499715 118:0.15249857 121:0.15249857 141:0.15249857 276:0.15249857 348:0.60999429 352:0.15249857 922:0.15249857 949:0.15249857 1449:0.15249857 1454:0.15249857 1467:0.15249857 2778:0.15249857 2843:0.15249857 #
-1.0000000241482720486629887091112 348:0.70710677 978:0.70710677 #
-1.0000000241482720486629887091112 225:1 #
0.17150945240718051820749678881839 923:1 #
-0.14580911458366532795771774999594 65:0.70710677 1047:0.70710677 #
-0.20170399919318132697654277762922 134:0.30151135 302:0.30151135 463:0.30151135 611:0.30151135 871:0.30151135 1070:0.30151135 1160:0.30151135 1908:0.30151135 2338:0.30151135 2451:0.30151135 2567:0.30151135 #
1.0000000241482720486629887091112 54:0.31622776 107:0.63245553 114:0.31622776 613:0.31622776 1500:0.31622776 2771:0.31622776 2923:0.31622776 #
1.0000000241482720486629887091112 42:0.5 107:0.5 181:0.5 187:0.5 #
1.0000000241482720486629887091112 194:0.70710677 1451:0.70710677 #
1.0000000241482720486629887091112 61:0.37796447 107:0.37796447 682:0.37796447 910:0.37796447 1498:0.37796447 1525:0.37796447 2928:0.37796447 #
1.0000000241482720486629887091112 4:0.37796447 107:0.37796447 195:0.37796447 682:0.37796447 892:0.37796447 937:0.37796447 2999:0.37796447 #
-1.0000000241482720486629887091112 1451:1 #
-0.49261706580666486665620595886139 18:0.2236068 51:0.2236068 114:0.67082042 121:0.2236068 185:0.2236068 593:0.2236068 873:0.2236068 915:0.2236068 1240:0.2236068 1451:0.2236068 1717:0.2236068 2772:0.2236068 #
-0.50998557101307184780125680845231 30:0.5 123:0.5 1096:0.5 2331:0.5 #
-1.0000000241482720486629887091112 11:0.44721359 187:0.44721359 466:0.44721359 1449:0.44721359 1465:0.44721359 #
1.0000000241482720486629887091112 348:1 #
1.0000000241482720486629887091112 1:0.44721359 348:0.89442718 #
1.0000000241482720486629887091112 120:0.2236068 348:0.89442718 352:0.2236068 657:0.2236068 2821:0.2236068 #
-1.0000000241482720486629887091112 348:1 #
1.0000000241482720486629887091112 24:0.57735026 114:0.57735026 117:0.57735026 #
1.0000000241482720486629887091112 117:0.70710677 888:0.70710677 #
1.0000000241482720486629887091112 471:1 #
1.0000000241482720486629887091112 218:0.35355338 471:0.70710677 952:0.35355338 1424:0.35355338 2778:0.35355338 #
1.0000000241482720486629887091112 637:0.57735026 1509:0.57735026 1555:0.57735026 #
-1.0000000241482720486629887091112 16:0.24253562 25:0.48507124 137:0.24253562 348:0.48507124 468:0.48507124 617:0.24253562 682:0.24253562 691:0.24253562 #
-1.0000000241482720486629887091112 61:0.44721359 348:0.89442718 #
-0.48723422591768128508959989630966 2752:1 #
-0.68235681666302827608205916476436 61:0.28867513 68:0.57735026 166:0.28867513 304:0.28867513 510:0.28867513 680:0.28867513 682:0.28867513 921:0.28867513 1463:0.28867513 #
1.0000000241482720486629887091112 225:0.57735026 287:0.57735026 1425:0.57735026 #
1.0000000241482720486629887091112 11:1 #
0.51715680678942443915246940377983 43:0.5 488:0.5 929:0.5 2992:0.5 #
1.0000000241482720486629887091112 53:0.70710677 2814:0.70710677 #
1.0000000241482720486629887091112 1451:1 #
-0.66426432404856217139865748322336 53:1 #
1.0000000241482720486629887091112 348:1 #
1.0000000241482720486629887091112 348:0.81649661 682:0.40824831 906:0.20412415 2856:0.20412415 2901:0.20412415 2972:0.20412415 #
-1.0000000241482720486629887091112 1451:1 #
-0.045933969089079318415258512686705 337:1 #
-0.25479181359941088791387642231712 24:0.5 1365:0.5 2122:0.5 2486:0.5 #
-1.0000000241482720486629887091112 22:0.35355338 54:0.35355338 472:0.35355338 473:0.35355338 1425:0.70710677 #
-0.63269442759739147330577679895214 54:0.57735026 488:0.57735026 954:0.57735026 #
1.0000000241482720486629887091112 25:0.57735026 86:0.57735026 1508:0.57735026 #
1.0000000241482720486629887091112 16:0.57735026 25:0.57735026 51:0.57735026 #
1.0000000241482720486629887091112 15:0.40824831 25:0.40824831 68:0.40824831 2772:0.40824831 2778:0.40824831 2842:0.40824831 #
1.0000000241482720486629887091112 17:0.44721359 25:0.44721359 92:0.44721359 117:0.44721359 300:0.44721359 #
-1.0000000241482720486629887091112 25:1 #
-0.14524611839504242283283019787632 1740:1 #
-1.0000000241482720486629887091112 25:0.70710677 114:0.70710677 #
-0.20062836027888855672252077511075 25:0.57735026 406:0.57735026 2778:0.57735026 #
1.0000000241482720486629887091112 53:0.70710677 54:0.70710677 #
1.0000000241482720486629887091112 54:1 #
1.0000000241482720486629887091112 11:0.70710677 468:0.70710677 #
-1.0000000241482720486629887091112 54:1 #
1.0000000241482720486629887091112 25:1 #
1.0000000241482720486629887091112 6:0.26726124 25:0.26726124 30:0.26726124 114:0.26726124 123:0.26726124 223:0.26726124 236:0.26726124 922:0.26726124 1430:0.26726124 1451:0.53452247 1590:0.26726124 #
1.0000000241482720486629887091112 25:0.70710677 2944:0.70710677 #
-1.0000000241482720486629887091112 15:0.24253562 32:0.24253562 51:0.48507124 53:0.24253562 68:0.24253562 114:0.24253562 117:0.24253562 121:0.24253562 143:0.24253562 168:0.24253562 182:0.24253562 632:0.24253562 910:0.24253562 2769:0.24253562 #
-1.0000000241482720486629887091112 15:0.70710677 118:0.35355338 177:0.35355338 1508:0.35355338 2772:0.35355338 #
-0.126507861944879285154286208126 15:0.60302269 51:0.60302269 220:0.30151135 256:0.30151135 371:0.30151135 #
-0.013823049462348135918432490143459 15:0.5 17:0.25 80:0.25 123:0.25 185:0.5 352:0.25 1352:0.25 2051:0.25 2724:0.25 2824:0.25 #
-1.0000000241482720486629887091112 446:0.57735026 913:0.57735026 975:0.57735026 #
1.0000000241482720486629887091112 166:1 #
1.0000000241482720486629887091112 140:0.40824831 176:0.40824831 184:0.40824831 348:0.40824831 467:0.40824831 2777:0.40824831 #
1.0000000241482720486629887091112 10:0.31622776 61:0.31622776 62:0.31622776 166:0.31622776 623:0.31622776 931:0.31622776 2762:0.63245553 #
1.0000000241482720486629887091112 680:1 #
1.0000000241482720486629887091112 188:0.5 680:0.5 682:0.5 890:0.5 #
-1.0000000241482720486629887091112 166:0.70710677 348:0.70710677 #
-0.80718695211207047712775874970248 166:0.70710677 2509:0.70710677 #
-0.30007225099562151449106295331148 62:0.35355338 161:0.35355338 657:0.70710677 680:0.35355338 1486:0.35355338 #
-1.0000000241482720486629887091112 124:0.70710677 166:0.70710677 #
-0.69420889470347257876881030824734 166:0.57735026 364:0.57735026 2580:0.57735026 #
1.0000000241482720486629887091112 15:1 #
1.0000000241482720486629887091112 2:0.18569534 5:0.18569534 15:0.74278134 25:0.18569534 51:0.37139067 114:0.18569534 296:0.18569534 350:0.18569534 1427:0.18569534 1433:0.18569534 2871:0.18569534 #
1.0000000241482720486629887091112 15:0.70710677 25:0.70710677 #
1.0000000241482720486629887091112 15:0.75592893 184:0.37796447 668:0.37796447 918:0.37796447 #
1.0000000241482720486629887091112 15:0.57735026 114:0.57735026 1422:0.57735026 #
-1.0000000241482720486629887091112 15:1 #
-1.0000000241482720486629887091112 15:0.70710677 114:0.70710677 #
-1.0000000241482720486629887091112 15:0.57735026 114:0.57735026 668:0.57735026 #
-0.16678791528145853195752579267719 15:0.60302269 51:0.30151135 62:0.30151135 114:0.30151135 184:0.30151135 350:0.30151135 572:0.30151135 1320:0.30151135 #
1.0000000241482720486629887091112 166:0.70710677 1548:0.70710677 #
1.0000000241482720486629887091112 6:0.57735026 166:0.57735026 639:0.57735026 #
1.0000000241482720486629887091112 166:0.57735026 483:0.57735026 1548:0.57735026 #
-0.097497881252812113039851737994468 1173:1 #
-1.0000000241482720486629887091112 10:0.44721359 25:0.44721359 166:0.44721359 198:0.44721359 1428:0.44721359 #
-0.65761694148217231248310099545051 92:0.37796447 108:0.37796447 166:0.37796447 681:0.37796447 1452:0.37796447 1710:0.37796447 1876:0.37796447 #
-1.0000000241482720486629887091112 18:0.35355338 25:0.35355338 65:0.35355338 188:0.35355338 368:0.35355338 450:0.35355338 486:0.35355338 1590:0.35355338 #
-0.070020285738125895291794620334258 375:0.57735026 2569:0.57735026 2578:0.57735026 #
-0.32226470613145324906056998770509 123:0.35355338 195:0.35355338 747:0.35355338 858:0.35355338 916:0.35355338 966:0.35355338 2303:0.35355338 2641:0.35355338 #
1.0000000241482720486629887091112 15:0.37796447 114:0.75592893 460:0.37796447 1506:0.37796447 #
1.0000000241482720486629887091112 15:0.63245553 47:0.15811388 103:0.15811388 114:0.15811388 281:0.15811388 348:0.31622776 352:0.47434166 637:0.31622776 660:0.15811388 918:0.15811388 1424:0.15811388 #
-1.0000000241482720486629887091112 15:0.5 114:0.5 365:0.5 918:0.5 #
-0.027887666412690026440657220518915 15:0.44721359 114:0.44721359 220:0.44721359 918:0.44721359 1815:0.44721359 #
-0.37904043024110717352570532057143 61:0.57735026 977:0.57735026 2846:0.57735026 #
1.0000000241482720486629887091112 670:1 #
1.0000000241482720486629887091112 16:0.33333334 22:0.33333334 54:0.33333334 118:0.33333334 218:0.33333334 348:0.33333334 928:0.33333334 1423:0.33333334 1497:0.33333334 #
1.0000000241482720486629887091112 681:1 #
1.0000000241482720486629887091112 75:0.5 276:0.5 278:0.5 2797:0.5 #
1.0000000241482720486629887091112 47:0.70710677 236:0.70710677 #
-1.0000000241482720486629887091112 352:0.81649661 682:0.40824831 846:0.40824831 #
-0.070046230203858972362951362811145 18:0.57735026 140:0.57735026 161:0.57735026 #
-0.045167034942156819576908333147003 547:0.57735026 579:0.57735026 2441:0.57735026 #
-1.0000000241482720486629887091112 468:1 #
1.0000000241482720486629887091112 15:0.41602516 24:0.13867505 76:0.13867505 107:0.2773501 108:0.13867505 114:0.41602516 178:0.13867505 220:0.2773501 470:0.2773501 474:0.13867505 647:0.13867505 654:0.41602516 918:0.2773501 1583:0.13867505 1589:0.13867505 1590:0.13867505 #
1.0000000241482720486629887091112 114:1 #
1.0000000241482720486629887091112 15:0.40824831 51:0.40824831 88:0.40824831 101:0.40824831 114:0.40824831 619:0.40824831 #
1.0000000241482720486629887091112 51:0.33333334 114:0.66666669 469:0.33333334 471:0.33333334 1592:0.33333334 2763:0.33333334 #
-1.0000000241482720486629887091112 114:1 #
-1.0000000241482720486629887091112 77:0.22941573 114:0.91766292 464:0.22941573 2277:0.22941573 #
-1.0000000241482720486629887091112 51:0.70710677 114:0.70710677 #
1.0000000241482720486629887091112 352:1 #
1.0000000241482720486629887091112 68:0.57735026 352:0.57735026 686:0.57735026 #
1.0000000241482720486629887091112 468:1 #
1.0000000241482720486629887091112 33:0.70710677 352:0.70710677 #
1.0000000241482720486629887091112 7:0.44721359 69:0.44721359 84:0.44721359 468:0.44721359 682:0.44721359 #
-1.0000000241482720486629887091112 101:0.70710677 468:0.70710677 #
-0.53519777145661340256310722907074 88:0.70710677 937:0.70710677 #
-1.0000000241482720486629887091112 654:0.70710677 664:0.35355338 692:0.35355338 1506:0.35355338 1606:0.35355338 #
-0.53910403643842874643610230123159 29:0.5 55:0.5 446:0.5 2794:0.5 #
1.0000000241482720486629887091112 119:0.70710677 1545:0.70710677 #
1.0000000241482720486629887091112 114:0.70710677 371:0.70710677 #
1.0000000241482720486629887091112 114:0.70710677 2842:0.70710677 #
1.0000000241482720486629887091112 114:0.70710677 350:0.70710677 #
1.0000000241482720486629887091112 114:0.70710677 2847:0.70710677 #
-1.0000000241482720486629887091112 114:0.70710677 2842:0.70710677 #
-1.0000000241482720486629887091112 24:0.70710677 114:0.70710677 #
-0.21379501316411816946860824373289 114:0.70710677 267:0.70710677 #
1.0000000241482720486629887091112 15:0.40824831 17:0.40824831 76:0.40824831 117:0.40824831 180:0.40824831 668:0.40824831 #
1.0000000241482720486629887091112 25:0.57735026 51:0.57735026 190:0.57735026 #
1.0000000241482720486629887091112 51:0.70710677 682:0.70710677 #
1.0000000241482720486629887091112 15:0.57735026 51:0.57735026 224:0.57735026 #
1.0000000241482720486629887091112 5:1 #
-0.29423017819775593162390237012005 15:0.44721359 350:0.44721359 371:0.44721359 671:0.44721359 2193:0.44721359 #
-0.01942068994503438200682765568672 25:0.3973597 51:0.3973597 62:0.13245323 77:0.13245323 92:0.13245323 234:0.13245323 242:0.3973597 322:0.13245323 350:0.13245323 363:0.13245323 465:0.26490647 488:0.13245323 612:0.13245323 660:0.13245323 809:0.13245323 812:0.13245323 1367:0.13245323 1428:0.13245323 1439:0.13245323 1445:0.13245323 1922:0.26490647 1977:0.13245323 2124:0.13245323 2343:0.13245323 2738:0.13245323 2753:0.13245323 2777:0.13245323 #
-0.8535859142259777376793294934032 5:0.70710677 140:0.70710677 #
-0.71186878435068456916212653595721 5:0.26726124 25:0.26726124 50:0.26726124 172:0.26726124 352:0.26726124 619:0.53452247 682:0.26726124 1130:0.26726124 1345:0.26726124 2458:0.26726124 2777:0.26726124 #
1.0000000241482720486629887091112 114:0.70710677 692:0.70710677 #
1.0000000241482720486629887091112 24:1 #
-1.0000000241482720486629887091112 16:0.2236068 25:0.2236068 54:0.2236068 76:0.2236068 117:0.2236068 292:0.2236068 348:0.67082042 471:0.2236068 876:0.2236068 1778:0.2236068 1853:0.2236068 2847:0.2236068 #
-1.0000000241482720486629887091112 13:0.57735026 24:0.57735026 639:0.57735026 #
-0.4293605520835468425389080948662 24:0.5 37:0.16666667 45:0.16666667 54:0.16666667 114:0.16666667 371:0.33333334 467:0.16666667 668:0.5 939:0.16666667 1421:0.33333334 1424:0.16666667 1448:0.16666667 1464:0.16666667 1904:0.16666667 #
-0.59685429204841178307816562664811 17:0.44721359 235:0.44721359 348:0.44721359 474:0.44721359 692:0.44721359 #
-0.78538768857409280155223996189306 21:0.31622776 119:0.31622776 231:0.31622776 591:0.31622776 612:0.31622776 1181:0.31622776 1593:0.63245553 #
1.0000000241482720486629887091112 18:0.5 62:0.5 140:0.5 1425:0.5 #
1.0000000241482720486629887091112 160:0.70710677 654:0.70710677 #
1.0000000241482720486629887091112 15:0.57735026 244:0.57735026 1428:0.57735026 #
1.0000000241482720486629887091112 18:0.70710677 2888:0.70710677 #
1.0000000241482720486629887091112 18:0.70710677 2991:0.70710677 #
-0.088088028168480936308526452194201 64:0.33333334 1300:0.33333334 2208:0.33333334 2526:0.33333334 2591:0.66666669 2672:0.33333334 #
-0.48983069368421616740505442066933 47:0.70710677 684:0.70710677 #
-0.37182646619267012422227480783476 18:0.70710677 2435:0.70710677 #
-1.0000000241482720486629887091112 18:0.70710677 222:0.70710677 #
-1.0000000241482720486629887091112 18:0.70710677 471:0.70710677 #
1.0000000241482720486629887091112 24:0.57735026 87:0.28867513 158:0.28867513 348:0.57735026 486:0.28867513 2936:0.28867513 #
1.0000000241482720486629887091112 24:1 #
-1.0000000241482720486629887091112 24:0.5 350:0.5 470:0.5 654:0.5 #
-1.0000000241482720486629887091112 15:0.70710677 24:0.70710677 #
-1.0000000241482720486629887091112 24:1 #
1.0000000241482720486629887091112 101:0.70710677 235:0.70710677 #
1.0000000241482720486629887091112 51:0.40824831 114:0.40824831 348:0.81649661 #
1.0000000241482720486629887091112 29:0.25819889 33:0.51639777 114:0.25819889 117:0.25819889 123:0.25819889 179:0.25819889 365:0.25819889 640:0.25819889 658:0.25819889 1588:0.25819889 2775:0.25819889 2945:0.25819889 #
-0.56465101719107024802468686175416 101:0.40824831 682:0.40824831 922:0.40824831 1118:0.40824831 1137:0.40824831 1425:0.40824831 #
-1.0000000241482720486629887091112 140:1 #
-1.0000000241482720486629887091112 348:1 #
1.0000000241482720486629887091112 24:1 #
1.0000000241482720486629887091112 24:0.81649661 76:0.40824831 1418:0.40824831 #
-1.0000000241482720486629887091112 24:0.40824831 117:0.40824831 121:0.40824831 162:0.40824831 1418:0.40824831 1459:0.40824831 #
-0.34422399712077417222033659527369 24:0.57735026 33:0.57735026 581:0.57735026 #
-0.20602179778411316979358502976538 29:0.70710677 827:0.70710677 #
-0.99868365239362666407885171793168 160:1 #
1.0000000241482720486629887091112 10:0.75592893 474:0.37796447 921:0.37796447 2840:0.37796447 #
1.0000000241482720486629887091112 474:1 #
1.0000000241482720486629887091112 118:0.30151135 177:0.30151135 242:0.30151135 465:0.30151135 474:0.60302269 1396:0.30151135 2842:0.30151135 2910:0.30151135 #
-1.0000000241482720486629887091112 474:1 #
-1.0000000241482720486629887091112 474:0.70710677 670:0.70710677 #
-1.0000000241482720486629887091112 122:0.44721359 474:0.89442718 #
-1.0000000241482720486629887091112 474:0.70710677 2782:0.70710677 #
1.0000000241482720486629887091112 24:1 #
1.0000000241482720486629887091112 22:0.35355338 24:0.70710677 645:0.35355338 893:0.35355338 1426:0.35355338 #
1.0000000241482720486629887091112 160:0.89442718 940:0.44721359 #
-1.0000000241482720486629887091112 24:1 #
1.0000000241482720486629887091112 474:1 #
1.0000000241482720486629887091112 474:0.70710677 1594:0.70710677 #
1.0000000241482720486629887091112 54:0.57735026 474:0.57735026 2841:0.57735026 #
-1.0000000241482720486629887091112 73:0.5 940:0.5 1894:0.5 2847:0.5 #
-0.45481065793565716992574721189158 10:0.28867513 74:0.28867513 84:0.28867513 263:0.28867513 547:0.28867513 611:0.28867513 663:0.28867513 680:0.28867513 1428:0.28867513 1474:0.28867513 2560:0.28867513 2808:0.28867513 #
-0.65080276639695633367210803044145 469:0.57735026 819:0.57735026 1428:0.57735026 #
-0.58847957540962381184357354868553 160:1 #
-1.0000000241482720486629887091112 10:0.70710677 2842:0.70710677 #
1.0000000241482720486629887091112 54:0.35355338 292:0.35355338 1390:0.35355338 1457:0.35355338 1502:0.35355338 1545:0.35355338 2749:0.35355338 2782:0.35355338 #
1.0000000241482720486629887091112 54:0.37796447 348:0.37796447 670:0.75592893 889:0.37796447 #
1.0000000241482720486629887091112 162:0.89442718 2930:0.44721359 #
-1.0000000241482720486629887091112 54:1 #
1.0000000241482720486629887091112 73:0.70710677 621:0.70710677 #
1.0000000241482720486629887091112 10:0.57735026 2753:0.57735026 2842:0.57735026 #
1.0000000241482720486629887091112 10:0.44721359 642:0.44721359 888:0.44721359 1507:0.44721359 2842:0.44721359 #
1.0000000241482720486629887091112 10:0.57735026 143:0.57735026 902:0.57735026 #
1.0000000241482720486629887091112 10:0.44721359 50:0.44721359 188:0.44721359 470:0.44721359 1417:0.44721359 #
-1.0000000241482720486629887091112 670:1 #
-1.0000000241482720486629887091112 162:1 #
-0.26378468106704855422606215142878 72:0.5 162:0.5 1457:0.5 2734:0.5 #
-1.0000000241482720486629887091112 123:0.70710677 1390:0.70710677 #
1.0000000241482720486629887091112 54:0.70710677 464:0.70710677 #
1.0000000241482720486629887091112 185:0.70710677 2778:0.70710677 #
1.0000000241482720486629887091112 18:0.5 25:0.5 54:0.5 184:0.5 #
1.0000000241482720486629887091112 3:0.25819889 15:0.25819889 45:0.25819889 51:0.25819889 54:0.25819889 114:0.25819889 183:0.25819889 282:0.25819889 654:0.25819889 668:0.25819889 682:0.25819889 925:0.25819889 1421:0.25819889 1451:0.25819889 1496:0.25819889 #
1.0000000241482720486629887091112 15:0.70710677 1428:0.70710677 #
-1.0000000241482720486629887091112 54:1 #
1.0000000241482720486629887091112 123:0.70710677 1390:0.70710677 #
1.0000000241482720486629887091112 162:0.57735026 656:0.57735026 1585:0.57735026 #
1.0000000241482720486629887091112 141:0.40824831 162:0.40824831 243:0.40824831 474:0.40824831 1448:0.40824831 2848:0.40824831 #
1.0000000241482720486629887091112 162:0.44721359 466:0.44721359 1403:0.44721359 2751:0.44721359 2753:0.44721359 #
1.0000000241482720486629887091112 188:0.44721359 370:0.44721359 470:0.44721359 670:0.44721359 2842:0.44721359 #
-0.83344630321702872777223092271015 15:0.70710677 118:0.70710677 #
-1.0000000241482720486629887091112 11:0.51639777 68:0.25819889 140:0.25819889 149:0.25819889 214:0.25819889 752:0.25819889 1002:0.25819889 1429:0.25819889 1432:0.25819889 1445:0.25819889 2370:0.25819889 2771:0.25819889 #
-1.0000000241482720486629887091112 15:0.5 24:0.5 114:0.5 158:0.5 #
-0.35637486067535723011090453837824 15:0.44721359 51:0.44721359 76:0.44721359 114:0.44721359 2045:0.44721359 #
1.0000000241482720486629887091112 53:0.57735026 655:0.57735026 671:0.57735026 #
1.0000000241482720486629887091112 671:1 #
1.0000000241482720486629887091112 24:0.5 279:0.5 474:0.5 1593:0.5 #
-1.0000000241482720486629887091112 113:0.5 889:0.5 1593:0.5 2778:0.5 #
-1.0000000241482720486629887091112 188:0.70710677 2842:0.70710677 #
-0.8569759290951898256238905560167 24:0.35355338 25:0.35355338 53:0.35355338 92:0.35355338 169:0.35355338 235:0.35355338 889:0.35355338 2778:0.35355338 #
-0.14781709664199566001130392578489 99:0.70710677 2443:0.70710677 #
-1.0000000241482720486629887091112 188:1 #
-0.0044373362342445543671232144333771 7:0.70710677 603:0.70710677 #
-1.0000000241482720486629887091112 224:1 #
-1.0000000241482720486629887091112 51:0.70710677 671:0.70710677 #
1.0000000241482720486629887091112 92:0.70710677 140:0.35355338 954:0.35355338 1438:0.35355338 1543:0.35355338 #
1.0000000241482720486629887091112 30:0.37796447 60:0.37796447 162:0.37796447 620:0.37796447 927:0.37796447 1504:0.37796447 1549:0.37796447 #
1.0000000241482720486629887091112 11:0.40824831 123:0.40824831 156:0.40824831 977:0.40824831 1390:0.40824831 1575:0.40824831 #
1.0000000241482720486629887091112 24:0.5 50:0.5 277:0.5 468:0.5 #
-1.0000000241482720486629887091112 348:0.66666669 474:0.33333334 1390:0.33333334 1415:0.33333334 2771:0.33333334 2840:0.33333334 #
-0.36459803047611505366631945435074 19:0.20851441 24:0.20851441 38:0.20851441 117:0.41702881 185:0.41702881 632:0.20851441 654:0.41702881 1495:0.20851441 1590:0.41702881 1598:0.20851441 2842:0.20851441 #
-0.81227322070131813269711074099177 92:1 #
1.0000000241482720486629887091112 47:0.5 617:0.5 1495:0.5 2934:0.5 #
1.0000000241482720486629887091112 86:0.70710677 1574:0.70710677 #
1.0000000241482720486629887091112 65:0.70710677 900:0.70710677 #
-0.021347033662524154962181199834959 47:0.57735026 144:0.57735026 682:0.57735026 #
-1.0000000241482720486629887091112 682:1 #
1.0000000241482720486629887091112 10:0.35355338 53:0.35355338 632:0.35355338 1554:0.35355338 2839:0.70710677 #
-0.90275365615500324789621799936867 10:0.37796447 471:0.75592893 1943:0.37796447 2798:0.37796447 #
-0.59076146923281314116138673853129 447:0.44721359 471:0.44721359 982:0.44721359 1431:0.44721359 2762:0.44721359 #
-1.0000000241482720486629887091112 119:0.5 366:0.5 471:0.5 655:0.5 #
-0.99244920801767733120613002029131 86:0.70710677 925:0.70710677 #
-0.9522124209155388152581167560129 471:0.5 622:0.5 1020:0.5 2777:0.5 #
1.0000000241482720486629887091112 16:0.35355338 23:0.35355338 88:0.35355338 446:0.35355338 682:0.35355338 906:0.35355338 1390:0.35355338 1395:0.35355338 #
1.0000000241482720486629887091112 5:0.30151135 47:0.30151135 354:0.30151135 474:0.30151135 476:0.30151135 682:0.30151135 690:0.30151135 2842:0.60302269 #
1.0000000241482720486629887091112 38:0.5 299:0.5 666:0.5 1390:0.5 #
-1.0000000241482720486629887091112 7:0.57735026 348:0.57735026 474:0.57735026 #
-0.75695946194578245247441827814328 5:0.44721359 23:0.44721359 25:0.44721359 476:0.44721359 2842:0.44721359 #
-1.0000000241482720486629887091112 16:0.57735026 348:0.57735026 464:0.57735026 #
0.038085603565700232309154671384022 159:0.5 459:0.5 2900:0.5 2904:0.5 #
-0.075574353225752011198323998542037 53:0.70710677 1332:0.70710677 #
1.0000000241482720486629887091112 165:0.37796447 216:0.37796447 471:0.75592893 477:0.37796447 #
1.0000000241482720486629887091112 471:0.70710677 1424:0.70710677 #
1.0000000241482720486629887091112 109:0.57735026 471:0.57735026 2844:0.57735026 #
1.0000000241482720486629887091112 123:0.5 158:0.5 471:0.5 1450:0.5 #
-0.8627827712493233436319428619754 471:0.70710677 643:0.70710677 #
-1.0000000241482720486629887091112 123:0.44721359 346:0.44721359 1390:0.44721359 1424:0.44721359 2407:0.44721359 #
-0.3216396090436113297528208931908 59:0.5 107:0.5 430:0.5 471:0.5 #
1.0000000241482720486629887091112 179:0.37796447 1431:0.75592893 1508:0.37796447 2842:0.37796447 #
-0.25051074150318464184294953156495 1005:1 #
-0.33365195839737826766224770835834 25:0.57735026 977:0.57735026 1758:0.57735026 #
-0.63719845140017294937706537893973 30:0.30151135 53:0.30151135 168:0.30151135 352:0.30151135 362:0.30151135 379:0.30151135 456:0.30151135 1508:0.30151135 2733:0.30151135 2757:0.30151135 2778:0.30151135 #
1.0000000241482720486629887091112 611:0.44721359 643:0.44721359 1507:0.44721359 2769:0.44721359 2984:0.44721359 #
0.08851687402829565287643021065378 124:0.57735026 1405:0.57735026 2770:0.57735026 #
1.0000000241482720486629887091112 663:1 #
-0.078074587629148206602280879451428 75:0.44721359 184:0.44721359 518:0.44721359 972:0.44721359 1263:0.44721359 #
-1.0000000241482720486629887091112 663:1 #
-1.0000000241482720486629887091112 54:0.44721359 183:0.44721359 668:0.44721359 1424:0.44721359 2842:0.44721359 #
0.25286463696932048872412224227446 42:0.57735026 279:0.57735026 353:0.57735026 #
1.0000000241482720486629887091112 364:0.70710677 656:0.70710677 #
1.0000000241482720486629887091112 470:0.70710677 2853:0.70710677 #
1.0000000241482720486629887091112 31:0.5 939:0.5 1393:0.5 1424:0.5 #
-0.90479962681347503306028556835372 158:0.40824831 223:0.40824831 236:0.40824831 666:0.40824831 1159:0.40824831 1452:0.40824831 #
-1.0000000241482720486629887091112 1594:0.70710677 2769:0.70710677 #
-1.0000000241482720486629887091112 467:0.57735026 1390:0.57735026 1507:0.57735026 #
-1.0000000241482720486629887091112 53:0.40824831 666:0.81649661 924:0.40824831 #
-0.23539474192555753795375039771898 51:0.66666669 256:0.33333334 371:0.33333334 1197:0.33333334 2013:0.33333334 2759:0.33333334 #
1.0000000241482720486629887091112 34:0.57735026 2842:0.57735026 2873:0.57735026 #
1.0000000241482720486629887091112 2842:1 #
-1.0000000241482720486629887091112 2842:1 #
1.0000000241482720486629887091112 39:0.5 77:0.5 961:0.5 1390:0.5 #
1.0000000241482720486629887091112 653:0.37796447 1390:0.75592893 1421:0.37796447 1502:0.37796447 #
1.0000000241482720486629887091112 1390:0.70710677 1589:0.70710677 #
-0.19351238983722293673928049884125 11:0.44721359 15:0.44721359 114:0.44721359 244:0.44721359 654:0.44721359 #
-1.0000000241482720486629887091112 5:0.40824831 34:0.40824831 474:0.40824831 886:0.40824831 888:0.40824831 2842:0.40824831 #
-1.0000000241482720486629887091112 120:0.57735026 1431:0.57735026 2842:0.57735026 #
-0.48868165394513651822450128747732 23:0.57735026 84:0.57735026 475:0.57735026 #
-1.0000000241482720486629887091112 156:0.70710677 2842:0.70710677 #
1.0000000241482720486629887091112 24:0.57735026 53:0.57735026 1528:0.57735026 #
1.0000000241482720486629887091112 162:0.57735026 467:0.57735026 1500:0.57735026 #
1.0000000241482720486629887091112 6:0.40824831 60:0.40824831 286:0.40824831 472:0.40824831 658:0.40824831 2897:0.40824831 #
-1.0000000241482720486629887091112 1500:1 #
-0.0017849641339343993735183646620612 410:0.70710677 1890:0.70710677 #
-0.70659266882956128785764349231613 6:0.57735026 77:0.57735026 179:0.57735026 #
-0.20830430019062678992369797015272 6:0.57735026 162:0.57735026 236:0.57735026 #
-0.67829058191313307268899279733887 162:0.44721359 276:0.44721359 1500:0.44721359 2142:0.44721359 2717:0.44721359 #
1.0000000241482720486629887091112 2842:1 #
1.0000000241482720486629887091112 34:0.5 50:0.5 142:0.5 2842:0.5 #
-1.0000000241482720486629887091112 2842:1 #
-1.0000000241482720486629887091112 195:0.44721359 2842:0.89442718 #
-1.0000000241482720486629887091112 50:1 #
-1.0000000241482720486629887091112 24:1 #
1.0000000241482720486629887091112 2842:1 #
1.0000000241482720486629887091112 225:0.5 446:0.5 1425:0.5 2842:0.5 #
-1.0000000241482720486629887091112 888:1 #
-0.52541425332118096847011656791437 10:0.37796447 210:0.37796447 446:0.37796447 680:0.37796447 690:0.37796447 837:0.37796447 954:0.37796447 #
-0.72159218908113853530039705219679 6:0.31622776 10:0.31622776 60:0.31622776 96:0.31622776 683:0.31622776 888:0.31622776 1429:0.31622776 1439:0.31622776 1592:0.31622776 2117:0.31622776 #
-0.060391764300004542598276913167865 862:0.57735026 1851:0.57735026 2283:0.57735026 #
1.0000000241482720486629887091112 279:0.70710677 2974:0.70710677 #
1.0000000241482720486629887091112 182:0.70710677 477:0.70710677 #
-1.0000000241482720486629887091112 37:0.17960531 248:0.17960531 279:0.89802653 474:0.17960531 642:0.17960531 885:0.17960531 1256:0.17960531 #
-0.10527252003814782654878001721954 223:0.37796447 239:0.37796447 279:0.37796447 519:0.37796447 671:0.37796447 1390:0.37796447 1498:0.37796447 #
-0.042354755073596206393915508670034 12:0.21821789 15:0.65465367 76:0.43643579 114:0.21821789 473:0.21821789 617:0.21821789 660:0.21821789 1954:0.21821789 2281:0.21821789 2797:0.21821789 #
-0.70224856103750421532083692000015 47:0.33333334 158:0.33333334 277:0.33333334 446:0.33333334 623:0.33333334 829:0.33333334 994:0.33333334 1284:0.33333334 2118:0.33333334 #
-0.58871012478617712471162803922198 93:0.5 277:0.5 474:0.5 830:0.5 #
1.0000000241482720486629887091112 2842:1 #
-1.0000000241482720486629887091112 2842:1 #
-0.73615341309924731127978247968713 165:0.57735026 243:0.57735026 2842:0.57735026 #
1.0000000241482720486629887091112 157:0.31622776 234:0.31622776 367:0.31622776 458:0.31622776 469:0.31622776 474:0.31622776 671:0.31622776 901:0.31622776 1421:0.31622776 1426:0.31622776 #
1.0000000241482720486629887091112 362:0.57735026 474:0.57735026 942:0.57735026 #
-1.0000000241482720486629887091112 117:0.57735026 474:0.57735026 1342:0.57735026 #
1.0000000241482720486629887091112 2842:1 #
0.55185505831968895140704489676864 1418:0.70710677 1452:0.70710677 #
-0.032130655530934561225908652204453 128:0.57735026 1426:0.57735026 2842:0.57735026 #
-1.0000000241482720486629887091112 1426:1 #
1.0000000241482720486629887091112 278:0.40824831 372:0.40824831 471:0.40824831 474:0.40824831 699:0.40824831 2842:0.40824831 #
1.0000000241482720486629887091112 222:0.57735026 910:0.57735026 1591:0.57735026 #
-1.0000000241482720486629887091112 474:1 #
-0.1680655466933743125146349939314 452:0.5 682:0.5 1389:0.5 2400:0.5 #
-0.052128896243279439215445592026299 67:0.44721359 142:0.44721359 207:0.44721359 474:0.44721359 2755:0.44721359 #
-0.10316324151606054426721925665333 37:0.57735026 1481:0.57735026 2705:0.57735026 #
0.64119135499738011407799831431475 370:0.57735026 1509:0.57735026 2966:0.57735026 #
1.0000000241482720486629887091112 370:0.70710677 2872:0.70710677 #
-0.17034339061436956641593098993326 20:0.40824831 55:0.40824831 150:0.40824831 370:0.40824831 1331:0.40824831 2493:0.40824831 #
-1.0000000241482720486629887091112 123:0.37796447 165:0.37796447 218:0.37796447 348:0.75592893 #
-1.0000000241482720486629887091112 30:0.35355338 33:0.35355338 77:0.35355338 114:0.35355338 137:0.35355338 446:0.35355338 470:0.35355338 520:0.35355338 #
-0.20250958413349418041349281338626 54:0.25819889 82:0.25819889 119:0.25819889 162:0.25819889 428:0.25819889 588:0.25819889 696:0.25819889 927:0.25819889 1188:0.25819889 1429:0.25819889 1798:0.25819889 2689:0.51639777 #
1.0000000241482720486629887091112 276:0.35355338 278:0.35355338 474:0.70710677 1456:0.35355338 2770:0.35355338 #
1.0000000241482720486629887091112 474:0.5 1430:0.5 1593:0.5 2842:0.5 #
-1.0000000241482720486629887091112 801:0.44721359 913:0.44721359 1593:0.44721359 2751:0.44721359 2842:0.44721359 #
-1.0000000241482720486629887091112 107:0.70710677 278:0.70710677 #
-1.0000000241482720486629887091112 2842:1 #
-0.2213278401690937924328750341374 15:0.17407766 24:0.17407766 33:0.17407766 60:0.17407766 114:0.17407766 118:0.52223295 153:0.17407766 158:0.17407766 177:0.17407766 215:0.17407766 637:0.17407766 641:0.34815532 932:0.17407766 939:0.17407766 1172:0.17407766 1265:0.34815532 2074:0.17407766 2296:0.17407766 2772:0.17407766 #
-1.0000000241482720486629887091112 54:0.35355338 347:0.35355338 1390:0.70710677 1416:0.35355338 1502:0.35355338 #
-0.20129454615614122969802224361047 1331:0.70710677 2337:0.70710677 #
-0.99842680104831016407729293860029 141:1 #
-1.0000000241482720486629887091112 178:0.40824831 352:0.40824831 656:0.40824831 682:0.40824831 1126:0.40824831 1430:0.40824831 #
-0.65601934996842548031281694420613 335:0.70710677 2753:0.70710677 #
-0.5547350157233468248563212910085 140:0.35355338 143:0.35355338 182:0.35355338 280:0.35355338 446:0.35355338 486:0.35355338 1499:0.35355338 2819:0.35355338 #
-0.19465373081451142756037597791874 307:0.57735026 634:0.57735026 2073:0.57735026 #
-0.11923550131915572336538389208727 671:0.57735026 1240:0.57735026 2842:0.57735026 #
-0.71508417975175708747315184155013 234:0.70710677 2842:0.70710677 #
1.0000000241482720486629887091112 65:0.57735026 710:0.57735026 1394:0.57735026 #
-0.42285405299825296054905265918933 65:1 #
-0.31916923544023639847111439848959 65:0.57735026 362:0.57735026 661:0.57735026 #
-0.63414927096926465566184560884722 1390:0.70710677 2130:0.70710677 #
-0.34339117898944976348118984788016 23:0.31622776 193:0.31622776 658:0.31622776 835:0.31622776 1209:0.31622776 1390:0.31622776 1466:0.31622776 1502:0.31622776 2645:0.31622776 2841:0.31622776 #
-1.0000000241482720486629887091112 60:0.57735026 188:0.57735026 1421:0.57735026 #
-1.0000000241482720486629887091112 611:0.70710677 1451:0.70710677 #
-0.44898179550538797055736495167366 2:0.70710677 45:0.70710677 #
-0.12479315481303915325028697225207 25:0.35355338 74:0.35355338 77:0.35355338 114:0.35355338 471:0.35355338 939:0.35355338 1199:0.35355338 1347:0.35355338 #
-0.14018899933425874038128711163154 24:0.40824831 475:0.40824831 528:0.40824831 1102:0.40824831 2558:0.40824831 2760:0.40824831 #
-0.57850447492540446603470627451316 162:0.70710677 1361:0.70710677 #
-0.015591958810330057774717893437355 68:0.70710677 189:0.70710677 #
1.0000000241482720486629887091112 176:0.5 1396:0.5 1430:0.5 2842:0.5 #
-0.85787080385822533923345645234804 61:0.37796447 215:0.37796447 682:0.37796447 807:0.37796447 1390:0.37796447 1589:0.37796447 1985:0.37796447 #
-0.54828040210774653395731093041832 15:0.37796447 76:0.37796447 466:0.37796447 517:0.37796447 617:0.37796447 660:0.37796447 2612:0.37796447 #
-0.6850603692077489315082061693829 299:1 #
1.0000000241482720486629887091112 53:0.70710677 2853:0.70710677 #
-1.0000000241482720486629887091112 53:0.40824831 176:0.40824831 191:0.40824831 674:0.40824831 1442:0.40824831 1452:0.40824831 #
-0.25001531080582561905600869067712 33:0.33333334 123:0.66666669 162:0.33333334 254:0.33333334 262:0.33333334 1424:0.33333334 #
1.0000000241482720486629887091112 1390:0.70710677 1424:0.70710677 #
-0.2498949724935898286659607947513 171:1 #
-0.77543365312239809217231822913163 123:0.35355338 233:0.35355338 617:0.35355338 655:0.35355338 1362:0.35355338 1424:0.35355338 1901:0.35355338 2784:0.35355338 #
1.0000000241482720486629887091112 1448:0.70710677 1593:0.70710677 #
1.0000000241482720486629887091112 370:0.70710677 2805:0.70710677 #
-0.19181487016074216800376461833366 9:0.5 1390:0.5 1485:0.5 2229:0.5 #
-0.71871938418705383355700178071856 15:0.66226619 244:0.13245323 350:0.13245323 371:0.13245323 469:0.13245323 640:0.52981293 655:0.13245323 979:0.13245323 1143:0.13245323 1310:0.13245323 1753:0.13245323 2004:0.13245323 2114:0.13245323 2484:0.13245323 2759:0.26490647 #
-0.054235894788918548314882173144724 412:1 #
-0.26496924033837282452807926347305 103:0.5 346:0.5 1390:0.5 1502:0.5 #
-0.022578786081637450267045608143235 370:0.53452247 437:0.26726124 474:0.26726124 566:0.26726124 630:0.26726124 694:0.26726124 1420:0.26726124 1474:0.26726124 1482:0.26726124 1615:0.26726124 2568:0.26726124 #
-0.65627461137967002535731353418669 115:0.5 665:0.5 1417:0.5 1448:0.5 #
-0.076146102239644547493568893514748 1093:0.70710677 1448:0.70710677 #
-0.54661484065103205232105665345443 23:0.5 166:0.5 241:0.5 980:0.5 #
1.0000000241482720486629887091112 2:1 #
1.0000000241482720486629887091112 6:0.57735026 195:0.57735026 348:0.57735026 #
1.0000000241482720486629887091112 6:0.70710677 348:0.70710677 #
-1.0000000241482720486629887091112 1591:1 #
1.0000000241482720486629887091112 101:0.57735026 117:0.57735026 889:0.57735026 #
1.0000000241482720486629887091112 23:0.40824831 347:0.40824831 655:0.40824831 668:0.40824831 682:0.40824831 688:0.40824831 #
1.0000000241482720486629887091112 346:1 #
1.0000000241482720486629887091112 15:0.70710677 462:0.70710677 #
-0.52932211798580897088584151788382 111:0.44721359 120:0.44721359 474:0.44721359 699:0.44721359 942:0.44721359 #
-1.0000000241482720486629887091112 349:0.40824831 471:0.40824831 474:0.40824831 674:0.40824831 1429:0.40824831 1497:0.40824831 #
-0.30518911926339536977437205678143 24:0.5 467:0.5 688:0.5 1448:0.5 #
1.0000000241482720486629887091112 5:0.70710677 38:0.70710677 #
1.0000000241482720486629887091112 92:1 #
1.0000000241482720486629887091112 663:0.70710677 1499:0.70710677 #
1.0000000241482720486629887091112 223:0.57735026 1416:0.57735026 1556:0.57735026 #
1.0000000241482720486629887091112 119:1 #
1.0000000241482720486629887091112 120:0.57735026 474:0.57735026 942:0.57735026 #
1.0000000241482720486629887091112 54:0.57735026 474:0.57735026 2755:0.57735026 #
1.0000000241482720486629887091112 17:0.40824831 24:0.40824831 467:0.40824831 912:0.40824831 922:0.40824831 1451:0.40824831 #
1.0000000241482720486629887091112 24:0.57735026 215:0.57735026 682:0.57735026 #
-0.82822476639416509058833071321715 682:0.5 1390:0.5 2380:0.5 2760:0.5 #
1.0000000241482720486629887091112 1429:1 #
1.0000000241482720486629887091112 9:0.19611613 18:0.39223227 51:0.19611613 108:0.19611613 114:0.19611613 140:0.19611613 158:0.19611613 188:0.19611613 474:0.39223227 617:0.19611613 638:0.19611613 646:0.19611613 662:0.19611613 670:0.19611613 959:0.19611613 978:0.19611613 1449:0.19611613 1583:0.19611613 2839:0.19611613 2840:0.19611613 #
1.0000000241482720486629887091112 280:0.70710677 924:0.70710677 #
1.0000000241482720486629887091112 25:0.30151135 47:0.30151135 54:0.30151135 140:0.30151135 239:0.30151135 449:0.30151135 635:0.30151135 708:0.30151135 886:0.30151135 1588:0.30151135 2842:0.30151135 #
1.0000000241482720486629887091112 5:0.25 25:0.5 46:0.5 140:0.25 348:0.25 654:0.25 655:0.25 1434:0.25 1485:0.25 2842:0.25 #
1.0000000241482720486629887091112 224:0.5 475:0.5 1428:0.5 2760:0.5 #
1.0000000241482720486629887091112 682:1 #
1.0000000241482720486629887091112 53:0.57735026 484:0.57735026 682:0.57735026 #
1.0000000241482720486629887091112 24:0.40824831 1474:0.40824831 2784:0.81649661 #
1.0000000241482720486629887091112 219:0.70710677 2842:0.70710677 #
1.0000000241482720486629887091112 1541:0.70710677 2842:0.70710677 #
1.0000000241482720486629887091112 941:0.70710677 2842:0.70710677 #
1.0000000241482720486629887091112 1401:0.70710677 2842:0.70710677 #
1.0000000241482720486629887091112 2:0.35355338 235:0.35355338 470:0.35355338 1594:0.35355338 2842:0.70710677 #
1.0000000241482720486629887091112 188:1 #
1.0000000241482720486629887091112 11:0.70710677 188:0.70710677 #
1.0000000241482720486629887091112 5:0.44721359 913:0.44721359 1430:0.44721359 1584:0.44721359 2842:0.44721359 #
1.0000000241482720486629887091112 141:1 #
1.0000000241482720486629887091112 118:0.57735026 177:0.57735026 637:0.57735026 #
1.0000000241482720486629887091112 6:0.40824831 141:0.40824831 166:0.40824831 474:0.40824831 476:0.40824831 1508:0.40824831 #
1.0000000241482720486629887091112 18:0.40824831 29:0.81649661 141:0.40824831 #
1.0000000241482720486629887091112 15:0.25 24:0.25 51:0.5 114:0.25 668:0.5 1420:0.25 1496:0.5 #
1.0000000241482720486629887091112 611:0.89442718 921:0.44721359 #
1.0000000241482720486629887091112 1466:0.57735026 1591:0.57735026 2980:0.57735026 #
1.0000000241482720486629887091112 7:0.31622776 60:0.31622776 66:0.31622776 69:0.31622776 911:0.31622776 1444:0.31622776 1500:0.31622776 2798:0.31622776 2899:0.31622776 2936:0.31622776 #
1.0000000241482720486629887091112 661:1 #
1.0000000241482720486629887091112 1500:1 #
-0.39612118728844919468556895481015 348:0.57735026 1275:0.57735026 1793:0.57735026 #
1.0000000241482720486629887091112 25:0.44721359 655:0.44721359 886:0.44721359 888:0.44721359 2869:0.44721359 #
1.0000000241482720486629887091112 178:1 #
1.0000000241482720486629887091112 6:0.5 61:0.5 117:0.5 951:0.5 #
1.0000000241482720486629887091112 16:1 #
1.0000000241482720486629887091112 114:0.5 123:0.5 373:0.5 1592:0.5 #
1.0000000241482720486629887091112 15:0.37796447 69:0.37796447 114:0.37796447 123:0.37796447 631:0.37796447 654:0.37796447 2777:0.37796447 #
1.0000000241482720486629887091112 54:0.57735026 105:0.57735026 166:0.57735026 #
1.0000000241482720486629887091112 654:0.70710677 665:0.70710677 #
-0.93395758595063060880647753947414 69:0.57735026 297:0.57735026 1448:0.57735026 #
-0.42358090885480248477534814810497 16:0.21821789 117:0.21821789 286:0.21821789 370:0.43643579 474:0.21821789 659:0.21821789 669:0.43643579 674:0.21821789 792:0.21821789 1231:0.21821789 1632:0.21821789 1924:0.21821789 2064:0.21821789 2304:0.21821789 2574:0.21821789 #
-1.0000000241482720486629887091112 2:0.70710677 654:0.70710677 #
-1.0000000241482720486629887091112 654:1 #
-1.0000000241482720486629887091112 54:0.70710677 470:0.70710677 #
-1.0000000241482720486629887091112 54:0.70710677 119:0.70710677 #
-0.26667207222348499051634007628309 165:0.35355338 243:0.35355338 584:0.35355338 638:0.35355338 1415:0.35355338 1593:0.35355338 1797:0.35355338 2138:0.35355338 #
1.0000000241482720486629887091112 666:1 #
1.0000000241482720486629887091112 18:0.57735026 348:0.57735026 2777:0.57735026 #
1.0000000241482720486629887091112 10:0.57735026 348:0.57735026 930:0.57735026 #
1.0000000241482720486629887091112 18:0.44721359 186:0.44721359 370:0.44721359 669:0.44721359 680:0.44721359 #
1.0000000241482720486629887091112 10:0.23570226 30:0.23570226 122:0.23570226 158:0.47140452 277:0.23570226 348:0.23570226 471:0.23570226 693:0.47140452 1559:0.47140452 #
-1.0000000241482720486629887091112 24:0.37796447 33:0.37796447 141:0.37796447 339:0.37796447 348:0.37796447 710:0.37796447 2770:0.37796447 #
1.0000000241482720486629887091112 6:0.37796447 25:0.37796447 54:0.37796447 917:0.37796447 936:0.37796447 1431:0.37796447 2943:0.37796447 #
-0.12499879926564387566667591045189 114:0.57735026 224:0.57735026 1205:0.57735026 #
-0.22530068199479419410735658857448 54:0.57735026 411:0.57735026 2632:0.57735026 #
-1.0000000241482720486629887091112 10:0.40824831 348:0.40824831 2842:0.81649661 #
-0.38888421720410487614216776819376 29:0.57735026 348:0.57735026 1844:0.57735026 #
-0.98697779030163357294469506086898 5:0.70710677 921:0.70710677 #
1.0000000241482720486629887091112 15:0.57735026 33:0.57735026 660:0.57735026 #
1.0000000241482720486629887091112 51:0.40824831 458:0.40824831 641:0.40824831 654:0.40824831 925:0.40824831 1452:0.40824831 #
1.0000000241482720486629887091112 120:0.44721359 654:0.44721359 887:0.44721359 919:0.44721359 1452:0.44721359 #
1.0000000241482720486629887091112 24:0.57735026 60:0.57735026 1426:0.57735026 #
1.0000000241482720486629887091112 615:0.5 887:0.5 1426:0.5 2929:0.5 #
-1.0000000241482720486629887091112 38:0.57735026 178:0.57735026 1452:0.57735026 #
-0.50878628885507626300466199609218 11:0.33333334 18:0.33333334 24:0.33333334 38:0.33333334 656:0.33333334 1091:0.33333334 1452:0.33333334 2491:0.33333334 2587:0.33333334 #
-1.0000000241482720486629887091112 18:0.35355338 25:0.35355338 60:0.35355338 488:0.35355338 654:0.35355338 656:0.35355338 922:0.35355338 949:0.35355338 #
-1.0000000241482720486629887091112 24:1 #
1.0000000241482720486629887091112 2:0.31622776 5:0.31622776 30:0.31622776 144:0.31622776 158:0.31622776 278:0.31622776 348:0.31622776 474:0.31622776 1390:0.31622776 2840:0.31622776 #
1.0000000241482720486629887091112 668:0.57735026 1448:0.57735026 2771:0.57735026 #
1.0000000241482720486629887091112 188:0.37796447 239:0.37796447 348:0.75592893 486:0.37796447 #
1.0000000241482720486629887091112 140:0.25819889 348:0.77459669 366:0.25819889 1420:0.25819889 2771:0.25819889 2775:0.25819889 2896:0.25819889 #
-1.0000000241482720486629887091112 46:0.70710677 348:0.70710677 #
-1.0000000241482720486629887091112 30:0.22941573 33:0.22941573 51:0.45883146 114:0.22941573 348:0.45883146 654:0.22941573 668:0.22941573 671:0.22941573 708:0.22941573 924:0.22941573 1424:0.22941573 2227:0.22941573 2846:0.22941573 #
-1.0000000241482720486629887091112 348:0.70710677 362:0.35355338 682:0.35355338 1419:0.35355338 1441:0.35355338 #
-1.0000000241482720486629887091112 668:1 #
-0.53538977511534746600574408148532 348:0.44721359 668:0.44721359 772:0.44721359 1327:0.44721359 2767:0.44721359 #
1.0000000241482720486629887091112 18:0.23570226 23:0.23570226 24:0.47140452 37:0.23570226 54:0.23570226 92:0.23570226 159:0.23570226 176:0.23570226 450:0.23570226 624:0.23570226 674:0.23570226 903:0.23570226 1442:0.23570226 1501:0.23570226 1571:0.23570226 #
1.0000000241482720486629887091112 25:0.44721359 663:0.44721359 921:0.44721359 1434:0.44721359 1518:0.44721359 #
1.0000000241482720486629887091112 18:0.40824831 29:0.40824831 669:0.40824831 1437:0.40824831 1508:0.40824831 1568:0.40824831 #
1.0000000241482720486629887091112 54:0.37796447 350:0.37796447 464:0.37796447 941:0.37796447 1445:0.37796447 2883:0.37796447 2954:0.37796447 #
1.0000000241482720486629887091112 444:0.70710677 622:0.70710677 #
-1.0000000241482720486629887091112 1508:1 #
-1.0000000241482720486629887091112 186:0.70710677 2777:0.70710677 #
-1.0000000241482720486629887091112 23:0.5 474:0.5 886:0.5 1500:0.5 #
-0.27969194553359216781629470460757 2:0.63245553 30:0.31622776 147:0.31622776 347:0.31622776 655:0.31622776 1508:0.31622776 2369:0.31622776 #
-1.0000000241482720486629887091112 458:0.5 680:0.5 698:0.5 2844:0.5 #
1.0000000241482720486629887091112 348:0.57735026 371:0.57735026 668:0.57735026 #
1.0000000241482720486629887091112 348:1 #
1.0000000241482720486629887091112 33:0.57735026 348:0.57735026 368:0.57735026 #
1.0000000241482720486629887091112 348:0.70710677 2951:0.70710677 #
1.0000000241482720486629887091112 114:0.5547002 162:0.2773501 283:0.2773501 348:0.5547002 1413:0.2773501 1441:0.2773501 2831:0.2773501 #
-1.0000000241482720486629887091112 141:0.70710677 348:0.70710677 #
-1.0000000241482720486629887091112 24:0.70710677 348:0.70710677 #
-0.00080938519805018316333189432043582 96:1 #
-0.64988928494103281874316735411412 348:0.57735026 682:0.57735026 1371:0.57735026 #
-1.0000000241482720486629887091112 143:0.44721359 348:0.44721359 933:0.44721359 951:0.44721359 2778:0.44721359 #
1.0000000241482720486629887091112 46:0.5 47:0.5 674:0.5 2847:0.5 #
1.0000000241482720486629887091112 51:0.57735026 349:0.57735026 459:0.57735026 #
1.0000000241482720486629887091112 51:0.44721359 69:0.44721359 297:0.44721359 668:0.44721359 2774:0.44721359 #
1.0000000241482720486629887091112 23:0.31622776 76:0.63245553 459:0.63245553 977:0.31622776 #
1.0000000241482720486629887091112 1419:0.75592893 1421:0.37796447 2889:0.37796447 2903:0.37796447 #
-1.0000000241482720486629887091112 47:0.70710677 941:0.70710677 #
-0.86678595596112661958443368348526 51:0.5 114:0.5 501:0.5 668:0.5 #
-1.0000000241482720486629887091112 18:0.37796447 104:0.37796447 202:0.37796447 349:0.37796447 466:0.37796447 1429:0.37796447 1593:0.37796447 #
-1.0000000241482720486629887091112 51:0.37796447 367:0.37796447 370:0.37796447 668:0.37796447 1592:0.37796447 2018:0.37796447 2779:0.37796447 #
-1.0000000241482720486629887091112 114:0.57735026 117:0.57735026 668:0.57735026 #
1.0000000241482720486629887091112 2:0.20851441 25:0.41702881 54:0.20851441 77:0.20851441 348:0.20851441 694:0.20851441 697:0.20851441 698:0.41702881 886:0.20851441 922:0.20851441 975:0.20851441 1500:0.20851441 2758:0.41702881 2778:0.20851441 #
1.0000000241482720486629887091112 24:0.40824831 345:0.40824831 348:0.40824831 353:0.40824831 442:0.40824831 2777:0.40824831 #
1.0000000241482720486629887091112 23:0.70710677 348:0.70710677 #
1.0000000241482720486629887091112 279:0.44721359 348:0.44721359 466:0.44721359 1429:0.44721359 2819:0.44721359 #
-0.70815124681816465912476132871234 61:1 #
-1.0000000241482720486629887091112 11:0.11250879 16:0.11250879 19:0.33752638 22:0.11250879 24:0.11250879 31:0.11250879 53:0.11250879 54:0.11250879 69:0.22501758 75:0.11250879 77:0.11250879 79:0.11250879 84:0.22501758 123:0.11250879 138:0.11250879 166:0.11250879 212:0.11250879 305:0.11250879 326:0.11250879 348:0.22501758 360:0.11250879 402:0.11250879 438:0.11250879 465:0.11250879 622:0.11250879 633:0.11250879 643:0.11250879 847:0.11250879 910:0.45003515 1141:0.11250879 1188:0.11250879 1267:0.11250879 1438:0.11250879 1468:0.11250879 2339:0.11250879 2565:0.11250879 2762:0.11250879 2764:0.33752638 2777:0.11250879 #
-1.0000000241482720486629887091112 8:0.37796447 54:0.37796447 221:0.37796447 348:0.37796447 1427:0.37796447 1450:0.37796447 2770:0.37796447 #
-0.33430477780311540492164112947648 23:0.40824831 25:0.40824831 140:0.40824831 348:0.40824831 635:0.40824831 2842:0.40824831 #
-0.94662146869201779786351380607812 23:0.57735026 188:0.57735026 372:0.57735026 #
1.0000000241482720486629887091112 488:0.57735026 668:0.57735026 1392:0.57735026 #
1.0000000241482720486629887091112 11:0.5 47:0.5 222:0.5 889:0.5 #
1.0000000241482720486629887091112 7:0.37796447 46:0.37796447 47:0.37796447 114:0.37796447 461:0.37796447 1524:0.37796447 2769:0.37796447 #
1.0000000241482720486629887091112 43:0.5 51:0.5 65:0.5 682:0.5 #
1.0000000241482720486629887091112 51:0.70710677 2779:0.70710677 #
1.0000000241482720486629887091112 899:0.57735026 2861:0.57735026 2977:0.57735026 #
-0.56080455937472040162106168281753 6:0.23570226 157:0.47140452 424:0.23570226 463:0.47140452 638:0.23570226 658:0.23570226 856:0.23570226 1278:0.23570226 1437:0.23570226 2127:0.23570226 2758:0.23570226 2769:0.23570226 #
-0.21054780309083515055235125146282 51:0.5 181:0.5 1253:0.5 2441:0.5 #
-1.0000000241482720486629887091112 46:0.70710677 47:0.70710677 #
-1.0000000241482720486629887091112 51:0.57735026 194:0.57735026 656:0.57735026 #
-0.7181335089782303615635328242206 46:0.70710677 620:0.70710677 #
-1.0000000241482720486629887091112 37:0.30151135 51:0.30151135 77:0.30151135 410:0.30151135 446:0.30151135 630:0.30151135 1012:0.30151135 1168:0.30151135 1588:0.30151135 2078:0.30151135 2777:0.30151135 #
-1.0000000241482720486629887091112 2:0.70710677 51:0.70710677 #
1.0000000241482720486629887091112 23:1 #
1.0000000241482720486629887091112 23:0.70710677 298:0.70710677 #
1.0000000241482720486629887091112 23:0.40824831 29:0.40824831 33:0.40824831 370:0.40824831 680:0.40824831 1415:0.40824831 #
1.0000000241482720486629887091112 18:0.31622776 25:0.31622776 60:0.63245553 87:0.31622776 475:0.31622776 1459:0.31622776 2842:0.31622776 #
-1.0000000241482720486629887091112 23:1 #
-0.21992543599100589091221991111524 23:0.5 25:0.5 218:0.5 476:0.5 #
-0.055581518687825307023508969450631 372:0.57735026 644:0.57735026 1595:0.57735026 #
-0.38762825474194839703301340705366 18:0.37796447 23:0.37796447 317:0.37796447 1453:0.37796447 1456:0.37796447 1593:0.37796447 2698:0.37796447 #
1.0000000241482720486629887091112 54:0.2236068 107:0.2236068 186:0.67082042 187:0.2236068 366:0.44721359 463:0.2236068 615:0.2236068 1532:0.2236068 1587:0.2236068 #
1.0000000241482720486629887091112 45:0.57735026 46:0.57735026 1563:0.57735026 #
1.0000000241482720486629887091112 5:0.28867513 122:0.28867513 140:0.28867513 158:0.28867513 241:0.28867513 348:0.28867513 474:0.28867513 1428:0.28867513 2824:0.57735026 #
1.0000000241482720486629887091112 447:0.70710677 1538:0.70710677 #
-0.93929515558174403455637957449653 298:0.57735026 1013:0.57735026 2847:0.57735026 #
-0.21367584443788423254062536216225 298:1 #
-0.22934394417487624640017429555883 45:0.5 413:0.5 942:0.5 1654:0.5 #
-0.51174970118576568189894260285655 6:0.20851441 24:0.20851441 25:0.20851441 29:0.20851441 94:0.20851441 162:0.20851441 166:0.20851441 287:0.20851441 348:0.20851441 370:0.20851441 527:0.20851441 754:0.41702881 778:0.41702881 887:0.41702881 #
-0.039981437787080964518793280149112 777:1 #
1.0000000241482720486629887091112 25:0.57735026 117:0.57735026 2761:0.57735026 #
1.0000000241482720486629887091112 59:0.5 84:0.5 92:0.25 232:0.25 469:0.25 475:0.25 675:0.25 689:0.25 1508:0.25 2750:0.25 #
1.0000000241482720486629887091112 2778:1 #
1.0000000241482720486629887091112 185:0.70710677 1592:0.70710677 #
-1.0000000241482720486629887091112 1592:1 #
-0.67644679292938569847848384597455 235:0.37796447 1434:0.37796447 1451:0.37796447 1592:0.37796447 1769:0.37796447 1889:0.37796447 2219:0.37796447 #
-1.0000000241482720486629887091112 92:1 #
-1.0000000241482720486629887091112 69:0.37796447 117:0.37796447 655:0.37796447 713:0.37796447 936:0.37796447 1590:0.37796447 2781:0.37796447 #
1.0000000241482720486629887091112 30:0.57735026 77:0.57735026 114:0.57735026 #
1.0000000241482720486629887091112 17:0.70710677 30:0.70710677 #
1.0000000241482720486629887091112 6:0.2773501 114:0.2773501 178:0.2773501 466:0.2773501 476:0.2773501 659:0.2773501 915:0.2773501 978:0.5547002 1486:0.2773501 1590:0.2773501 #
1.0000000241482720486629887091112 10:0.70710677 369:0.70710677 #
1.0000000241482720486629887091112 10:0.70710677 922:0.70710677 #
-1.0000000241482720486629887091112 114:0.57735026 237:0.57735026 2778:0.57735026 #
-1.0000000241482720486629887091112 466:1 #
-1.0000000241482720486629887091112 6:0.37796447 59:0.37796447 84:0.37796447 108:0.37796447 468:0.37796447 682:0.37796447 2778:0.37796447 #
-1.0000000241482720486629887091112 215:0.30151135 462:0.60302269 637:0.30151135 2778:0.60302269 2842:0.30151135 #
-0.25075585076451389898721799909254 391:1 #
1.0000000241482720486629887091112 350:0.5 1451:0.5 1452:0.5 1592:0.5 #
1.0000000241482720486629887091112 73:0.37796447 92:0.37796447 279:0.37796447 467:0.37796447 1424:0.37796447 1498:0.37796447 2912:0.37796447 #
1.0000000241482720486629887091112 647:0.5 1409:0.5 1590:0.5 1592:0.5 #
1.0000000241482720486629887091112 1451:1 #
1.0000000241482720486629887091112 51:0.2236068 77:0.2236068 84:0.2236068 107:0.2236068 117:0.2236068 235:0.2236068 1451:0.67082042 1518:0.2236068 2842:0.44721359 #
-1.0000000241482720486629887091112 176:0.70710677 1451:0.70710677 #
-0.68497236139376993513394609180978 1098:0.70710677 1451:0.70710677 #
-0.68475112111995251051865807312424 436:0.70710677 1451:0.70710677 #
-1.0000000241482720486629887091112 2:0.33333334 17:0.33333334 30:0.66666669 1421:0.33333334 1424:0.33333334 1500:0.33333334 #
-0.38154033104967588485578744439408 1451:0.5 1480:0.5 1898:0.5 2028:0.5 #
1.0000000241482720486629887091112 6:0.70710677 114:0.70710677 #
1.0000000241482720486629887091112 108:0.57735026 237:0.57735026 638:0.57735026 #
1.0000000241482720486629887091112 2769:0.70710677 2778:0.70710677 #
1.0000000241482720486629887091112 15:0.37796447 221:0.75592893 637:0.37796447 916:0.37796447 #
1.0000000241482720486629887091112 6:1 #
-1.0000000241482720486629887091112 6:0.70710677 475:0.70710677 #
-1.0000000241482720486629887091112 6:0.44721359 114:0.44721359 682:0.44721359 1452:0.44721359 1970:0.44721359 #
-0.13788894703144752296175568062608 47:0.70710677 144:0.70710677 #
-0.68212480544313802699463167300564 15:0.5 114:0.5 939:0.5 2406:0.5 #
-1.0000000241482720486629887091112 6:0.81649661 682:0.40824831 2842:0.40824831 #
1.0000000241482720486629887091112 640:0.70710677 1451:0.70710677 #
1.0000000241482720486629887091112 176:1 #
1.0000000241482720486629887091112 176:0.57735026 1555:0.57735026 2878:0.57735026 #
1.0000000241482720486629887091112 160:0.57735026 354:0.57735026 1439:0.57735026 #
-1.0000000241482720486629887091112 176:1 #
-1.0000000241482720486629887091112 23:1 #
-0.87736195005728956353152625524672 158:0.40824831 640:0.40824831 916:0.40824831 1434:0.40824831 1649:0.40824831 1852:0.40824831 #
-0.91331662723326956232483553321799 2:0.37796447 16:0.37796447 107:0.37796447 348:0.37796447 370:0.37796447 669:0.37796447 1471:0.37796447 #
1.0000000241482720486629887091112 6:0.70710677 946:0.70710677 #
1.0000000241482720486629887091112 6:0.35355338 18:0.35355338 23:0.35355338 348:0.35355338 485:0.35355338 1443:0.35355338 1503:0.35355338 2771:0.35355338 #
1.0000000241482720486629887091112 6:0.57735026 295:0.57735026 1570:0.57735026 #
-0.083113458914666288324113452290476 224:0.35355338 493:0.35355338 1150:0.70710677 2599:0.35355338 2748:0.35355338 #
-0.68990930752744583642765974218491 6:0.44721359 195:0.44721359 417:0.44721359 458:0.44721359 1503:0.44721359 #
-1.0000000241482720486629887091112 6:0.70710677 2842:0.70710677 #
-0.59753323383936141066641312136198 971:1 #
-0.12700667897240996984109528966655 6:0.44721359 219:0.44721359 302:0.44721359 491:0.44721359 985:0.44721359 #
1.0000000241482720486629887091112 137:0.70710677 890:0.70710677 #
1.0000000241482720486629887091112 114:0.44721359 117:0.44721359 473:0.44721359 644:0.44721359 2988:0.44721359 #
1.0000000241482720486629887091112 121:1 #
1.0000000241482720486629887091112 156:0.70710677 1406:0.70710677 #
-0.01691132383096234648167666136942 18:0.35355338 60:0.35355338 66:0.70710677 326:0.35355338 2763:0.35355338 #
-1.0000000241482720486629887091112 563:0.57735026 1428:0.57735026 2774:0.57735026 #
-0.034836548588842018714384352051638 77:0.21320072 88:0.21320072 181:0.21320072 203:0.42640144 586:0.42640144 667:0.21320072 759:0.21320072 808:0.21320072 818:0.21320072 856:0.21320072 977:0.21320072 1065:0.21320072 1206:0.21320072 1226:0.21320072 1290:0.21320072 1447:0.21320072 #
-1.0000000241482720486629887091112 2:0.24253562 17:0.24253562 117:0.24253562 121:0.24253562 276:0.24253562 281:0.24253562 366:0.48507124 429:0.24253562 606:0.24253562 910:0.24253562 1425:0.24253562 1594:0.24253562 1654:0.24253562 2778:0.24253562 #
-1.0000000241482720486629887091112 2774:1 #
1.0000000241482720486629887091112 458:0.57735026 1421:0.57735026 2987:0.57735026 #
1.0000000241482720486629887091112 6:0.5 1499:0.5 2846:0.5 2876:0.5 #
1.0000000241482720486629887091112 214:0.70710677 458:0.70710677 #
-1.0000000241482720486629887091112 369:0.57735026 458:0.57735026 2847:0.57735026 #
-0.82659780382469449921956083926489 26:0.44721359 278:0.44721359 458:0.44721359 467:0.44721359 1419:0.44721359 #
-0.27396682670748973009722249116749 15:0.18898223 25:0.18898223 51:0.18898223 69:0.18898223 76:0.18898223 82:0.18898223 189:0.18898223 219:0.18898223 809:0.56694669 1346:0.18898223 1439:0.56694669 2025:0.18898223 #
-0.82684833688604353341133901267312 438:0.44721359 458:0.44721359 1419:0.44721359 1424:0.44721359 2428:0.44721359 #
-0.78683987637674002169063669498428 1499:0.70710677 2288:0.70710677 #
1.0000000241482720486629887091112 352:0.70710677 681:0.70710677 #
1.0000000241482720486629887091112 32:0.57735026 117:0.57735026 195:0.57735026 #
1.0000000241482720486629887091112 195:0.5 226:0.5 446:0.5 2777:0.5 #
-1.0000000241482720486629887091112 195:0.5 208:0.5 887:0.5 2846:0.5 #
-1.0000000241482720486629887091112 117:1 #
-0.69608786673124867228068524127593 195:0.70710677 2539:0.70710677 #
1.0000000241482720486629887091112 30:0.5 61:0.5 1567:0.5 2847:0.5 #
1.0000000241482720486629887091112 18:0.24253562 23:0.24253562 37:0.24253562 39:0.24253562 84:0.24253562 346:0.24253562 348:0.24253562 682:0.24253562 1448:0.24253562 1468:0.24253562 1509:0.48507124 1533:0.24253562 1557:0.24253562 1572:0.24253562 #
1.0000000241482720486629887091112 165:1 #
1.0000000241482720486629887091112 236:0.57735026 475:0.57735026 2966:0.57735026 #
-0.55900083107861520126391496887663 190:0.70710677 644:0.70710677 #
-0.46767147753523241604511895275209 226:1 #
-0.25075255642973209857515826115559 735:0.70710677 1074:0.70710677 #
-1.0000000241482720486629887091112 348:0.31622776 613:0.94868332 #
-0.58285822529957564963609684127732 41:0.57735026 159:0.57735026 2777:0.57735026 #
1.0000000241482720486629887091112 101:0.37796447 933:0.37796447 1431:0.75592893 2751:0.37796447 #
1.0000000241482720486629887091112 10:0.25819889 25:0.25819889 54:0.25819889 277:0.25819889 618:0.51639777 705:0.25819889 1407:0.25819889 1566:0.51639777 2842:0.25819889 #
1.0000000241482720486629887091112 188:1 #
1.0000000241482720486629887091112 466:0.57735026 977:0.57735026 2990:0.57735026 #
-1.0000000241482720486629887091112 54:0.5 188:0.5 1589:0.5 2769:0.5 #
0.33311980402618679431014925285126 1:0.44721359 30:0.44721359 188:0.44721359 925:0.44721359 2841:0.44721359 #
-0.68581487717174038909462296942365 195:0.35355338 279:0.35355338 369:0.35355338 889:0.35355338 948:0.70710677 #
-0.9208858768637424585534745347104 39:0.70710677 188:0.70710677 #
-0.51546692706856001020554458591505 618:1 #
1.0000000241482720486629887091112 28:0.37796447 166:0.37796447 184:0.37796447 195:0.37796447 348:0.37796447 1398:0.37796447 2773:0.37796447 #
1.0000000241482720486629887091112 885:1 #
1.0000000241482720486629887091112 76:0.37796447 108:0.37796447 117:0.37796447 476:0.37796447 638:0.37796447 668:0.37796447 888:0.37796447 #
1.0000000241482720486629887091112 34:0.57735026 907:0.57735026 1588:0.57735026 #
-1.0000000241482720486629887091112 25:0.70710677 476:0.70710677 #
-0.37680887572372334659576154081151 24:0.57735026 1688:0.57735026 2760:0.57735026 #
-1.0000000241482720486629887091112 25:0.70710677 611:0.70710677 #
-0.29020491010167315248935437921318 25:0.35355338 54:0.35355338 104:0.35355338 348:0.35355338 888:0.35355338 1233:0.35355338 1949:0.35355338 2778:0.35355338 #
-0.29741453183677568627985010607517 219:0.44721359 461:0.44721359 675:0.44721359 956:0.44721359 1061:0.44721359 #
1.0000000241482720486629887091112 188:1 #
1.0000000241482720486629887091112 38:0.40824831 666:0.40824831 968:0.40824831 1452:0.40824831 1494:0.40824831 1589:0.40824831 #
1.0000000241482720486629887091112 145:0.44721359 1529:0.44721359 1533:0.44721359 2870:0.44721359 2931:0.44721359 #
1.0000000241482720486629887091112 217:0.70710677 2772:0.70710677 #
-0.45970693183771249579194773104973 184:0.44721359 375:0.44721359 680:0.44721359 1916:0.44721359 2157:0.44721359 #
-0.28646144243682503116588122793473 87:0.31622776 166:0.31622776 282:0.31622776 290:0.31622776 352:0.31622776 357:0.31622776 967:0.31622776 1123:0.31622776 1920:0.31622776 2102:0.31622776 #
-0.62476780978659585130685627518687 968:1 #
-0.46957546561405566487579221757187 231:0.70710677 2761:0.70710677 #
-0.96720360880212918885945327929221 24:0.17149858 60:0.34299716 123:0.17149858 184:0.68599433 185:0.17149858 188:0.34299716 367:0.17149858 373:0.17149858 469:0.17149858 641:0.17149858 927:0.17149858 2572:0.17149858 2597:0.17149858 #
1.0000000241482720486629887091112 25:0.57735026 50:0.57735026 2778:0.57735026 #
1.0000000241482720486629887091112 448:0.57735026 956:0.57735026 2986:0.57735026 #
1.0000000241482720486629887091112 25:0.35355338 117:0.35355338 1450:0.35355338 1532:0.35355338 2820:0.70710677 #
1.0000000241482720486629887091112 6:0.33333334 51:0.33333334 84:0.33333334 158:0.33333334 177:0.33333334 612:0.33333334 1451:0.33333334 1514:0.33333334 2970:0.33333334 #
-0.64334058793360948680373212482664 21:0.37796447 68:0.37796447 117:0.37796447 638:0.37796447 2057:0.37796447 2779:0.37796447 2820:0.37796447 #
-0.85333647745252583227681952848798 125:0.5 276:0.5 473:0.5 474:0.5 #
-1.0000000241482720486629887091112 275:0.44721359 955:0.44721359 1452:0.44721359 2778:0.44721359 2841:0.44721359 #
-0.22273693046139875217903636439587 241:0.70710677 541:0.70710677 #
-0.42258601979461729580833662112127 25:0.57735026 68:0.57735026 625:0.57735026 #
0.6316214615735408210994705768826 3:0.57735026 1411:0.57735026 1497:0.57735026 #
1.0000000241482720486629887091112 346:1 #
1.0000000241482720486629887091112 460:0.44721359 1493:0.89442718 #
1.0000000241482720486629887091112 1417:1 #
1.0000000241482720486629887091112 24:0.37796447 74:0.37796447 368:0.37796447 463:0.37796447 672:0.37796447 1513:0.37796447 2857:0.37796447 #
-0.39036182213376741101384936882823 50:0.35355338 191:0.35355338 346:0.35355338 1417:0.35355338 1432:0.35355338 1436:0.35355338 1590:0.35355338 1704:0.35355338 #
-0.61318885286819668767321900304523 24:0.16666667 54:0.16666667 138:0.16666667 251:0.16666667 346:0.66666669 359:0.16666667 459:0.16666667 642:0.33333334 663:0.16666667 682:0.16666667 919:0.16666667 974:0.16666667 979:0.16666667 1143:0.16666667 1238:0.16666667 1457:0.16666667 1997:0.16666667 2100:0.16666667 #
-0.25073415903323903464183786127251 2185:1 #
-1.0000000241482720486629887091112 24:0.21320072 29:0.21320072 33:0.21320072 42:0.21320072 83:0.21320072 111:0.42640144 143:0.21320072 278:0.21320072 348:0.42640144 756:0.21320072 1375:0.21320072 1417:0.21320072 1453:0.21320072 1829:0.21320072 2761:0.21320072 2771:0.21320072 #
-0.58376880935629948954357359980349 672:1 #
1.0000000241482720486629887091112 955:0.70710677 2777:0.70710677 #
1.0000000241482720486629887091112 101:0.57735026 1419:0.57735026 1452:0.57735026 #
1.0000000241482720486629887091112 51:0.26726124 220:0.26726124 225:0.26726124 351:0.26726124 640:0.26726124 1426:0.26726124 1470:0.26726124 2759:0.26726124 2800:0.26726124 2802:0.53452247 2983:0.26726124 #
1.0000000241482720486629887091112 51:0.70710677 914:0.70710677 #
-1.0000000241482720486629887091112 914:1 #
-0.39014823155689926093003805362969 101:0.35355338 243:0.35355338 638:0.35355338 1058:0.35355338 1588:0.35355338 2247:0.35355338 2674:0.35355338 2777:0.35355338 #
-0.91504374683365596876427616734873 45:0.21821789 51:0.43643579 152:0.21821789 184:0.21821789 185:0.21821789 351:0.21821789 358:0.21821789 659:0.21821789 668:0.43643579 938:0.21821789 1496:0.21821789 1592:0.21821789 2048:0.21821789 2092:0.21821789 2165:0.21821789 #
-0.76040756905858220005001157915103 117:0.23570226 166:0.23570226 175:0.47140452 188:0.23570226 475:0.23570226 534:0.23570226 777:0.23570226 1451:0.23570226 1494:0.23570226 1992:0.23570226 2295:0.23570226 2777:0.47140452 #
1.0000000241482720486629887091112 1432:0.70710677 2959:0.70710677 #
1.0000000241482720486629887091112 191:0.57735026 926:0.57735026 969:0.57735026 #
1.0000000241482720486629887091112 348:0.33333334 1427:0.66666669 1590:0.66666669 #
1.0000000241482720486629887091112 60:0.37796447 77:0.37796447 1403:0.37796447 1435:0.37796447 2780:0.37796447 2846:0.37796447 2939:0.37796447 #
1.0000000241482720486629887091112 658:0.70710677 2911:0.70710677 #
-0.19118862590980756355207859087386 926:1 #
-1.0000000241482720486629887091112 76:0.25819889 205:0.25819889 228:0.25819889 279:0.25819889 621:0.25819889 751:0.25819889 969:0.25819889 1081:0.25819889 1593:0.51639777 1817:0.25819889 2772:0.25819889 2842:0.25819889 #
0.14154851027010914576997890890198 648:0.57735026 894:0.57735026 2890:0.57735026 #
-0.097529682662012409655183375889465 291:0.28867513 312:0.28867513 350:0.28867513 364:0.28867513 409:0.28867513 463:0.28867513 596:0.28867513 656:0.28867513 1229:0.28867513 1427:0.28867513 1495:0.28867513 2791:0.28867513 #
1.0000000241482720486629887091112 638:0.70710677 2975:0.70710677 #
1.0000000241482720486629887091112 18:0.25819889 68:0.25819889 69:0.25819889 185:0.25819889 188:0.51639777 470:0.25819889 473:0.25819889 680:0.25819889 1424:0.25819889 1451:0.25819889 1587:0.25819889 2778:0.25819889 #
1.0000000241482720486629887091112 6:0.2 54:0.2 117:0.2 140:0.2 166:0.2 234:0.2 473:0.2 475:0.2 633:0.2 644:0.2 658:0.2 660:0.2 691:0.2 929:0.2 1428:0.2 1429:0.2 2812:0.60000002 #
1.0000000241482720486629887091112 15:0.33333334 17:0.33333334 18:0.33333334 30:0.33333334 45:0.33333334 114:0.33333334 1524:0.33333334 2778:0.33333334 2842:0.33333334 #
1.0000000241482720486629887091112 5:0.2236068 23:0.2236068 33:0.2236068 42:0.2236068 68:0.2236068 101:0.2236068 166:0.2236068 188:0.2236068 285:0.67082042 348:0.2236068 709:0.2236068 1440:0.2236068 #
-0.60565801453410339494354275302612 636:0.70710677 644:0.70710677 #
-0.36465107139238733813257908877858 644:0.57735026 1458:0.57735026 2846:0.57735026 #
-1.0000000241482720486629887091112 145:0.70710677 1424:0.70710677 #
-0.20732033308942657279239085710287 409:0.70710677 2841:0.70710677 #
-0.33840178727181191575823504535947 15:0.35355338 54:0.35355338 77:0.35355338 100:0.35355338 296:0.35355338 680:0.35355338 1617:0.35355338 2772:0.35355338 #
1.0000000241482720486629887091112 50:0.57735026 926:0.57735026 1399:0.57735026 #
1.0000000241482720486629887091112 228:1 #
1.0000000241482720486629887091112 2791:0.70710677 2937:0.70710677 #
1.0000000241482720486629887091112 69:0.57735026 681:0.57735026 895:0.57735026 #
-0.29604265398948559351310905185528 228:1 #
-0.74553209161720446207510804015328 228:0.44721359 473:0.44721359 1428:0.44721359 1689:0.44721359 2052:0.44721359 #
-0.86090950393064957779643009416759 2791:1 #
-0.22770299985368253059547782868322 37:0.57735026 65:0.57735026 1451:0.57735026 #
-0.21605530105600728729697834751278 526:0.70710677 2188:0.70710677 #
1.0000000241482720486629887091112 676:0.70710677 916:0.70710677 #
1.0000000241482720486629887091112 77:0.66666669 92:0.33333334 644:0.33333334 659:0.33333334 682:0.33333334 1478:0.33333334 #
1.0000000241482720486629887091112 39:0.5 348:0.5 2777:0.5 2977:0.5 #
1.0000000241482720486629887091112 488:0.57735026 914:0.57735026 1396:0.57735026 #
1.0000000241482720486629887091112 15:0.70710677 1512:0.70710677 #
1.0000000241482720486629887091112 120:0.57735026 469:0.57735026 1428:0.57735026 #
-0.47067016764080027435568354121642 469:0.40824831 660:0.40824831 939:0.40824831 1197:0.40824831 1355:0.40824831 2204:0.40824831 #
-1.0000000241482720486629887091112 6:0.44721359 160:0.44721359 682:0.44721359 889:0.44721359 941:0.44721359 #
-0.34065905306384886008785883859673 69:0.44721359 189:0.44721359 469:0.44721359 1429:0.44721359 1765:0.44721359 #
-1.0000000241482720486629887091112 1429:0.70710677 2813:0.70710677 #
-0.11192960178472255439174887214904 350:0.5 943:0.5 1329:0.5 1792:0.5 #
1.0000000241482720486629887091112 966:0.70710677 2920:0.70710677 #
1.0000000241482720486629887091112 102:1 #
1.0000000241482720486629887091112 2837:1 #
1.0000000241482720486629887091112 2884:1 #
1.0000000241482720486629887091112 905:1 #
-1.0000000241482720486629887091112 102:0.57735026 1505:0.57735026 1589:0.57735026 #
-0.076788720469369839416451384295215 102:0.57735026 1505:0.57735026 2478:0.57735026 #
-0.25082439170140158335442492898437 1178:1 #
-0.75043790465551329926796597646899 10:0.31622776 24:0.31622776 188:0.31622776 348:0.31622776 966:0.31622776 1174:0.31622776 1326:0.31622776 1594:0.31622776 2698:0.31622776 2793:0.31622776 #
-1.0000000241482720486629887091112 22:0.35355338 102:0.35355338 176:0.35355338 983:0.35355338 1442:0.35355338 1509:0.35355338 1603:0.35355338 2076:0.35355338 #
1.0000000241482720486629887091112 240:0.57735026 923:0.57735026 1429:0.57735026 #
1.0000000241482720486629887091112 6:0.37796447 469:0.37796447 473:0.37796447 2756:0.75592893 #
1.0000000241482720486629887091112 37:0.57735026 614:0.57735026 1428:0.57735026 #
1.0000000241482720486629887091112 51:0.33333334 117:0.33333334 234:0.33333334 464:0.33333334 1424:0.33333334 1429:0.33333334 2771:0.33333334 2808:0.33333334 2842:0.33333334 #
-0.9386219751422195667345249603386 295:0.5 990:0.5 1321:0.5 1424:0.5 #
-0.77080195621009539586054870596854 10:0.33333334 272:0.33333334 465:0.33333334 470:0.33333334 614:0.33333334 1002:0.33333334 1587:0.33333334 2803:0.33333334 2847:0.33333334 #
-0.61291773297772078610279322674614 30:0.44721359 286:0.44721359 1424:0.44721359 1878:0.44721359 2561:0.44721359 #
-1.0000000241482720486629887091112 351:0.70710677 1428:0.70710677 #
1.0000000241482720486629887091112 1414:1 #
1.0000000241482720486629887091112 2940:1 #
1.0000000241482720486629887091112 935:1 #
1.0000000241482720486629887091112 1404:1 #
-0.31323013932020798977262643347785 959:0.70710677 1432:0.70710677 #
-0.61656017116423733614993807350402 638:0.70710677 740:0.70710677 #
-0.64051934542078159395828151900787 178:1 #
-0.25091559578341926517452975531342 2609:1 #
1.0000000241482720486629887091112 10:0.70710677 1552:0.70710677 #
1.0000000241482720486629887091112 10:0.57735026 894:0.57735026 2946:0.57735026 #
1.0000000241482720486629887091112 18:0.37796447 51:0.37796447 114:0.37796447 351:0.37796447 465:0.37796447 1428:0.37796447 1506:0.37796447 #
-1.0000000241482720486629887091112 114:1 #
-0.35389903500027136695749163664004 114:0.57735026 337:0.57735026 1433:0.57735026 #
1.0000000241482720486629887091112 673:0.44721359 927:0.44721359 2790:0.44721359 2829:0.44721359 2847:0.44721359 #
1.0000000241482720486629887091112 6:0.40824831 639:0.40824831 669:0.40824831 678:0.40824831 682:0.40824831 2903:0.40824831 #
1.0000000241482720486629887091112 679:1 #
1.0000000241482720486629887091112 1521:1 #
1.0000000241482720486629887091112 2811:1 #
-0.68590236155531658646111736743478 658:0.57735026 1260:0.57735026 1809:0.57735026 #
-1.0000000241482720486629887091112 92:1 #
-0.1662042839924738057977293692602 6:0.70710677 2352:0.70710677 #
-0.62898745240640396847453530426719 61:0.70710677 1443:0.70710677 #
-1.0000000241482720486629887091112 18:0.16012815 47:0.16012815 60:0.16012815 186:0.16012815 379:0.16012815 461:0.32025629 470:0.16012815 490:0.16012815 584:0.32025629 654:0.16012815 665:0.16012815 669:0.32025629 810:0.16012815 888:0.16012815 1227:0.16012815 1475:0.48038447 1508:0.32025629 2755:0.16012815 2839:0.16012815 #
1.0000000241482720486629887091112 114:0.44721359 657:0.44721359 1417:0.44721359 1531:0.44721359 2771:0.44721359 #
1.0000000241482720486629887091112 114:0.25819889 188:0.51639777 348:0.51639777 459:0.25819889 668:0.51639777 2885:0.25819889 #
1.0000000241482720486629887091112 16:0.35355338 25:0.35355338 117:0.35355338 348:0.35355338 462:0.35355338 640:0.35355338 2778:0.35355338 2941:0.35355338 #
1.0000000241482720486629887091112 158:0.40824831 362:0.40824831 371:0.40824831 668:0.40824831 1583:0.40824831 2917:0.40824831 #
-0.33549690715042862487749175670615 51:0.37796447 114:0.37796447 219:0.37796447 268:0.37796447 1592:0.37796447 2423:0.37796447 2842:0.37796447 #
-1.0000000241482720486629887091112 16:0.37796447 348:0.37796447 474:0.37796447 506:0.37796447 713:0.37796447 1483:0.37796447 2778:0.37796447 #
-1.0000000241482720486629887091112 11:0.37796447 24:0.37796447 677:0.37796447 914:0.37796447 1469:0.37796447 1498:0.37796447 2771:0.37796447 #
1.0000000241482720486629887091112 1477:1 #
1.0000000241482720486629887091112 2879:1 #
1.0000000241482720486629887091112 1447:1 #
1.0000000241482720486629887091112 2765:1 #
1.0000000241482720486629887091112 891:1 #
-1.0000000241482720486629887091112 1477:1 #
-0.22607568713919970471160070246697 832:0.70710677 1477:0.70710677 #
-0.41723525675205508367326956431498 209:0.57735026 1447:0.57735026 1461:0.57735026 #
-0.16792304183228873304400963206717 123:0.44721359 640:0.44721359 747:0.44721359 916:0.44721359 1932:0.44721359 #
-0.80952319226463742563026926291059 76:0.35355338 284:0.35355338 312:0.35355338 463:0.35355338 589:0.35355338 640:0.35355338 654:0.35355338 2765:0.35355338 #
1.0000000241482720486629887091112 1469:1 #
1.0000000241482720486629887091112 118:0.31622776 348:0.31622776 352:0.31622776 470:0.31622776 474:0.31622776 488:0.31622776 638:0.31622776 919:0.31622776 1452:0.31622776 1590:0.31622776 #
1.0000000241482720486629887091112 346:0.40824831 474:0.40824831 696:0.40824831 1395:0.40824831 2939:0.40824831 2957:0.40824831 #
1.0000000241482720486629887091112 166:0.40824831 276:0.40824831 474:0.40824831 681:0.40824831 889:0.40824831 1536:0.40824831 #
1.0000000241482720486629887091112 348:0.40824831 667:0.40824831 932:0.40824831 934:0.40824831 1475:0.40824831 1565:0.40824831 #
-0.4964339461703602407460778067616 27:0.37796447 29:0.37796447 158:0.37796447 166:0.37796447 348:0.37796447 721:0.37796447 1035:0.37796447 #
-0.6730817736435092957236747679417 252:0.25 348:0.5 372:0.25 376:0.25 712:0.25 920:0.5 921:0.25 1475:0.25 2753:0.25 2846:0.25 #
1.0000000241482720486629887091112 51:0.5 217:0.5 348:0.5 1411:0.5 #
-0.17611712819015645781206558240228 1124:1 #
-0.75464769890895588844159647123888 15:0.2773501 18:0.2773501 86:0.2773501 119:0.2773501 311:0.2773501 370:0.2773501 373:0.5547002 605:0.2773501 656:0.2773501 1590:0.2773501 #
1.0000000241482720486629887091112 76:0.70710677 1423:0.70710677 #
1.0000000241482720486629887091112 1547:0.70710677 2854:0.70710677 #
1.0000000241482720486629887091112 2919:1 #
1.0000000241482720486629887091112 2948:1 #
-1.0000000241482720486629887091112 670:1 #
-0.2259954197032056910643404989969 407:0.37796447 473:0.37796447 670:0.37796447 715:0.37796447 774:0.37796447 1341:0.37796447 2780:0.37796447 #
-0.57009108756362980585663535748608 2790:1 #
-0.16803089948217053706258639067528 930:0.5 1034:0.5 1652:0.5 2516:0.5 #
-0.98480280803608100104185041345772 1469:0.70710677 1591:0.70710677 #
1.0000000241482720486629887091112 920:1 #
1.0000000241482720486629887091112 17:0.31622776 54:0.31622776 61:0.31622776 116:0.31622776 158:0.31622776 348:0.31622776 926:0.31622776 934:0.31622776 1420:0.31622776 2840:0.31622776 #
1.0000000241482720486629887091112 11:0.40824831 18:0.40824831 166:0.40824831 1398:0.40824831 2882:0.40824831 2914:0.40824831 #
1.0000000241482720486629887091112 10:0.2773501 11:0.2773501 15:0.2773501 108:0.2773501 347:0.2773501 348:0.2773501 469:0.2773501 671:0.2773501 675:0.2773501 677:0.2773501 938:0.2773501 1420:0.2773501 1489:0.2773501 #
-0.062821876971028894898196881513286 215:0.5 425:0.5 628:0.5 2307:0.5 #
-0.87288312520446753595138034143019 1420:1 #
-1.0000000241482720486629887091112 11:0.5 1266:0.5 1422:0.5 2046:0.5 #
-0.32414634378758377941665003163507 355:0.57735026 920:0.57735026 2760:0.57735026 #
-0.027306067985105819673208316089585 95:1 #
1.0000000241482720486629887091112 2825:1 #
1.0000000241482720486629887091112 238:1 #
1.0000000241482720486629887091112 2789:1 #
1.0000000241482720486629887091112 1397:1 #
1.0000000241482720486629887091112 1402:1 #
-0.47965857533741984575215155928163 253:0.57735026 848:0.57735026 2825:0.57735026 #
-0.32250866324000759810530780669069 18:0.40824831 54:0.40824831 261:0.40824831 661:0.40824831 2749:0.40824831 2826:0.40824831 #
-0.81009327502324335323891091320547 922:0.70710677 2524:0.70710677 #
-0.81463007813804322321260542594246 911:1 #
-0.47436065725246423507854842682718 2821:1 #
1.0000000241482720486629887091112 224:0.70710677 1422:0.70710677 #
1.0000000241482720486629887091112 83:0.57735026 1545:0.57735026 2760:0.57735026 #
1.0000000241482720486629887091112 440:0.44721359 1561:0.89442718 #
1.0000000241482720486629887091112 898:1 #
1.0000000241482720486629887091112 2886:1 #
-0.93264397311130664558476155434619 828:0.35355338 862:0.35355338 936:0.35355338 1504:0.70710677 2431:0.35355338 #
-0.55832578060285908971849266890786 75:0.33333334 291:0.33333334 469:0.66666669 673:0.33333334 1428:0.33333334 1495:0.33333334 #
-0.1694873933354216488655907824068 187:0.5 787:0.5 1480:0.5 2255:0.5 #
-0.6378378374241231441033050941769 77:0.60000002 114:0.2 464:0.2 469:0.2 471:0.2 654:0.2 668:0.2 669:0.2 672:0.2 939:0.2 1333:0.2 1427:0.2 1486:0.2 1736:0.2 2001:0.2 2058:0.2 2817:0.2 #
-0.0034820349788145291657082136538293 283:0.70710677 2156:0.70710677 #
1.0000000241482720486629887091112 18:0.23570226 114:0.23570226 123:0.23570226 140:0.23570226 222:0.23570226 348:0.23570226 669:0.23570226 682:0.23570226 910:0.23570226 922:0.23570226 1497:0.23570226 1534:0.47140452 2776:0.23570226 2778:0.23570226 2803:0.23570226 #
1.0000000241482720486629887091112 2890:1 #
1.0000000241482720486629887091112 1412:0.70710677 1534:0.70710677 #
1.0000000241482720486629887091112 1551:1 #
-1.0000000241482720486629887091112 118:0.40824831 177:0.40824831 348:0.40824831 1427:0.40824831 2772:0.40824831 2778:0.40824831 #
-0.11896461077723874399936221379903 46:0.35355338 57:0.35355338 348:0.35355338 470:0.70710677 2693:0.35355338 #
-0.865768796831189235696513151197 105:0.33333334 663:0.33333334 682:0.33333334 977:0.33333334 2013:0.33333334 2758:0.66666669 #
1.0000000241482720486629887091112 195:0.5 296:0.5 345:0.5 1427:0.5 #
1.0000000241482720486629887091112 77:0.40824831 107:0.40824831 1424:0.81649661 #
1.0000000241482720486629887091112 1523:1 #
-0.4977860140165978886095388133981 48:0.44721359 185:0.44721359 244:0.44721359 1359:0.44721359 2797:0.44721359 #
-0.61394332782379668067562761279987 187:0.44721359 638:0.44721359 1384:0.44721359 1636:0.44721359 2842:0.44721359 #
-0.61732197760970242139677566228784 637:0.44721359 679:0.44721359 708:0.44721359 1592:0.44721359 2247:0.44721359 #
-0.59997026018756383081154126557522 678:0.70710677 2417:0.70710677 #
-0.49497074810712532455525547447905 465:0.70710677 795:0.70710677 #
1.0000000241482720486629887091112 117:0.44721359 348:0.44721359 915:0.44721359 977:0.44721359 1491:0.44721359 #
1.0000000241482720486629887091112 2894:1 #
1.0000000241482720486629887091112 482:0.70710677 2933:0.70710677 #
1.0000000241482720486629887091112 2895:0.70710677 2926:0.70710677 #
-0.30180537862199952048314344210667 1429:0.57735026 2625:0.57735026 2751:0.57735026 #
-0.17854232659546551142959458502446 1659:0.57735026 2100:0.57735026 2224:0.57735026 #
-0.26899716805440215816602744780539 195:0.31622776 1700:0.63245553 2136:0.63245553 2238:0.31622776 #
-0.16703471536334080216334996293881 133:0.70710677 2310:0.70710677 #
1.0000000241482720486629887091112 637:0.44721359 673:0.89442718 #
1.0000000241482720486629887091112 2979:1 #
1.0000000241482720486629887091112 2874:1 #
1.0000000241482720486629887091112 1522:1 #
1.0000000241482720486629887091112 441:1 #
-0.035093952614326837102787237654411 419:0.70710677 673:0.70710677 #
-0.41921624523437783782497945139767 673:0.70710677 931:0.70710677 #
-1.0000000241482720486629887091112 637:1 #
-0.21900133444421687745062854446587 1616:1 #
1.0000000241482720486629887091112 651:0.70710677 908:0.70710677 #
1.0000000241482720486629887091112 2969:1 #
1.0000000241482720486629887091112 2868:1 #
1.0000000241482720486629887091112 1586:1 #
1.0000000241482720486629887091112 649:1 #
-0.6765668490860947681397874475806 662:0.57735026 1419:0.57735026 1727:0.57735026 #
-1.0000000241482720486629887091112 508:0.70710677 1425:0.70710677 #
-0.75799110792220825150167229367071 1424:0.70710677 1785:0.70710677 #
-0.43350359289853307442896834800194 84:0.70710677 2055:0.70710677 #
1.0000000241482720486629887091112 2994:1 #
1.0000000241482720486629887091112 2850:1 #
1.0000000241482720486629887091112 2935:1 #
-0.1792000228754435098288411154499 136:0.70710677 300:0.70710677 #
-0.5749119424078455997673131605552 186:0.70710677 1986:0.70710677 #
-0.14081744790945835421602794212959 218:0.70710677 978:0.70710677 #
-0.31330664128232377230176552984631 1445:1 #
1.0000000241482720486629887091112 59:0.35355338 84:0.35355338 136:0.35355338 348:0.35355338 360:0.35355338 654:0.35355338 2771:0.35355338 2830:0.35355338 #
1.0000000241482720486629887091112 1527:0.70710677 1530:0.70710677 #
1.0000000241482720486629887091112 120:0.5 195:0.5 1419:0.5 1443:0.5 #
1.0000000241482720486629887091112 659:1 #
-0.35310601403414165755378917310736 663:1 #
-0.25097895042840456802935023006285 1328:1 #
-0.51538958734446904674797451662016 109:0.57735026 1443:0.57735026 2497:0.57735026 #
-1.0000000241482720486629887091112 195:0.5 215:0.5 1508:0.5 2036:0.5 #
1.0000000241482720486629887091112 186:1 #
1.0000000241482720486629887091112 18:0.44721359 186:0.44721359 679:0.44721359 2842:0.44721359 2909:0.44721359 #
1.0000000241482720486629887091112 924:0.70710677 1580:0.70710677 #
1.0000000241482720486629887091112 924:0.70710677 2918:0.70710677 #
-0.86619134981437650999680499808164 278:0.57735026 924:0.57735026 1696:0.57735026 #
-0.049625809602214486504490054130656 208:0.70710677 924:0.70710677 #
-0.53058307404245064198278214462334 6:0.57735026 146:0.57735026 2842:0.57735026 #
0.71419730257357016967034724075347 4:0.5 124:0.5 637:0.5 1547:0.5 #
1.0000000241482720486629887091112 51:0.5 158:0.5 1433:0.5 1592:0.5 #
1.0000000241482720486629887091112 158:0.70710677 463:0.70710677 #
1.0000000241482720486629887091112 922:0.37796447 1568:0.37796447 2955:0.37796447 2964:0.75592893 #
1.0000000241482720486629887091112 225:0.5 612:0.5 638:0.5 1581:0.5 #
-0.83372496353637615129628102295101 612:1 #
-0.2194743405072331621230574683068 522:0.70710677 1224:0.70710677 #
-0.64092353737729568230463428335497 54:0.5 186:0.5 644:0.5 2015:0.5 #
-0.59679179947393024008306383620948 295:0.44721359 540:0.44721359 1216:0.44721359 2490:0.44721359 2842:0.44721359 #
-0.20760684361313919144009787487448 60:0.33333334 222:0.33333334 404:0.33333334 611:0.33333334 630:0.33333334 757:0.33333334 1298:0.33333334 2759:0.33333334 2842:0.33333334 #
-0.16437607291870373615871869787952 418:0.57735026 697:0.57735026 1501:0.57735026 #
-0.3516587457356534218710919503792 680:0.35355338 875:0.35355338 2207:0.35355338 2421:0.70710677 2720:0.35355338 #
-0.71590851818814227325304955229512 223:1 #
1.0000000241482720486629887091112 33:0.33333334 143:0.33333334 277:0.33333334 348:0.33333334 924:0.33333334 1535:0.33333334 1577:0.33333334 2866:0.33333334 2892:0.33333334 #
1.0000000241482720486629887091112 467:1 #
1.0000000241482720486629887091112 1:0.37796447 192:0.37796447 349:0.75592893 2927:0.37796447 #
-0.16483019655911768097666936228052 224:1 #
-0.29878754645519067789649625410675 23:0.40824831 38:0.40824831 280:0.40824831 1452:0.40824831 1592:0.40824831 2273:0.40824831 #
-0.17200026692394024263599305868411 63:0.37796447 127:0.37796447 458:0.37796447 467:0.37796447 718:0.37796447 938:0.37796447 974:0.37796447 #
1.0000000241482720486629887091112 156:0.57735026 445:0.57735026 2781:0.57735026 #
1.0000000241482720486629887091112 456:0.44721359 1571:0.89442718 #
0.61899929955265542425024705153191 1571:1 #
1.0000000241482720486629887091112 2970:0.70710677 2996:0.70710677 #
-0.72303200061148764632434904342517 693:1 #
-0.57072835893023154962833132231026 665:0.70710677 1073:0.70710677 #
-0.37971534176583987552078269800404 103:0.5 826:0.5 1684:0.5 2784:0.5 #
1.0000000241482720486629887091112 348:0.57735026 458:0.57735026 2945:0.57735026 #
1.0000000241482720486629887091112 30:0.70710677 925:0.70710677 #
0.82357324521618724411098355631111 1451:0.5 1546:0.5 1559:0.5 2891:0.5 #
-0.18217090677064592951772681317379 182:0.35355338 400:0.35355338 1287:0.35355338 1666:0.35355338 1743:0.35355338 2141:0.35355338 2190:0.35355338 2418:0.35355338 #
0.94349466909274393167095240642084 43:0.2773501 189:0.2773501 1483:0.2773501 1511:0.2773501 1513:0.5547002 1579:0.2773501 2995:0.5547002 #
1.0000000241482720486629887091112 1413:1 #
1.0000000241482720486629887091112 446:1 #
1.0000000241482720486629887091112 71:0.57735026 195:0.57735026 647:0.57735026 #
1.0000000241482720486629887091112 1514:1 #
-0.1418705516071615546636053295515 438:0.5 1417:0.5 1849:0.5 2693:0.5 #
-0.50660123820153946105904196883785 18:0.33333334 186:0.33333334 488:0.33333334 1424:0.33333334 1874:0.33333334 2311:0.66666669 #
-0.52735437699923948251523597718915 999:0.5 1804:0.5 2584:0.5 2778:0.5 #
-0.50907664328822943566876801924082 705:1 #
-0.43898996386426197835461948670854 129:0.70710677 1416:0.70710677 #
-0.25091559578341926517452975531342 2206:1 #
-0.25091559578341926517452975531342 2670:1 #
-0.19242425610764743448832803096593 618:0.57735026 739:0.57735026 2755:0.57735026 #
-0.18272834335692564322606301630003 364:0.37796447 628:0.37796447 924:0.37796447 1055:0.37796447 1229:0.37796447 1434:0.37796447 2791:0.37796447 #
-0.45493147054063320933181557848002 179:0.5 687:0.5 941:0.5 1463:0.5 #
-0.27144625823099888251022093754727 29:0.2773501 31:0.2773501 77:0.2773501 117:0.2773501 158:0.2773501 215:0.2773501 703:0.2773501 1279:0.2773501 1338:0.5547002 2484:0.2773501 #
-0.25114025067532663726410646631848 2718:1 #
-0.25095904200691510066434375403333 763:1 #
-0.25099489306250544196075225045206 2482:1 #
-0.25088891154396553151428861383465 1293:1 #
-0.25060125965768809130906902282732 799:1 #
-0.22780336807105261431871667809901 1166:0.70710677 1299:0.70710677 #
-0.16817522442923393821700983608025 2352:0.70710677 2680:0.70710677 #
-0.0094929217429272801098694145593981 6:0.5 74:0.25 188:0.25 236:0.25 682:0.25 914:0.25 1463:0.25 2583:0.5 2750:0.25 2777:0.25 #
-0.17392484506156313806002344790613 30:0.2773501 34:0.2773501 45:0.2773501 526:0.2773501 1066:0.2773501 1267:0.2773501 1311:0.5547002 1656:0.2773501 1756:0.2773501 2818:0.2773501 #
-0.25072737184574211966037182719447 1604:1 #
-1.0000000241482720486629887091112 15:0.66666669 17:0.33333334 37:0.33333334 641:0.33333334 659:0.33333334 927:0.33333334 #
-1.0000000241482720486629887091112 681:1 #
1.0000000241482720486629887091112 54:0.40824831 118:0.40824831 119:0.40824831 177:0.40824831 1492:0.40824831 1593:0.40824831 #
1.0000000241482720486629887091112 24:1 #
1.0000000241482720486629887091112 24:0.40824831 215:0.40824831 637:0.40824831 661:0.40824831 2773:0.40824831 2774:0.40824831 #
1.0000000241482720486629887091112 24:0.70710677 1436:0.70710677 #
-0.51505098400071280817513752481318 156:0.35355338 348:0.70710677 551:0.35355338 597:0.35355338 2049:0.35355338 #
-0.36427872502751057481873431243002 10:0.57735026 348:0.57735026 2123:0.57735026 #
-1.0000000241482720486629887091112 77:0.57735026 446:0.57735026 2252:0.57735026 #
-1.0000000241482720486629887091112 348:1 #
1.0000000241482720486629887091112 2:1 #
1.0000000241482720486629887091112 15:0.57735026 458:0.57735026 654:0.57735026 #
1.0000000241482720486629887091112 25:0.35355338 117:0.35355338 373:0.35355338 654:0.70710677 2841:0.35355338 #
1.0000000241482720486629887091112 2:0.70710677 24:0.35355338 45:0.35355338 477:0.35355338 682:0.35355338 #
-1.0000000241482720486629887091112 2:0.21320072 24:0.21320072 26:0.21320072 30:0.42640144 195:0.21320072 214:0.42640144 296:0.21320072 346:0.21320072 405:0.21320072 459:0.21320072 682:0.21320072 890:0.21320072 977:0.21320072 1925:0.21320072 2193:0.21320072 2842:0.21320072 #
-0.33604425838532048231854787445627 18:0.15075567 51:0.15075567 183:0.30151135 188:0.30151135 296:0.30151135 350:0.15075567 373:0.15075567 410:0.15075567 1053:0.15075567 1433:0.15075567 2789:0.75377834 #
-1.0000000241482720486629887091112 30:1 #
-1.0000000241482720486629887091112 6:0.33333334 30:0.33333334 45:0.33333334 51:0.66666669 462:0.33333334 1155:0.33333334 #
1.0000000241482720486629887091112 6:0.22941573 23:0.22941573 25:0.22941573 121:0.22941573 298:0.22941573 348:0.22941573 469:0.22941573 682:0.22941573 978:0.22941573 1429:0.45883146 2778:0.22941573 2842:0.45883146 2844:0.22941573 #
1.0000000241482720486629887091112 23:0.48507124 47:0.24253562 60:0.24253562 77:0.24253562 188:0.24253562 348:0.24253562 372:0.24253562 472:0.24253562 625:0.24253562 656:0.24253562 682:0.24253562 928:0.24253562 1404:0.24253562 2778:0.24253562 #
1.0000000241482720486629887091112 656:1 #
1.0000000241482720486629887091112 1508:1 #
-1.0000000241482720486629887091112 25:0.57735026 935:0.57735026 1497:0.57735026 #
-1.0000000241482720486629887091112 885:1 #
-1.0000000241482720486629887091112 158:0.70710677 952:0.70710677 #
-0.41464052079700369768389123237284 460:0.44721359 679:0.44721359 681:0.44721359 1676:0.44721359 2166:0.44721359 #
-0.09794821405023468319228641121299 73:0.57735026 280:0.57735026 2846:0.57735026 #
1.0000000241482720486629887091112 69:0.5 117:0.5 939:0.5 2845:0.5 #
1.0000000241482720486629887091112 30:0.30151135 68:0.30151135 178:0.60302269 187:0.30151135 488:0.30151135 657:0.30151135 1424:0.30151135 1481:0.30151135 #
1.0000000241482720486629887091112 24:0.5 54:0.5 109:0.5 474:0.5 #
1.0000000241482720486629887091112 30:0.44721359 178:0.44721359 474:0.44721359 887:0.44721359 2750:0.44721359 #
-1.0000000241482720486629887091112 349:0.70710677 488:0.70710677 #
-0.94115981343512944423679300598451 236:0.5 474:0.5 659:0.5 944:0.5 #
-1.0000000241482720486629887091112 18:0.70710677 474:0.70710677 #
-1.0000000241482720486629887091112 195:0.5 346:0.5 1452:0.5 1904:0.5 #
-0.73400627990216693596892127970932 10:0.40824831 166:0.40824831 919:0.81649661 #
1.0000000241482720486629887091112 25:0.33333334 29:0.66666669 464:0.33333334 473:0.33333334 2766:0.33333334 2783:0.33333334 #
1.0000000241482720486629887091112 45:0.40824831 114:0.40824831 348:0.40824831 1425:0.40824831 1584:0.40824831 2785:0.40824831 #
1.0000000241482720486629887091112 348:0.57735026 892:0.57735026 2774:0.57735026 #
1.0000000241482720486629887091112 1425:1 #
1.0000000241482720486629887091112 119:0.44721359 276:0.44721359 892:0.44721359 2764:0.44721359 2774:0.44721359 #
-1.0000000241482720486629887091112 23:0.33333334 77:0.66666669 348:0.33333334 364:0.33333334 1424:0.33333334 1588:0.33333334 #
-0.63093104087892226683464969028137 120:0.57735026 121:0.57735026 276:0.57735026 #
-0.38437955594130684966458488815988 44:0.31622776 269:0.31622776 457:0.31622776 1417:0.31622776 1499:0.31622776 2169:0.31622776 2774:0.63245553 #
-0.32607132692056334244412596490292 33:0.31622776 77:0.31622776 105:0.31622776 431:0.31622776 1110:0.31622776 1421:0.31622776 1669:0.31622776 1840:0.31622776 2033:0.31622776 2778:0.31622776 #
1.0000000241482720486629887091112 5:0.31622776 6:0.31622776 10:0.31622776 24:0.31622776 474:0.31622776 665:0.31622776 685:0.31622776 2767:0.31622776 2842:0.31622776 2934:0.31622776 #
1.0000000241482720486629887091112 46:0.70710677 2777:0.70710677 #
1.0000000241482720486629887091112 465:1 #
1.0000000241482720486629887091112 1504:1 #
1.0000000241482720486629887091112 223:0.40824831 244:0.40824831 458:0.40824831 682:0.40824831 2777:0.40824831 2857:0.40824831 #
-1.0000000241482720486629887091112 371:0.70710677 668:0.70710677 #
-1.0000000241482720486629887091112 108:1 #
-1.0000000241482720486629887091112 6:0.57735026 37:0.57735026 186:0.57735026 #
-0.17243533929714605079652756103314 51:0.21821789 114:0.21821789 448:0.43643579 659:0.21821789 934:0.21821789 948:0.21821789 1028:0.21821789 1256:0.21821789 1434:0.21821789 1451:0.43643579 2768:0.21821789 2831:0.43643579 #
-1.0000000241482720486629887091112 2:0.31622776 6:0.31622776 17:0.31622776 22:0.31622776 33:0.31622776 282:0.31622776 465:0.31622776 600:0.31622776 890:0.31622776 2641:0.31622776 #
1.0000000241482720486629887091112 77:0.70710677 1455:0.70710677 #
1.0000000241482720486629887091112 176:0.51639777 910:0.25819889 1442:0.77459669 1476:0.25819889 #
1.0000000241482720486629887091112 240:0.57735026 1593:0.57735026 2813:0.57735026 #
1.0000000241482720486629887091112 1589:1 #
-0.99829993625325497141886899044039 1455:0.57735026 1504:0.57735026 1961:0.57735026 #
-0.35421047953233286698093706945656 13:0.5 686:0.5 2613:0.5 2811:0.5 #
-0.41087992717579879808909026905894 156:0.70710677 1357:0.70710677 #
-0.64671775322963942489451483197627 156:0.40824831 327:0.40824831 2781:0.81649661 #
1.0000000241482720486629887091112 668:1 #
1.0000000241482720486629887091112 186:0.44721359 474:0.44721359 1591:0.44721359 1594:0.44721359 2766:0.44721359 #
-0.87789120619294280789546291998704 5:0.37796447 101:0.37796447 114:0.37796447 2766:0.75592893 #
-0.22934867985993256933596740054782 6:0.5 236:0.5 474:0.5 1483:0.5 #
-0.44022981796746818439203252637526 559:0.57735026 596:0.57735026 2777:0.57735026 #
1.0000000241482720486629887091112 6:0.70710677 188:0.70710677 #
1.0000000241482720486629887091112 51:0.70710677 2968:0.70710677 #
1.0000000241482720486629887091112 2:1 #
1.0000000241482720486629887091112 613:0.70710677 1407:0.70710677 #
1.0000000241482720486629887091112 54:0.5 713:0.5 1576:0.5 2755:0.5 #
-1.0000000241482720486629887091112 15:0.37796447 153:0.37796447 348:0.37796447 922:0.37796447 1447:0.37796447 1491:0.37796447 1757:0.37796447 #
-0.11720119140404033908353653714585 251:0.57735026 419:0.57735026 500:0.57735026 #
-0.2819928308221952284462474835891 37:0.57735026 77:0.57735026 921:0.57735026 #
-0.16951056870069419746371863766399 10:0.37796447 51:0.37796447 109:0.37796447 348:0.37796447 657:0.37796447 2328:0.37796447 2765:0.37796447 #
1.0000000241482720486629887091112 114:0.70710677 1444:0.70710677 #
1.0000000241482720486629887091112 117:0.40824831 121:0.40824831 243:0.40824831 2770:0.40824831 2781:0.40824831 2855:0.40824831 #
1.0000000241482720486629887091112 921:0.70710677 1435:0.70710677 #
1.0000000241482720486629887091112 6:0.2773501 59:0.2773501 69:0.2773501 114:0.5547002 365:0.2773501 471:0.2773501 1414:0.2773501 1500:0.2773501 2775:0.2773501 2848:0.2773501 #
-0.58170404390541063932573706551921 117:0.70710677 2125:0.70710677 #
1.0000000241482720486629887091112 139:0.57735026 348:0.57735026 1449:0.57735026 #
-0.09889747117045805113733081270766 68:0.26726124 77:0.26726124 121:0.26726124 595:0.26726124 633:0.26726124 680:0.26726124 723:0.26726124 941:0.26726124 1171:0.26726124 1426:0.26726124 1458:0.26726124 1587:0.26726124 1802:0.26726124 2529:0.26726124 #
1.0000000241482720486629887091112 10:0.30151135 25:0.30151135 672:0.30151135 911:0.30151135 1418:0.30151135 1495:0.30151135 2809:0.60302269 2951:0.30151135 #
1.0000000241482720486629887091112 16:0.44721359 348:0.44721359 474:0.44721359 2778:0.44721359 2839:0.44721359 #
-0.82849052344454721108490957703907 139:1 #
-1.0000000241482720486629887091112 25:0.57735026 83:0.57735026 348:0.57735026 #
-0.74981095391499741342755669393227 214:0.57735026 489:0.57735026 1417:0.57735026 #
-1.0000000241482720486629887091112 77:1 #
1.0000000241482720486629887091112 54:0.5 357:0.5 466:0.5 1471:0.5 #
1.0000000241482720486629887091112 54:0.57735026 108:0.57735026 364:0.28867513 682:0.28867513 1452:0.28867513 2748:0.28867513 #
1.0000000241482720486629887091112 54:0.70710677 1501:0.70710677 #
1.0000000241482720486629887091112 10:0.5 114:0.5 641:0.5 2983:0.5 #
1.0000000241482720486629887091112 917:0.70710677 2847:0.70710677 #
-0.16054714941283418361273049868032 54:0.25819889 889:0.25819889 1092:0.77459669 1339:0.25819889 1428:0.25819889 1978:0.25819889 2575:0.25819889 #
-0.11983940916702007228877846500836 51:0.5 657:0.5 823:0.5 2010:0.5 #
-1.0000000241482720486629887091112 977:1 #
-0.95346281945050648243267232828657 17:0.70710677 1590:0.70710677 #
1.0000000241482720486629887091112 5:0.35355338 15:0.35355338 77:0.35355338 101:0.35355338 237:0.35355338 680:0.35355338 1567:0.35355338 2842:0.35355338 #
1.0000000241482720486629887091112 24:0.31622776 348:0.31622776 662:0.63245553 962:0.31622776 1403:0.31622776 2778:0.31622776 2916:0.31622776 #
1.0000000241482720486629887091112 15:0.2236068 24:0.2236068 51:0.2236068 123:0.2236068 347:0.2236068 371:0.2236068 373:0.44721359 654:0.44721359 668:0.2236068 938:0.2236068 1416:0.2236068 1424:0.2236068 1464:0.2236068 2822:0.2236068 #
-0.44257913208050636555412893358152 1426:1 #
-1.0000000241482720486629887091112 15:0.42640144 51:0.63960212 109:0.21320072 114:0.21320072 181:0.21320072 270:0.21320072 668:0.42640144 918:0.21320072 #
-1.0000000241482720486629887091112 15:0.5 51:0.5 296:0.5 668:0.5 #
1.0000000241482720486629887091112 611:0.57735026 1391:0.57735026 2907:0.57735026 #
1.0000000241482720486629887091112 941:1 #
1.0000000241482720486629887091112 901:0.70710677 1428:0.70710677 #
1.0000000241482720486629887091112 30:0.57735026 470:0.57735026 2775:0.57735026 #
1.0000000241482720486629887091112 646:0.57735026 1505:0.57735026 1574:0.57735026 #
-1.0000000241482720486629887091112 30:0.57735026 136:0.57735026 925:0.57735026 #
-0.67071780823794657777625616290607 2748:1 #
-1.0000000241482720486629887091112 187:1 #
